layer
row 0.0189769 -0.000761712 0.00705713 0.00231598 -0.0677097 0.0107387 0.0639025 0.136582 0.0782311 0.0695051 
row -0.81472 0.180362 -0.463075 0.168417 0.229457 0.0298671 0.0967168 0.0970795 0.0761099 0.063809 
row -0.742012 -9.87097 -1.5564 0.458101 -2.05579 -0.12515 -12.1004 -3.66158 0.562464 0.0482245 
row -0.0122021 -0.0201844 0.0094931 0.00958901 -0.014842 0.0183131 0.101021 0.087127 0.110411 0.0551749 
row -27.6137 -1.17998 -2.41224 1.10803 1.49508 -1.85804 2.02829 0.396149 -24.0814 -9.08151 
row 0.303355 3.01527 -0.873697 -0.906367 3.33168 0.658903 5.55392 -24.3599 -2.58395 0.388007 
row -0.0572985 0.033359 0.00288612 0.0222442 -0.0362733 0.0145554 0.0495383 0.0834128 0.0912752 0.0441221 
row 0.0527214 -0.012532 0.0270573 0.000274695 -0.0426627 0.0616313 0.0888432 0.134934 0.0775617 0.0735675 
row 12.2986 1.47647 0.237543 -0.389246 -3.32951 0.0617426 -1.14908 0.508923 -1.53622 -18.0093 
row -0.259451 -24.9528 1.8251 -2.08988 -1.3103 1.2892 -17.7626 19.0806 2.63703 0.949096 
row -0.0188048 -0.01624 -0.00355544 -0.00600193 -0.0728855 0.0544253 0.0912764 0.143031 0.115943 0.0634851 
row -9.23483 -5.03264 -0.0467591 -0.589168 -5.07691 0.252679 4.83642 5.66333 4.24577 -13.0495 
row -0.0226313 4.41195 -0.388864 0.0737656 -0.244871 -0.145976 3.00388 -8.49794 -1.92034 -0.566866 
row -3.93342 11.7178 -1.06322 -0.175053 -2.75458 0.469269 10.544 -24.2297 -2.17343 -2.32583 
row 2.41569 -0.0353135 -1.24228 -0.042685 -0.798131 -0.219916 0.179015 -0.152541 -1.7112 -6.29763 
row 19.5488 -0.0373182 2.02112 -0.92814 -3.72268 -0.790079 -4.8928 0.509194 -2.92486 -31.0335 
row 10.0171 0.133832 -0.965239 -1.37991 -5.35178 -0.296215 -3.48564 1.97795 10.9214 -14.3831 
row -0.36604 0.311325 -0.983772 0.20401 -0.41977 0.24969 -0.567255 0.0173461 -1.71627 -0.130578 
row 0.291851 -0.516169 -1.36569 -0.0842087 -0.208997 -0.0766516 0.516418 0.0931962 -1.38616 -0.498973 
row -0.0147984 -0.0161941 0.00956688 0.0101855 -0.02595 0.00622619 0.100439 0.126105 0.093511 0.0452744 
row 10.147 -1.58386 -2.96047 -0.158462 -5.78452 4.11354 -1.01928 2.08099 -1.09502 10.9933 
row -0.0250004 -0.000655308 -0.0144245 0.0552106 0.033507 0.0307117 0.109698 0.0553379 0.0988658 0.0479426 
row 0.00400798 -0.0139772 -0.00559056 0.000275549 -0.0328592 0.0575039 0.0960561 0.0990461 0.0778421 0.0580152 
row -44.6082 1.07021 -1.66406 1.81198 -1.80615 2.54588 -1.51733 0.287861 -20.8954 2.38414 
row 0.00456006 0.0116903 0.00415826 0.0114744 -0.0238019 0.0661698 0.0700769 0.0971332 0.0805789 0.0580699 
row -7.65705 -0.0690524 -5.52311 -1.29385 -1.524 2.18647 -2.27735 -4.00589 3.25521 -1.50715 
row -5.45165 -6.87323 -1.65577 -0.386209 14.8652 1.6572 2.93382 -2.34056 -0.503008 -8.48989 
row -0.618045 4.67952 -0.458818 -0.0568307 -0.365679 -0.10859 2.14494 -7.28211 -1.25296 -0.194846 
row -3.66815 -9.92576 -2.802 -0.308901 13.9735 0.399369 1.75612 -6.07588 -2.98158 -2.1634 
row -0.0111619 -0.0409185 0.012642 -0.0041316 -0.0577623 0.0650558 0.0869522 0.104436 0.10029 0.0541978 
row 0.03469 0.0573912 0.02847 0.0245982 -0.0382873 0.0876199 0.0563031 0.118948 0.0695889 0.0491142 
row -0.0160007 0.0216339 0.0112956 0.0207457 -0.0391025 0.069454 0.0780198 0.137413 0.104179 0.0499385 
row -0.552186 0.353436 -0.417207 0.146784 -1.22264 0.0171142 0.471975 0.127182 0.0634623 0.127235 
row -2.97934 12.6686 -1.00266 0.192776 -3.12051 0.296702 -7.03899 -19.6916 -0.395919 -2.62389 
row -3.04793 -0.172966 3.97509 -0.566279 -0.355554 -0.238478 -0.516037 -0.656344 -0.951337 -1.46523 
row 6.54275 -0.719832 0.0679695 -0.13016 -0.324479 -0.218622 -1.59661 -1.76676 6.90256 -9.56182 
row 8.88181 -0.780676 0.271586 -0.658572 -1.93435 -0.139789 -0.413581 -0.1203 -5.37016 -17.2935 
row 0.000895934 -0.0130915 0.0314869 -0.00504237 -0.0550348 0.0799494 0.120766 0.155192 0.0869251 0.0215015 
row 0.0620119 0.0288306 0.0406157 0.00231812 -0.0688782 0.0351163 0.0551029 0.1363 0.0558132 0.0427997 
row -2.99087 -4.45175 7.65762 -5.07642 1.83148 -0.619067 0.487876 -3.73336 -1.14258 -0.402553 
row -9.25203 -4.54793 1.23482 -1.55884 -2.13131 0.319944 1.07617 0.833472 2.26787 -8.98334 
row -1.9468 17.1769 -2.018 1.22673 0.692891 0.842961 10.1131 -32.4024 -4.47635 -1.22485 
row 1.66655e-05 0.0597834 0.0258336 0.0201154 -0.0534868 0.00859024 0.0429827 0.123245 0.0780671 0.0291509 
row 6.40351 1.9745 0.485839 -1.46719 -8.01633 2.36958 -5.21806 3.68241 7.83067 -29.1195 
row 3.35586 -4.45463 -0.675555 -0.0146429 -0.655387 0.809114 -11.7824 -0.598928 3.37174 7.9684 
row 0.0195726 0.0117112 0.0110506 0.0137452 -0.00547938 0.0623517 0.0436785 0.0970779 0.0520655 0.0488248 
row 0.0341238 0.00832544 0.0352805 0.0163479 -0.0490024 0.0790549 0.0662752 0.0877851 0.0711977 0.0563141 
row 9.65295 -1.91742 0.427569 -0.43943 -6.27613 0.665555 -2.53858 -1.44815 -9.81254 -14.4281 
row 0.0123173 0.0333265 0.0417336 0.0249953 -0.0908738 0.0113768 0.0455019 0.142778 0.0633065 0.0347767 
row -10.8818 -12.1359 3.44983 -2.35199 13.8427 -1.94395 10.0051 -6.21713 -0.0303044 -19.8121 
row -3.30729 0.482279 -1.66601 0.707344 1.0429 -0.108211 -0.241751 -0.0598935 -1.2029 -0.0910884 
row 0.078649 -0.0295928 0.0306853 -0.045773 -0.0716673 0.00820055 0.0753446 0.137426 0.0252403 0.0366839 
row -0.398898 0.637118 -0.41814 0.392375 -0.362509 -0.112119 0.1387 0.969662 -0.341416 -0.755051 
row -0.00547506 -0.0411042 0.00954375 -0.00177117 -0.0855476 0.0253371 0.0965366 0.152473 0.111917 0.0675241 
row 7.34858 -2.9687 0.173114 -0.155434 -11.8497 1.11205 0.414347 -0.902586 5.03913 -23.8358 
row 10.2503 0.457742 1.34174 -0.497437 -2.84586 0.113635 -2.57413 -0.399749 -1.83047 -16.1016 
row -1.69971 -2.8583 -2.29083 -2.27682 1.67263 -0.322936 0.448944 -1.07701 0.159657 0.643022 
row -0.334044 1.90368 -0.0747519 1.0314 0.221479 0.0935143 5.47861 -12.1945 -0.608668 -0.457304 
row 0.0416746 0.019426 0.0465095 -0.00357351 -0.0723201 0.0930365 0.0739096 0.175417 0.0217693 0.0216287 
row 9.56841 -2.59568 0.400016 -0.26177 -3.34908 -0.452721 -0.468696 -0.0915232 -7.74215 -13.1994 
row 0.0409283 0.0261384 0.0266628 0.0218942 -0.0126528 0.0386693 0.0826015 0.103515 0.0629764 0.050862 
row 4.02157 0.231985 -0.320658 -1.49407 -3.20292 -0.0847449 1.16078 1.13456 -3.96763 -8.23233 
row 0.00662378 0.0281235 0.00695134 0.0118669 -0.030448 0.0284345 0.0443172 0.0926369 0.0652457 0.0387947 
row 0.094558 -4.28708 -0.403322 0.322124 -1.1617 0.169992 -6.20894 -1.57405 -0.00596846 0.499443 
row -0.607786 0.292907 -0.3594 0.102897 -1.15696 -0.001475 0.385014 0.0143514 0.101392 0.165179 
row -0.012321 -0.0057372 0.0228374 -0.00316503 -0.0837511 0.064411 0.0968752 0.133776 0.086121 0.032172 
row 0.503381 10.8357 -0.435457 -1.08692 -0.538801 0.0312159 -1.39528 -17.5926 -1.48203 -1.78955 
row 8.41603 1.04917 0.492372 -0.0544135 -5.03783 -0.0843513 -2.32488 0.924051 -3.95197 -18.0567 
row -1.40445 9.64305 -2.99259 0.468464 -4.08985 0.109363 -10.8722 -24.6304 -0.75497 -2.46134 
row -0.495536 3.52093 -0.000333898 0.250214 -0.271202 0.361181 -4.29328 -3.74252 -0.211477 -0.234586 
row 0.336302 8.52584 0.632291 -0.361845 2.19275 -0.29922 10.9772 -17.3544 -2.34995 0.28427 
row 12.1904 -0.214023 0.288636 -0.0752878 -0.854515 -0.885069 -2.02666 0.487296 -8.0745 -20.0655 
row -4.05669 -3.20947 -0.4445 0.766285 -6.58507 -1.10379 5.03474 5.17506 1.45533 -12.2274 
row -0.0040831 -0.0356101 0.0123331 -0.00359587 -0.0656468 0.0739167 0.103407 0.117996 0.101974 0.0507401 
row -2.08072 8.35722 -1.14451 -1.18282 -0.931873 0.966842 -1.60553 -8.36947 -0.722337 -1.46143 
row 3.19481 1.31905 0.547722 0.62544 -1.58316 -0.148679 -0.597029 0.991395 3.53379 -3.19363 
row 0.0176058 0.0341237 0.0298654 0.0065816 -0.0394156 0.0651987 0.08283 0.15016 0.0694292 0.0375491 
row -0.0169344 0.0468515 0.0186056 0.0284302 -0.0625915 0.0610263 0.0847997 0.137523 0.104126 0.0335573 
row -2.66407 -1.42759 -1.06821 0.118638 -1.65799 0.0178111 3.23395 1.14793 1.66111 -6.05414 
row 9.52475 -3.19701 1.36045 0.112412 -3.00877 0.104455 -3.9808 -0.0238436 -1.89093 -14.3827 
row -1.29444 -1.26183 -1.59806 -2.63446 0.58672 -0.233105 -2.76646 -0.695708 1.09903 0.152657 
row -1.00464 -26.0466 1.32346 -0.281273 -4.76079 -0.235971 -15.9812 13.2411 -0.896988 -4.63 
row 0.00721387 0.0612192 0.0173562 0.0282651 -0.0416067 -0.00161648 0.0552603 0.12793 0.0701374 0.0442935 
row 3.73569 1.28807 1.73875 -0.423966 -1.32044 -0.631184 -3.83076 -0.161561 6.40384 -1.46351 
row -0.852891 0.456562 -0.548539 0.208129 -1.61972 0.00059205 0.573431 0.0605215 -0.0698796 0.187095 
row -1.58838 -0.455418 -4.00104 -1.52084 -0.126676 0.228923 -0.199331 -0.768639 -1.39078 0.228654 
row 0.0122397 0.000875756 0.0421038 0.00340286 -0.100221 0.00190832 0.0598848 0.102334 0.0863938 0.0349824 
row 7.84427 -0.0500071 -1.2959 -0.755643 -0.996803 0.341873 -1.95732 0.301417 -6.65084 -13.2381 
row 13.9904 -2.11956 4.76708 0.0760999 -6.53422 -0.423063 -1.91908 -1.15872 -3.35235 -23.7246 
row 0.0448246 1.50286 -0.032957 0.0184794 -0.136869 -0.0221227 0.98171 -2.72032 -0.730889 0.0178004 
row 23.5091 0.709899 3.50741 1.84717 -1.88179 2.71353 1.47975 1.68996 -14.511 -37.6528 
row 4.02308 -1.21722 -8.88535 -1.3626 -16.1138 1.86024 0.092032 -3.40151 4.76464 -11.7517 
row -13.9656 -1.78878 4.11317 -0.0725009 -13.1682 0.491853 6.77099 7.74697 2.53648 -16.3366 
row -2.96638 8.95995 1.71925 0.0332706 -12.8968 -0.758294 -10.6402 8.69858 11.2275 -38.1054 
row -0.322862 7.68673 -0.945072 0.470884 0.852179 -0.378191 6.3056 -16.1174 -1.8719 -0.953773 
row -0.0922584 -0.00676074 0.0432151 0.0547155 -0.113404 0.0745837 0.10039 0.0960451 0.0708305 0.159833 
row 0.500178 8.87381 -1.41993 0.959224 -1.4402 -0.258835 -6.4325 -17.3772 2.99685 -5.67469 
row 16.1138 1.7731 -0.370928 -0.50013 -3.24774 -0.971192 -1.48036 2.02168 -2.40411 -22.6444 
row -0.0230605 -0.0285612 -0.0026543 0.00340521 -0.0857617 0.0104676 0.104959 0.152075 0.111716 0.066222 
row 6.42876 0.349874 -0.120656 -0.608463 -5.02762 -0.380791 -3.48465 1.36468 6.94658 -12.9102 
row -1.10725 9.97642 -1.48176 1.30327 -0.350041 2.05923 10.5701 -23.4491 -3.55906 -1.90956 
row -0.421727 -28.8678 -0.039789 -0.223992 -0.526203 -2.23564 -24.5086 -12.8578 1.01945 1.81024 
row 5.6851 -12.279 -1.17162 4.0238 6.28142 3.10535 6.96333 -6.87884 -6.08178 7.49571 
row -4.83852 -12.8885 0.0640173 0.24021 -3.68266 0.817633 -16.612 9.11066 -2.60083 -5.49193 
row -1.65778 5.8854 -0.091328 -0.288862 0.783012 -0.442851 4.46473 -10.1311 -2.13597 -0.647845 
row 0.0311441 -0.0461051 0.022526 -0.0208662 -0.0728955 0.0050751 0.0619512 0.173671 0.0412248 0.081217 
row -15.9177 0.411421 0.157289 -0.866884 0.336603 -1.48957 -1.13989 -0.603106 -11.0678 9.10639 
row -1.16967 23.6656 0.343102 1.78627 1.40046 2.85709 -14.1279 -38.639 -2.38255 3.13677 
row -6.61559 -36.3032 0.964219 0.0659627 -5.08715 -1.77723 -19.2057 -5.26813 -1.92635 -6.05615 
row -3.21328 7.05996 -0.625436 0.525307 -1.83784 -0.29761 10.109 -13.2723 -3.75989 -0.835676 
row 8.94024 1.50538 0.00129986 0.390739 -3.69041 0.00927494 -5.77395 1.629 11.3308 -16.7584 
row -0.00390615 -0.0324291 0.0049834 -0.00073799 -0.0104251 0.0256772 0.0948371 0.10236 0.109864 0.0699157 
row -0.396757 -6.31792 -0.941711 -0.0607684 -2.18886 -0.255075 -7.05062 -1.94726 -0.777759 0.627966 
row 0.0778961 -0.0246365 0.0573561 -0.026002 -0.132371 0.050416 0.0511093 0.135768 0.0370465 0.0359373 
row -0.868552 0.502439 -0.078285 -0.373179 -2.03048 0.136456 0.901698 0.0786839 0.91227 -1.30677 
row -0.916975 -0.695575 3.06595 12.5681 -0.680132 1.17793 1.02601 -0.836768 0.511932 -1.89353 
row -1.45501 -18.1887 -0.0243478 -1.02474 -6.40871 -0.102778 -18.6919 -6.39268 -2.53878 2.73455 
row -3.37449 18.6495 2.4258 -2.47635 -3.57023 1.0422 -9.62363 -27.7218 -0.376595 -3.38921 
row 2.48507 0.368423 -0.0588499 -0.11086 -1.46567 0.0278323 -1.57753 1.47094 3.72446 -3.93479 
row 13.0759 -1.03777 0.606403 -1.71417 -7.76782 0.337271 -0.0237077 -1.12427 -9.12517 -22.1272 
row 10.1159 -3.89037 0.361897 -0.073165 4.39149 -0.722466 1.68334 -2.48594 -7.95909 -11.0948 
row 2.51495 8.49576 -0.644813 0.143279 0.355693 -0.466418 -1.27716 -17.7072 -2.84691 1.75657 
row 6.54148 0.234938 0.124598 -0.464021 -2.73535 0.0917787 -1.52834 0.377317 -3.84962 -9.31456 
row 3.5841 1.43787 -1.14782 -0.165435 -2.10439 0.0296014 -0.871672 -0.131149 -1.10655 -4.95943 
row 4.75348 -2.51991 8.97042 1.18519 -10.2813 -0.723092 1.60353 -1.71954 8.05668 -5.14552 
row -1.99793 -0.841251 0.321055 -0.56249 -7.82955 0.436583 -0.0945582 -0.127535 3.04773 0.0801118 
row -16.2348 -1.57521 -1.2453 0.0785054 4.47127 -0.269837 0.101793 -1.75981 -20.3923 1.33646 
row 0.359696 8.22987 -0.377721 1.18565 0.110775 -0.676053 6.3712 -16.9476 -1.59784 0.0562352 
layer
row 0.0147866 0.0386468 -0.312406 0.00808102 0.115976 -0.0937628 0.00247182 0.0774377 0.184454 -0.7231 0.0732139 -0.137408 -0.181234 0.519738 -0.0730764 -0.126552 -0.416967 -0.00484808 0.0335473 0.0597442 0.279664 0.0432523 0.0922856 -0.468317 0.0749655 -1.12716 0.139078 -0.149122 -0.518606 0.0109117 0.037028 0.0437442 0.110156 -0.194627 0.148301 0.242162 0.0970515 0.0684102 0.0901972 0.973233 -1.32727 -0.457287 0.047576 -0.115895 -0.577008 0.0225256 0.0139909 -0.0639613 0.0720088 -0.80821 0.0663292 0.0161429 0.0921094 0.072311 0.655421 0.382629 -0.15503 -0.444655 0.0281458 -0.198515 0.0688201 0.00657488 0.0273285 -0.211254 0.104226 0.033151 0.200208 0.565407 0.330566 -0.147561 0.51394 -0.2165 0.323752 0.0131014 -0.843639 0.0268828 0.0798009 0.00188813 -0.0337635 -0.261923 -0.240201 -0.397848 0.0317983 -0.169437 0.203399 -0.173845 0.00823776 -0.0205229 0.24616 -0.00239238 0.449247 -0.464972 -1.64255 0.651715 -0.249621 0.0160332 -0.479919 0.544909 0.00708177 0.375663 -0.0412773 -0.744973 -0.0633159 -0.375805 0.352348 0.0943234 -0.468944 -1.00532 -0.214672 -0.0216041 -0.300521 0.0524634 -0.20022 0.0339387 0.162085 -1.32804 -0.039759 -0.196448 0.087661 -0.425519 0.112511 -1.11761 0.0472747 -0.195166 0.029062 0.0935188 0.382355 0.106112 
row 0.0481911 -0.00554646 -0.545216 0.0806864 1.09795 -0.609939 0.0563358 0.0950279 0.62862 0.00416306 0.0149407 0.0866439 -0.407982 -0.452412 0.210052 0.341072 0.00123637 0.12259 0.128455 0.0441338 0.312024 0.0271731 0.00739738 2.54885 -0.000680977 -0.300854 -1.41572 -0.233679 -0.00832165 0.05642 0.0402227 0.0773974 0.0784534 -0.708201 0.0333869 0.353198 0.155323 0.0906714 0.0865079 -0.888457 -0.923634 -1.49395 0.0150704 -0.449003 0.164116 0.0649467 0.0750574 -0.0679455 0.0390952 -0.781376 0.0554655 0.0795406 0.111998 0.0864624 0.461662 0.669041 -0.0592969 -0.317289 0.0807536 -0.0758359 0.0907778 -0.0161376 0.0701856 -0.103254 0.117779 0.0128627 -0.616548 0.351809 -0.0170482 -0.161207 0.180477 0.330989 0.325247 0.00979011 -0.0452103 0.190981 0.066821 0.0168359 0.0815869 0.0341249 -0.097841 -1.07111 0.0505453 0.00635449 0.124182 -0.0772994 0.0865534 0.125717 0.413751 -0.0989309 -0.264383 -2.47775 0.0807651 0.267382 -0.571379 0.0879255 -0.991454 0.257101 0.0541756 -0.00807304 -0.307828 -1.19988 -0.0432428 -0.405939 -0.134 0.0164273 0.00345812 -1.11637 -1.14703 -0.632702 0.273624 0.0999735 -0.405246 0.0178358 0.0998491 -1.10063 -0.767941 -0.76959 0.133842 -0.18902 0.125269 -1.09726 0.278394 -0.002691 1.29063 -0.318872 0.60797 -0.459501 
row 0.0275876 0.107467 0.438067 0.0344641 -2.18935 0.0812566 0.0547251 0.0544772 -0.878566 0.391487 0.0578316 0.225734 0.250184 0.0542213 -0.164251 -0.537272 -0.835423 0.202068 -0.0590837 0.0534362 0.0052966 0.0529017 0.0978623 -2.48982 0.0958779 0.556336 -0.0580738 0.396451 0.243153 0.00539072 0.0948221 0.0687864 -0.0989278 0.588588 -0.507749 -0.526682 -1.12332 0.0751618 0.0890965 -0.104801 -0.0164314 0.608632 0.0795741 -0.707416 0.0387053 0.0902789 0.0958937 -0.0397236 0.062715 -0.664853 0.275768 0.0856447 -0.0844804 0.0913138 -0.816215 -1.34052 -0.0250139 0.174362 0.0410111 -0.381506 0.0405921 -0.0690663 0.0776225 0.204545 -0.0779199 0.0426931 0.439884 -0.976376 -0.203012 0.117178 0.576454 -1.20241 -0.432788 0.0279111 0.349944 -0.252598 -0.00227381 0.0269566 -0.155456 -0.310311 0.296275 0.156526 0.0625226 0.0818492 -0.112634 -0.276469 0.0770409 -0.465257 -1.0037 0.161068 -2.00731 -1.21178 -0.0588317 -0.361135 0.382504 -0.00141031 0.797296 -0.637342 0.0450603 -0.301021 0.469817 0.299625 0.708891 -0.463174 0.422242 0.00975373 -0.699899 -0.132579 -0.0631429 0.289756 -0.0945223 0.0443275 0.717459 0.0694594 -0.0764356 -2.33808 0.0568259 0.0503647 -0.400605 -1.41092 -0.341089 1.3835 -0.429268 -0.281655 1.34118 -0.32156 -0.430647 0.477783 
row 0.0887736 0.0323921 -0.167277 0.0984309 -2.06211 -0.384602 0.0602202 0.0972721 -0.755302 0.607666 0.0990215 0.294315 -0.231724 -0.0953456 -0.129575 0.096123 -0.00420556 0.0687993 0.0128563 0.0955232 -2.40889 0.0205265 0.0666927 3.6994 0.0858422 0.150808 1.17102 -0.137832 0.357413 0.0649156 0.0478083 0.0641706 0.10178 -0.330053 -0.271305 -0.433787 -0.192227 0.0763886 0.00866679 -4.2744 0.507123 -2.51185 0.0990561 0.681001 0.259197 0.0876061 0.032558 0.23853 0.0561919 0.705292 0.0704769 0.0147741 -0.0518361 0.019949 0.868258 -0.744256 0.060939 -0.147972 0.0161386 -0.187334 0.0765404 -0.0906314 0.0327655 -0.0573282 0.0996292 0.0245352 -0.358971 -0.601876 -0.275826 0.0615069 -0.231052 -0.576748 -0.266582 0.057022 0.011313 -0.306862 0.0718148 0.0231259 -0.0619755 -0.499401 0.157981 -0.541616 0.0806239 0.171717 0.120259 -0.0460527 0.000502673 -0.139103 -0.277735 -0.0204607 -1.55404 -1.55861 -0.144677 0.785058 -0.182754 0.0261359 -0.152763 -0.428494 0.0589321 -0.57831 -0.550329 -1.02541 -3.62967 -0.994405 0.213806 0.0296776 0.0767972 -2.76134 -0.755015 -0.084566 -0.175985 0.0608811 -0.070302 0.0806797 0.00516487 1.10805 -0.762862 -1.01271 -0.204446 -0.237029 -0.413923 -0.669171 -0.68605 0.11933 -1.16464 0.134919 -0.289946 -0.0679084 
row 0.0747306 0.0797171 -0.154305 0.0204961 -2.10063 -0.730655 0.0112464 0.0208987 1.35039 -0.131084 0.0655182 -1.64639 0.292511 -0.15631 0.503221 -2.23688 -1.81915 0.103518 -0.0329061 0.0623587 -0.163257 0.0782333 0.0198744 -2.40017 0.0870055 -1.75075 -1.1841 0.472584 -0.997353 0.0853028 0.0863491 0.10165 0.03659 -0.0717639 -0.353201 0.318666 3.39643 0.063946 0.076334 1.0986 -1.40546 -1.2239 0.0510322 -1.224 -0.936443 0.00574794 0.0340506 -0.206267 0.065219 -1.80264 0.0618527 0.0142013 0.0326365 0.0426132 -1.27335 1.43084 -0.84602 -0.92129 0.0832142 3.60221 0.0450961 0.525479 0.00107965 -0.379685 0.0655379 0.0955581 0.208416 1.81471 -0.831432 -0.481926 -2.16633 3.52266 0.706158 0.00271451 -0.983499 0.526899 0.0738081 0.0605419 -0.3718 -0.24811 -0.226663 -0.374915 0.0277284 -0.222798 0.00842274 -0.501976 0.0923318 2.44037 1.75712 0.0799391 2.2461 -3.95936 -2.76274 -1.1992 -0.0383399 0.0491679 -0.834048 0.822023 0.015944 -0.25048 -0.216232 -1.73374 0.316275 -0.682718 -0.135709 0.076685 -0.226707 -1.76571 -0.598916 0.0435604 -1.42411 0.0208708 -0.0823883 0.0479649 -0.101644 -0.0854899 -0.748012 -0.688592 0.476437 -0.129618 0.253402 0.451179 2.4448 -0.264506 -0.833774 -0.397139 0.0556468 -0.0490156 
row 0.0487876 0.0868364 1.52137 0.0803826 -0.651379 1.36599 -0.000884181 0.0598764 -0.545031 -0.391943 0.0382706 -0.795299 1.08099 2.38288 -0.417571 -0.688784 -0.548951 0.0227613 -0.167638 0.00663507 -2.37933 0.0528307 0.0785157 -1.67437 0.0675634 -0.229126 -2.39345 1.0308 -5.00192 0.0659844 0.0244158 0.00797987 0.0287305 1.82412 -0.545069 -0.129638 -1.86447 0.0636679 0.0822286 -1.38533 -1.55772 0.471802 0.0321519 0.993694 -0.007922 0.0958127 0.00384756 -0.766844 0.000208862 -1.57773 0.230217 0.0353412 -0.143839 0.0587594 -2.85587 -0.0550238 0.0860554 1.46896 0.0579779 -0.0657262 0.0601541 -0.459906 0.0700079 0.788654 0.03564 0.0930279 1.46065 -0.659111 1.7039 -0.22469 0.495803 0.480297 -1.55259 0.0575545 2.21662 0.248756 0.0501793 0.0759956 -0.562841 -0.45404 0.473322 -1.24656 0.0904468 0.0431878 -0.00896564 -0.362784 0.0112221 -0.55942 0.225365 0.393684 -0.650409 -3.38638 -3.15769 -1.54623 1.6409 0.0202343 0.47669 -0.113241 0.0536626 0.565367 -0.850275 0.583969 -0.587775 -1.78352 0.666986 0.00663363 -0.442567 2.15458 0.257349 -0.46113 0.265077 0.0981874 1.30283 0.0701678 -0.190374 0.22581 3.85711 2.73933 -0.119902 -0.522019 0.248753 1.67085 -0.404265 0.14677 -1.25158 -1.42502 -1.10648 2.27449 
row 0.0507769 0.0278545 0.128088 0.0167906 -1.33294 -0.244169 0.0691354 0.0905843 -0.377163 -0.455314 0.0249729 0.342434 -0.0446971 0.201003 -0.159511 -0.432955 -0.414222 -0.0147264 -0.182589 0.0584157 0.0983653 0.0485127 0.0534068 -1.70914 0.0304534 0.0627941 0.173204 0.0868214 0.0414989 0.0256726 0.0324624 0.0555654 0.0422129 0.251235 -0.246365 -0.272116 -0.419801 0.0428697 0.0644699 -2.10901 -0.0364195 0.134353 0.0400238 -0.43308 -0.26436 0.0401262 0.0181193 0.094225 0.0106928 0.114525 0.144808 0.0409265 0.0141314 0.0716229 -1.25563 -0.469136 0.0313229 -0.0899189 0.0269062 -0.474853 0.0889236 -0.18793 0.055492 0.0546981 -0.0244966 0.0225904 0.217971 -0.204502 0.0372096 -0.0509856 -0.88907 -0.563901 0.149827 0.0368315 -0.125256 -0.0699642 0.0729855 0.0284493 0.0780474 -0.3255 0.0512852 0.0690923 0.0211842 0.0517133 0.028149 -0.0726618 0.0971493 -0.17949 -0.835809 0.0246639 -1.83298 -0.940092 0.0485779 -0.0592001 0.227126 0.0606751 0.96808 0.0992161 0.00860294 -0.097639 0.265447 -0.471884 -0.648475 -0.152267 -0.0382658 0.0480743 -0.632694 0.988447 0.0923973 -0.217221 -0.214409 0.0768106 0.192715 0.0299722 0.0430343 -1.26484 -0.0699986 0.216754 -0.220691 -0.820029 -0.510702 0.123805 -0.341217 -0.207074 0.0881349 0.145563 -0.670151 -0.223683 
row 0.0239062 0.0562974 0.920319 0.0642197 -0.790264 0.571722 0.00876179 0.0963345 -1.27185 -1.19461 0.0769411 -0.658974 0.442643 0.10756 -0.276829 -0.928262 -1.49778 0.128641 -0.177388 0.0189208 -1.5156 0.00242246 -0.000287458 -2.2676 0.0125212 0.81009 -1.39973 0.62259 -0.938422 0.022827 0.0906059 0.0436889 -0.0604236 1.02156 -0.888303 -0.578095 -0.785706 -0.00360888 0.0787139 -0.906963 -1.8842 0.693333 0.0626197 -1.97309 -1.56238 0.0357821 0.0954247 -0.0285048 0.0579247 -0.831417 0.478928 0.0509592 -0.122335 0.084765 -2.32087 -1.54568 0.120506 0.325548 0.0876544 -0.792248 0.0568678 0.114458 0.0467478 0.453825 -0.0143862 0.0324459 0.716179 -1.3489 -0.117554 0.135691 -0.169379 -0.733774 -0.458978 0.0091165 0.30302 -0.397472 -0.00459237 0.0331699 -0.312945 0.63169 0.514024 0.517331 0.062527 -0.116118 -0.111001 -0.0953715 0.0712472 -0.82271 -0.802844 0.219265 -0.922435 -3.06288 -1.68214 -0.242889 0.667682 0.0634567 1.4613 -1.36184 0.0367116 0.303819 -0.117688 1.71297 -0.818513 -1.12012 0.185408 0.0855186 -1.84332 0.306746 0.642551 0.939615 0.710049 0.0946021 1.12114 0.0299232 -0.106932 -0.80161 2.12669 0.675775 -0.390066 0.123482 -0.464409 1.79157 -0.895515 -0.508513 1.65361 0.0264755 -0.671569 0.723552 
row 0.0866763 -0.106608 -1.02597 0.0860983 0.132432 -1.29201 0.00201269 0.0485697 3.314 -1.05212 0.0507566 0.0646549 0.165808 -0.704698 2.37695 0.505432 -3.23085 1.17343 0.138654 0.013073 -2.38304 -0.00206371 0.0245831 1.04581 0.0812591 -2.67961 -0.0177287 -0.183846 -0.839273 0.0789271 0.00194374 0.0926427 0.121865 -0.742265 -0.51331 -0.876001 -0.0364635 0.0888008 0.039453 -0.135908 -0.207226 -0.922174 0.0342293 -0.106011 0.140362 0.0989949 0.0929838 2.40551 0.0663191 -1.24408 -0.284764 0.0338755 0.311407 0.0713146 -1.06032 3.68843 -0.925226 0.237692 0.0446541 -0.457553 0.0892003 2.06715 0.0926047 -0.420245 0.193333 0.0945757 -0.546915 4.05985 -2.10809 -0.457515 0.193256 1.90475 1.40614 0.0782728 -1.79099 -1.75831 0.0271741 0.037466 0.592463 1.42063 -0.698641 -1.20836 0.010748 -3.2187 0.241415 -0.684112 0.0103544 2.19752 5.63032 -0.0345063 0.677094 -4.38728 -1.68394 0.430729 0.612912 0.00584235 -0.167945 3.25067 0.0122387 -3.08737 -0.635897 -0.612115 0.170662 -0.632992 -0.120219 0.00847677 -1.10507 -1.71557 -0.42505 1.78227 -0.229778 0.00809529 -1.04681 0.0479208 0.0949429 -0.384443 -1.89735 -0.46732 -0.529822 -1.81587 4.24191 -0.216229 -0.31604 -0.640818 -1.26105 -2.01442 -2.52616 0.0949427 
row 0.0917601 0.0258425 -0.110333 0.0324871 -1.72774 -0.159057 0.0531874 0.0493362 0.0461546 -1.13153 0.0912526 -0.300351 -0.0660836 -0.00159562 0.00664776 -0.147152 -0.358051 0.102913 0.12071 0.083843 0.0353286 0.00414092 0.0667603 0.0277698 0.0915174 -0.680155 -0.735588 -0.116552 -0.389276 0.0802829 0.0604485 0.0794062 0.107353 0.132324 0.0735715 -0.135025 -0.247836 0.0775681 0.0723216 1.48964 -0.320746 -0.11607 0.0920437 -0.0951579 -0.144763 0.0149838 0.0982495 0.478895 0.0896891 -0.435708 0.0556725 0.0088889 0.0435947 0.0219726 -0.0812632 0.22904 -0.106154 0.165317 0.0823369 -0.19498 0.0589255 -0.106235 0.0958661 0.0895788 0.136423 0.0628648 -0.0519292 -0.0598233 0.0679126 0.051366 0.899522 0.175325 -0.286866 0.093388 -0.298474 -0.179813 0.0954148 0.0637595 -0.184041 -0.0066998 -0.0860188 -0.547801 0.0629778 -0.26011 0.227086 -0.15619 0.0671605 -0.101751 0.46896 -0.0187862 -0.689725 -0.68912 -0.682611 -0.325435 -0.191843 0.0558925 0.0476993 0.282455 0.0603884 -0.348958 0.0469794 -1.14944 -0.209392 -0.0410316 0.889119 0.0450495 0.659428 0.451377 -0.19429 -0.150318 -0.102473 0.0920134 -0.0821714 0.0714164 0.156417 -6.37491 -0.726382 0.544215 0.0319498 0.655799 -0.158471 -1.04482 0.369221 0.272822 0.81507 -0.240403 0.353607 0.0396134 
row 0.00861998 -0.0663122 -0.485217 0.0870502 -0.128722 -0.627878 0.0562043 0.0120879 -0.205926 -0.997182 0.00188421 -0.502564 0.0435318 -0.176614 0.169436 3.22318 0.473751 0.255895 0.168289 0.0357161 -1.9449 0.0201521 0.0606987 0.120163 0.0955979 -0.303035 0.113439 0.01318 -1.36899 0.0285195 0.0696627 0.0612326 0.114012 -0.714062 -0.247918 -0.183506 1.94526 0.0912233 0.00965853 0.347069 -0.75743 -0.739316 0.0610951 -0.573784 -0.339437 0.0450745 0.000280428 -0.38276 0.0838216 -0.5252 0.112976 0.0587087 0.0254526 0.00883141 -0.237457 0.0584656 -0.742687 -0.00168044 0.0206872 1.28183 0.036784 0.399529 0.0926447 -0.0777339 0.0568336 0.0871703 -0.0600562 0.37731 0.424636 0.287158 0.418662 1.90729 -0.524598 0.0750658 -0.691114 0.296838 0.0436618 0.0173485 -0.31599 1.48054 -0.936906 -0.0587657 0.0965142 0.26591 0.170942 -0.585316 0.064655 1.28325 1.26061 -5.11234e-05 2.31435 -2.56559 0.422369 -0.343251 -0.143724 4.57109e-05 -0.468323 0.209991 0.0764276 0.276296 0.117223 -0.913796 -1.15413 -0.0830092 -0.379993 0.0529992 0.828821 -0.629652 -1.23556 -0.122078 -3.52018 0.0404547 -0.266879 0.0244659 0.150946 -3.11775 -0.806487 -0.851741 0.077091 2.15428 -0.0798829 -0.592661 1.37334 0.394889 -0.00478194 0.193045 -0.734399 -0.356923 
row 0.0540972 0.0311203 -0.437994 0.0627447 -0.955368 -0.178608 0.0601763 0.0723765 -0.0398444 0.376914 0.0162254 0.19799 -0.355308 -0.0800515 -0.0324699 -0.357386 -0.0862348 0.0449215 0.0267162 0.07326 0.0600482 0.0808841 0.0165631 -0.446397 0.0259685 -0.0319867 0.0208916 -0.227535 0.133262 0.0971377 0.0756188 0.019064 0.110496 -0.474185 -0.112945 -0.0397573 -0.157063 0.0259244 0.080639 -1.4081 -0.0389586 0.0814365 0.0428443 -0.103751 0.0363496 0.0550871 0.070892 0.0274341 0.0196519 0.235833 -0.0451006 0.0956874 0.060304 0.0729258 -0.225294 -0.0100384 -0.0457368 -0.0418209 0.00877116 -0.277406 0.0820444 -0.150397 0.0546605 -0.190977 0.112944 0.00248041 -0.327716 -0.155509 -0.220509 -0.192336 -0.828208 -0.4575 -0.086487 0.0644899 0.0420458 -0.166496 0.00679713 0.0762018 0.188283 -0.0787612 0.0957178 -0.340385 0.0908969 -0.0254578 0.176028 -0.0841582 0.0140136 -0.259361 -0.434631 -0.105184 -0.0813292 0.482604 -0.0145665 0.0522403 -0.419184 0.00280139 -0.185242 0.0487815 0.0429157 -0.223629 -0.348755 -1.28807 0.616958 -0.223321 -0.200201 0.087655 -0.240394 -0.281406 -0.149837 -0.0948788 -0.158148 0.0718498 -0.382145 0.0345146 0.131656 -0.166349 -0.580942 -0.244518 -0.00282389 -0.726138 -0.0883087 -1.11166 -0.445397 -0.261499 0.187722 -0.00694794 -0.144923 -0.025256 
row 0.0510899 0.0942752 -0.303539 0.0795917 -2.06697 -6.18055 0.0146608 0.0325699 -0.699919 -1.30323 0.0780345 -0.42949 -0.892449 -0.541678 0.40859 -0.445114 -3.80821 -0.0848988 0.0125654 0.0907418 -2.99849 0.00524091 0.0465315 -0.395109 0.0303563 -0.852612 -3.53804 -0.31151 -2.9183 0.0972497 0.0391115 0.0351693 0.0344899 -1.00079 -0.432792 -1.8757 -0.646952 0.0231224 0.0265035 -0.323898 -1.0548 -1.00348 0.0913435 -0.68144 -2.20505 0.0972032 0.0112703 -2.45238 0.00616815 -5.85641 -0.250494 0.0401953 0.709106 0.0487728 -2.09078 -0.338449 -0.0469867 -1.55414 0.0704552 -3.64974 0.0627287 -1.93298 0.0659838 -0.299069 0.113272 0.0509574 0.537221 -0.0644659 -1.1146 0.0250409 0.129432 -0.603664 4.08141 0.0278161 -2.22142 -1.47424 0.0969194 0.0208394 2.37836 -0.36768 -1.26249 -2.13095 0.0397126 -3.06265 0.0565223 -0.152633 0.0316104 -1.78569 -0.500764 -0.294846 -0.19459 -3.04798 -1.03679 0.291868 -1.36884 0.0119305 4.11308 -1.3785 0.0176676 -2.04927 -1.24026 -2.04684 -0.00864818 -2.90945 -0.156704 0.0879025 -0.626816 -2.91952 3.85318 -4.68312 -1.45213 0.0269684 0.328242 0.0990533 0.0225386 0.0661526 -2.66009 -1.40602 -1.18533 -2.92483 -5.12773 2.80871 -0.194603 -1.04973 -1.69052 -1.98533 -3.28423 -1.01385 
row 0.0833027 -0.0127485 -0.611484 0.0545309 -0.105966 -0.554625 0.00543368 0.069666 0.087176 -0.585845 0.0503331 0.0464652 -0.30428 -0.106721 0.0833954 -0.0224946 -0.365856 0.068246 0.0661125 0.0531034 -1.77447 0.0153026 0.036731 0.767092 0.0167371 -0.185401 -1.51133 -0.222311 0.55155 0.0206159 0.0833596 0.101501 0.0749949 -0.589046 0.0256875 0.0602936 -0.374127 0.0670283 0.0166593 -1.0779 0.0210685 -0.441681 0.0766375 0.423799 0.102526 0.0936933 0.0613073 0.0490351 0.0598028 0.526515 0.0726938 0.0287386 0.0785419 0.00420647 -0.238832 0.24542 0.0461512 -0.163945 0.0227979 0.0160251 0.0295365 -0.180217 0.0108089 -0.0866736 0.135924 0.0896236 -0.475028 -0.0193631 -0.215294 -0.135101 -0.352807 -0.122753 0.120732 0.0788768 -0.0287246 0.0793253 0.095603 0.0394465 0.210113 -0.0589125 -0.0610405 -0.283108 0.0906963 -0.0366676 0.206512 -0.0643976 0.0921005 0.0198753 0.0297109 -0.0773011 -1.63403 -1.68154 0.362783 0.728889 -0.413785 -0.00440385 -0.602986 0.206473 0.0180676 -0.125034 -0.309052 -1.06297 0.678269 -0.551532 0.237452 0.0359068 0.0951896 -1.80523 -0.392813 -0.283908 -0.26553 0.0650707 -0.547739 0.0291918 0.0908088 -2.57343 -1.11709 -0.43905 0.0652751 0.130033 -0.0283539 -1.10447 -0.162041 -0.0320422 1.12844 -0.0991145 -0.0345516 -0.286112 
row 0.0212807 0.108639 -0.279104 0.0632267 0.176826 -0.497686 0.0734454 0.0676427 -0.919732 -0.780899 0.0792366 0.4438 -0.278224 -0.151249 -0.142607 0.0783816 -0.439879 0.223086 0.0535994 0.0662301 -0.0538524 0.0416757 0.0657866 0.8699 0.00477773 -0.0523201 0.0407451 -0.174234 0.0223287 0.0387314 0.0970658 0.0665494 0.000201993 -0.424435 -0.20865 -0.050219 -0.317277 0.0952915 0.0293128 -4.912 0.640093 -0.642336 0.00543533 0.719775 0.168681 0.0298261 0.0729752 0.29146 0.0372931 0.390922 0.0865311 0.0659852 -0.00325195 0.0904414 -0.539128 -0.641212 0.10647 -0.266927 -0.00108843 0.345079 0.0638272 0.0268492 -0.00110962 -0.138881 0.0233996 0.0780537 -0.301369 -0.514983 -0.0372289 -0.20974 0.30036 -0.0400221 -0.309981 0.0774519 0.125962 -0.390625 0.00775029 0.0693226 -0.051103 0.243836 0.108886 -0.588852 0.0860542 -0.0819923 0.0141182 -0.00726604 0.0696706 0.0732238 -0.319563 -0.0189313 -2.85684 -1.30981 0.600123 -0.295917 -0.232289 0.0313631 -0.664574 -0.0283496 0.0403462 -0.340522 -0.59257 -0.801027 -6.66873 0.021266 -0.215104 0.00250518 0.33981 -2.63493 -0.0657 -0.328032 0.0960985 0.00741059 -0.178709 0.0394332 -0.00405419 -0.435338 -0.225456 -1.25813 -0.110045 0.733075 -0.250411 -0.393455 -0.182685 0.165126 -1.45552 -0.316144 -0.574559 -0.234305 
row 0.0876132 -0.0533928 -0.300938 0.0946709 -0.670801 -0.628906 0.0751638 0.0672477 0.530054 -0.337676 0.0691674 -1.72997 -0.276112 -0.205595 -0.192905 -0.187041 -0.392947 -0.102301 -0.332575 0.0648441 1.0725 0.04433 0.0444583 -1.518 0.00538431 -1.45689 -1.03144 -0.0946667 -0.674428 0.00659752 0.0323551 0.0772513 0.0366178 0.197578 -0.938127 0.0172629 0.432417 0.0932822 0.0290417 -0.229784 -1.32682 -1.0612 0.0590843 -0.703747 -0.977755 0.0853334 0.0351442 1.266 0.0466159 -1.07379 0.217934 0.0297512 -0.153221 0.0661577 -1.78755 0.22712 0.253675 0.224536 0.0883574 -1.61298 0.0849316 -0.039374 0.0460285 -0.00812685 -0.0423799 0.0560845 -0.000963382 -0.118282 0.723108 0.471074 -0.50228 -0.387165 0.257938 0.00866243 -3.25333 0.581016 0.011338 0.0384157 -0.585409 0.0145458 -1.01895 -0.337974 -0.000267689 0.51388 0.00205796 -1.02744 0.099454 0.250153 -0.531038 -0.162448 -0.803567 -3.09101 -2.30751 -0.485211 -0.275375 0.0471539 -0.182809 -0.398078 0.100745 0.0574368 -0.359577 -0.296893 -0.196778 -0.600322 -0.347078 0.0957756 -1.22282 -0.452516 0.691993 -0.438635 -0.336119 0.0896162 -0.337684 0.0142197 -0.0193035 -1.8584 -0.842089 -0.846745 -0.167164 -0.362854 -0.255887 -0.370403 0.201477 -0.163304 2.14257 -0.843708 0.706252 -0.559744 
row 0.085362 -0.0932034 0.0508393 0.0508995 1.79034 -0.254438 0.058723 0.014839 3.88214 -0.216295 0.0320292 -0.862692 -0.172779 -0.784967 1.2099 0.205274 -2.28468 -0.129519 -0.0030798 0.0552728 -5.55094 0.0178627 0.0369075 1.04882 0.023252 -0.904373 0.989312 -0.0683291 -0.456016 0.0457337 0.0222109 0.0796829 0.167203 -0.793769 -0.543172 -1.37327 -0.205251 0.00185595 0.0847107 -0.801904 -0.395638 0.356962 0.0483718 -0.0415361 -0.672623 0.0224765 0.00133334 4.31377 0.0218993 -0.300853 0.379143 0.0609688 0.19159 0.0339365 -0.0904755 3.85609 -0.729463 0.637571 0.0978681 2.46325 0.0840579 1.37809 0.0632703 0.05731 0.140289 0.0650662 -0.49856 4.31977 -0.417992 -0.436686 -0.0181357 0.776337 1.09058 0.0847091 -1.47882 -1.97529 0.0595329 0.0863191 0.515623 -0.132018 -0.953965 -0.247808 0.0846432 -2.57031 0.212559 0.00698988 0.0136414 0.454365 2.33052 -0.171057 -0.112788 -1.67396 -0.428619 0.603501 0.918164 0.0610715 -0.054154 1.20839 0.0098321 -3.37277 -0.172047 -0.886505 -0.521252 -0.237686 -0.0305418 0.0522701 -1.01714 -0.812803 -0.789843 1.11452 -0.73786 0.0215995 0.0261072 0.086848 0.0309994 0.291023 -1.72205 -0.339928 -0.417665 -1.90342 4.32234 -0.813439 -0.156538 -0.719955 -1.83641 -2.23528 -1.65272 -0.522177 
row 0.0308901 -0.0301491 0.271565 0.0752139 -1.3965 -2.98614 0.00297922 0.0647733 -2.66947 -3.82929 0.0382878 0.465831 0.190763 0.541241 -0.988459 -0.411421 -2.13245 0.0230294 -0.81987 0.0481535 -2.61774 0.0829099 0.0715736 -1.72393 0.0906526 0.915693 -2.63451 -0.302369 -4.51077 0.0624607 0.0516641 0.0046013 -0.037259 0.196428 -0.0782206 -1.19596 0.505499 0.0198547 0.0643789 -0.504275 0.96639 -3.03716 0.0923122 -1.31211 -4.41218 0.0566244 0.0894107 0.45007 0.0524125 -4.00541 -0.368998 0.0300118 -0.0825104 0.0712918 -1.4738 -0.899094 -0.596066 -0.630466 0.0260944 -1.32815 0.0388064 -0.582952 0.0326098 0.839921 -0.0238372 -0.000654172 -0.0321311 -1.04479 0.354184 0.603392 -0.253763 -0.803475 -0.514769 0.087141 -0.580522 0.158967 0.0848254 0.0407164 0.599716 -0.16306 0.215965 0.0200587 0.0176273 -0.374673 -0.0106384 -0.239831 0.0407596 -0.452579 -1.45115 -0.0293349 -2.68518 -3.2922 -0.043519 -0.509836 -0.423772 0.0534752 1.03153 -1.9359 0.0948564 0.161707 -0.826328 0.0825544 -0.0217533 1.81883 0.006602 0.0357054 -1.79436 0.165446 0.474162 0.122611 -0.580293 0.0630287 0.555784 0.064393 -0.101184 -0.266957 -0.432734 0.691357 -0.441666 -2.01971 -1.81585 0.0162096 -0.603655 0.479381 -0.38207 -0.271008 0.175274 -0.360419 
row 0.0668557 0.0749473 0.596772 0.024457 -0.293653 -0.947648 0.0725875 0.0136854 1.57447 -1.04359 0.0685021 0.836927 -0.483436 -0.27973 -0.752276 -0.48224 3.76045 0.0481943 -0.505118 0.0235663 -0.67127 0.0954239 0.0814453 -1.68493 0.0960868 0.773629 -0.33165 -0.114244 -1.35597 0.0581521 0.0694541 0.0536312 0.0555158 1.01529 -0.132212 0.634314 -0.518679 0.0781285 0.0330318 -0.239477 -1.57427 -2.30077 0.0220152 2.17151 -0.345481 0.0245631 0.0257674 -1.12492 0.0748075 -2.01203 -0.0162851 0.0365158 -0.046007 0.0512217 -0.735165 1.13107 -0.314582 -0.138196 0.0108306 1.15782 0.00122418 -0.127174 0.0380956 0.131527 0.105839 0.0326356 0.850474 1.02034 -0.713711 0.209404 -0.942383 -0.066503 0.548625 0.074218 -0.166324 0.143158 0.0284446 0.0757427 0.6361 -0.142849 -0.0695249 -0.733115 0.0163132 0.0783483 0.0774984 -0.425726 0.0807196 0.715642 0.137992 -0.101901 -0.147572 -1.47389 -3.99964 0.0536232 -0.864542 0.0812472 1.98634 1.13897 0.0134036 1.15128 0.537768 -0.0562789 0.0127809 -0.85824 0.0773798 0.0462587 -1.03898 0.247899 -0.0963416 -1.30391 -0.139914 0.063311 0.426318 0.0612655 0.38238 -0.24414 -1.70747 0.290155 0.217022 -0.430113 -1.91669 -0.273508 0.71245 1.16755 0.215505 -0.329885 -1.81487 -0.329666 
row 0.0610079 0.0914533 -0.333913 0.07966 0.0932597 -0.209257 0.00233286 0.0130009 0.314489 -1.20983 0.0636826 0.226982 -0.0904068 -0.0720459 0.248723 -0.436187 -0.491927 0.0253311 0.204536 0.00307828 -0.835518 0.0793796 0.0563029 1.5738 0.0589276 -0.487797 -1.5629 -0.150303 -0.0296622 0.0389157 0.0531548 0.0452986 0.0368945 -0.931861 -0.0086068 0.349011 -0.597891 0.0994437 0.0304578 -0.688598 -1.2819 -0.483896 0.0404971 -0.33688 0.0406629 0.0252504 0.0715539 0.0910123 0.0655755 -2.13801 0.154851 0.0700543 0.13719 0.0602759 0.281855 0.583025 0.211808 -0.200803 0.0741896 -0.214029 0.00731997 -0.265595 0.0138081 -0.251509 0.0198287 0.0873805 -0.469469 0.171863 0.11295 -0.239076 -0.279074 -0.064514 0.0386863 0.0302369 0.0555449 0.0727086 0.0882168 0.0338191 0.0513765 -0.574949 -0.121099 -0.222642 0.0195141 -0.20259 0.143624 -0.122672 0.0241802 -0.191422 0.154946 -0.04522 -0.210796 -1.29959 -0.791976 0.510531 -0.530306 0.0644202 -2.46029 0.0954222 0.0114589 0.124179 0.175217 -1.35438 0.0745241 0.249423 -0.0105407 0.0523467 0.163131 -0.633731 -2.66513 -0.386529 -0.344986 0.0593181 -0.0546825 0.0238032 0.13096 -0.656475 -0.0868609 -0.592762 0.16213 -0.328098 0.579753 -0.509625 -0.148039 -0.290155 0.785049 0.0623602 -0.206621 -0.6933 
row 0.0470185 0.078583 -0.234238 0.0434479 -0.506433 -0.198475 0.082352 0.0621855 -0.507858 -0.751542 0.0189954 0.0504515 -0.232104 0.20789 -0.0855177 0.15548 -0.311606 0.177663 0.0932559 0.0384202 0.190244 0.066376 0.0414508 -0.537157 0.0576691 -0.243029 -0.323861 -0.11831 0.369643 0.0904156 0.0861119 0.0883737 0.0571431 -0.0806472 -0.0488373 0.0788314 -0.626394 0.0348402 0.039618 -0.155046 -1.75064 0.108167 0.0758967 -0.59963 -0.546555 0.0709563 0.0856018 0.0654878 0.0219071 -1.32507 0.0114433 0.0916428 0.0624247 0.0448317 0.172638 -0.188645 -0.0248541 -0.232145 0.0686914 -0.329098 0.0539643 -0.02141 0.0342322 -0.0328102 0.0684398 0.0545754 -0.0524185 -0.144734 -0.0680739 -0.00744053 -0.257568 -0.491306 0.00273454 0.0533326 -0.211498 -0.276494 0.0237615 0.0720477 0.0203992 -0.219241 -0.0561367 0.381059 0.00490533 0.0187794 0.0747638 0.050239 0.0178336 0.0303829 -0.231294 -0.0262997 -0.734884 -3.97603 -0.10939 -0.341271 -0.282672 0.0273813 -0.206975 0.139059 0.0398618 -0.177717 -0.148261 -0.461066 -0.170756 -0.482187 -0.191763 0.0578656 -0.805214 -0.568228 0.243358 -0.0115148 0.0351978 0.0284202 -0.201 0.0347126 0.0960626 -0.571095 -0.390636 0.115031 -0.00585573 -0.753102 -0.427558 -0.513315 -0.00337613 -0.263172 1.64219 0.125482 -0.419543 -0.207287 
row 0.0876602 -0.049582 -0.66816 0.0975842 -0.38747 0.220659 0.0185618 0.0272179 0.330951 -0.820715 0.0290044 -0.588876 -0.750372 -0.0409193 -0.101663 -0.137032 0.260677 0.0226198 0.00948898 0.0969593 -0.571138 0.0908548 0.0442781 -0.329678 0.0366709 -1.68723 -1.55074 -0.324132 -1.70544 0.0832653 0.0555568 0.032185 0.101438 -0.871843 -0.753638 -0.225499 0.573935 0.0579818 0.0456286 -1.3424 -0.7485 -0.237957 0.0327714 1.18948 -1.32826 0.0184653 0.0138346 0.535267 0.0180105 -0.81867 -0.0704409 0.0831287 -0.0540802 0.0829166 -1.53575 0.156596 -0.850469 -0.735951 0.00781682 0.795431 0.00613635 1.03903 0.0730839 -0.314477 0.0535992 0.00794801 -0.0182548 0.276542 1.02555 -0.505069 0.859635 0.480904 -0.277509 0.0728986 -1.53607 -0.0224392 0.0485601 0.0747077 -0.630085 -0.126158 -1.09333 -2.29645 0.095197 -0.794859 0.102901 -0.204777 0.0136966 0.74082 -0.34429 -0.298605 1.64366 -2.78797 -1.45967 -0.545307 -0.746896 0.085536 0.127377 0.909389 0.0828263 0.748203 -1.04457 -2.11334 0.764648 -1.03801 1.00728 0.039738 0.0593069 0.322182 -2.37793 1.45626 -1.04819 0.0945033 -0.017672 0.0714788 0.162354 -13.8423 -0.776712 -0.427899 -0.473547 3.70628 -0.615661 -0.34584 0.126557 0.398441 1.95013 1.15927 -0.740068 -0.808933 
row 0.0514461 0.0584976 -0.110917 0.0666725 -1.63368 -1.16738 0.0392406 0.035335 -1.12647 1.66095 0.0971976 0.370783 -0.290209 -0.386189 -0.264012 -0.534532 -0.731047 0.257822 0.0375508 0.0849405 0.186573 0.0331083 0.0794191 -0.947151 0.0538533 -0.477265 -0.707734 -0.240351 0.489548 0.0798223 0.014135 0.076259 0.0788001 -0.484019 0.136291 -1.18999 -0.76495 0.0108784 0.0741875 -0.871693 -0.0340287 0.216668 0.0270116 -0.515993 0.0366121 0.0813791 0.00304874 0.121461 0.0720762 0.352583 0.047091 0.0265886 -0.0991844 0.0397697 -0.694657 -1.19232 -0.222864 -0.318081 0.0270554 0.447254 0.0193391 -0.427251 0.0186235 -0.0184156 0.0465929 0.03849 -0.217685 -1.06761 -0.114245 0.131204 0.498584 -1.11721 -1.24907 0.0099667 -0.471699 -0.125317 0.039934 0.081583 -0.117133 -0.479941 0.100905 -0.211972 0.0767071 0.193669 0.11799 -0.225356 0.00469145 -0.113969 -0.811325 -0.0815644 -3.7822 -1.39113 -0.0540035 -2.75445 -0.125278 -0.007797 -0.35529 -0.97545 0.0812561 -0.410024 -0.662136 -1.74302 1.26954 -1.39438 -0.330115 0.0722398 -0.318847 -2.4576 -0.963053 -0.140611 -0.0061319 0.0321054 -0.0209414 0.073034 0.0957716 -2.18817 -0.402246 -0.0560171 -0.290537 -1.2406 -1.43198 -1.09687 -0.302049 0.0119385 1.48646 0.352036 -0.00606431 -0.09101 
row 0.0719119 0.0718249 -0.391746 0.0923605 -3.19413 -0.180484 0.0901228 0.0940133 -0.267164 -0.274479 0.0234832 -0.0165968 -0.121402 -0.00725385 -0.0615229 -0.275563 -0.0104475 0.0905125 0.0623207 0.0228947 -2.05645 0.0706813 0.0859108 -0.948298 0.0123562 -0.130899 -0.0946618 -0.162633 0.191319 0.0456188 0.0603817 0.00684002 0.071167 -0.465391 -0.0912495 -0.100147 -0.0165819 0.0740813 0.0501925 0.854715 -0.149333 -0.536358 0.0301801 0.0317394 0.0382315 0.0414587 0.0723524 0.0460694 0.0855154 0.234793 0.0723744 0.0967482 -0.0144542 0.0858181 -0.0547089 -0.0688542 0.0727741 -0.0805378 0.0649364 -0.0652216 0.0531429 -0.249822 0.0279638 -0.128021 0.0290197 0.0239216 -0.253547 -0.209799 -0.103836 -0.119179 0.36876 -0.394669 -0.0613498 0.0866852 0.0116313 -0.016644 0.0710772 0.0177119 0.14365 -0.168846 -0.0704887 -0.207087 0.0754815 0.00564233 0.0843074 -0.116521 0.0203756 -0.0992959 -0.161271 -0.0200651 -0.694424 -0.105173 -0.0307938 0.528367 -0.194579 0.0581575 -0.622024 0.106668 0.0314376 -0.040582 -0.372975 -0.805247 0.650799 -0.412135 0.64016 0.0373351 -0.254604 -0.439781 -0.590867 -0.183011 -0.0288743 0.0657046 -0.314015 0.0488049 0.145927 -0.965943 -0.597096 -0.695191 0.0418016 -0.551356 -0.131663 -0.53017 -0.194705 -0.0406719 0.408512 -0.030899 -0.0716244 -0.147788 
row 0.0585135 -0.00215392 -0.210231 0.016384 -1.19429 -0.415264 0.0263742 0.0791059 0.478137 -0.574499 0.031682 -0.501051 -0.123555 -0.221897 0.0715079 0.84503 -0.626276 -0.00175122 0.0336242 0.0387203 0.223527 0.0605328 0.024646 -2.32852 0.0915206 -0.990916 -1.52782 -0.0216212 -0.626176 0.0627035 0.0450822 0.0954263 0.0908815 -0.105204 -0.251521 0.179481 0.244016 0.0155416 0.0129606 -1.26807 -0.401229 -1.20717 0.0255469 -0.394366 -1.26284 0.0954668 0.0979242 0.378973 0.00791811 -0.870436 0.0415838 0.0872447 0.0570313 0.0197144 -1.49754 0.259056 -0.0468536 -0.272312 0.0581525 0.153341 0.0724741 0.169103 0.00525404 -0.010698 0.0515795 0.0118873 -0.0760476 0.411851 0.161217 -0.124242 1.32236 0.482125 -0.0883206 0.0762259 -1.08383 0.0827702 0.0291692 0.0376544 -0.345395 0.0747453 -0.120007 -0.385736 0.0765468 0.158435 0.0564911 -0.448345 0.000973813 0.0406404 0.224191 0.00145747 -0.405586 -1.77534 -2.01048 -0.790874 -0.107197 0.0513276 0.11342 -0.148299 0.00637098 0.0802599 -0.797429 -1.19844 -0.332475 -0.495329 0.741371 0.0520918 -0.0925597 -1.56728 0.245141 -0.303123 0.690977 0.0540891 -0.068183 0.0246538 0.187829 -1.35968 -1.28516 -0.661149 0.0693429 0.120687 -0.170061 -0.493203 0.77272 -0.0134822 -1.02388 -0.0807318 -0.0848656 -0.0372116 
row 0.0827622 0.108779 -1.15424 0.0562937 0.516929 -0.594252 0.0200046 0.00877311 -0.191787 0.208714 0.0829786 0.145284 -0.418411 -0.125614 0.0508435 -0.964326 -0.101689 0.0885504 0.103844 0.0373489 0.125389 0.0871795 0.0749264 -0.0102203 0.0826988 -0.362804 0.0148478 -0.335072 0.0392856 0.0661297 0.0436256 0.0063731 0.0787074 -1.06767 -0.216451 -0.0137512 -0.218406 0.0559443 0.029967 0.25458 -0.141442 0.351811 0.0495342 0.121181 0.0153111 0.0944177 -0.000376461 0.0956889 0.0470658 0.934675 0.172288 0.0969587 0.0128911 0.0131197 -0.161164 -0.389696 0.104342 -0.249206 0.0123449 -0.0744648 0.0386426 -0.33904 0.0838412 -0.542353 0.0789195 0.0495179 -0.793408 -0.184763 -0.334737 -0.41324 -0.470295 -0.431544 0.179501 0.0918411 -0.0925306 0.0812012 0.0189916 0.04735 0.373581 -0.0632955 -0.162857 -0.481816 0.09559 -0.081032 0.0859879 -0.115453 0.0369341 0.0980014 -0.464271 -0.153091 0.433619 -2.36077 0.226566 0.11267 -0.809375 0.0619409 -1.87036 0.356858 0.0299055 -0.170762 -0.658032 0.0424583 -0.283072 -0.360109 -0.76265 0.0754696 -0.281122 -0.397679 -0.751296 -0.499724 0.0602082 0.0848432 -0.88283 0.0408263 0.188409 -0.60989 -1.18373 -0.974668 0.0623363 -0.831576 -0.425942 -0.813311 -0.292264 -0.268179 -1.50603 -0.110938 0.0936267 -0.558973 
row 0.0650202 0.0736468 -0.133622 0.0667314 -1.3836 -0.146133 0.0664069 0.0984108 -0.829938 -1.39448 0.0795789 -0.0133244 -0.104895 -0.0642472 -0.140118 -0.558594 -0.605661 0.121289 -0.0212671 0.0868263 -2.62907 0.0196999 0.0534635 -0.943749 0.0982891 -0.137759 -2.10118 -0.00178353 0.328358 0.0911625 0.0644853 0.0383354 0.0391552 -0.225919 -0.2797 -0.419827 -0.62672 0.0147763 0.0456386 -1.54042 0.00972519 0.155219 0.0609793 -0.727736 0.0522325 0.0876565 0.0775219 0.121284 0.0485272 0.268348 0.0922061 0.064213 -0.0547766 0.0793862 -0.612637 -0.775929 0.0422335 0.0616705 0.0400078 -0.571762 0.0266954 -0.142275 0.00192746 0.0653359 0.0354032 0.0157571 -0.229171 -0.585571 -0.367675 0.0888126 -0.0859395 -0.572563 -0.302115 0.00457933 0.166037 -0.37682 0.0395399 0.0249885 0.0259611 -0.506921 0.0884746 -0.369306 0.0944962 0.0735953 0.0359982 -0.0635768 0.0844545 -0.233483 -0.484117 0.00714401 -2.66596 -0.511973 -0.297923 -0.656683 0.0198031 0.0467802 0.294152 0.0475983 0.0913784 -0.234897 0.0299519 -1.07934 -0.371475 -0.218407 0.563184 0.0194391 -0.504897 0.148487 -0.0861251 -0.0179982 -0.283697 0.0471535 0.0127617 0.00629537 0.0118459 -1.31335 -0.783563 -0.181823 -0.112772 -0.926424 -0.510324 -0.273394 -0.441819 -0.228139 0.401486 0.0231027 -0.509074 0.207181 
row 0.0543558 0.0915828 0.25639 0.0476747 -1.1747 5.33698 0.0345666 0.0347369 0.508153 0.889801 0.0128447 -3.069 0.495205 0.755775 0.370213 -0.312616 -0.756027 0.263252 0.617268 0.071427 -0.822948 0.0973328 0.0144312 -0.624659 0.0461475 -0.762659 -1.51864 0.543579 -2.16539 0.083675 0.0619206 0.0756801 0.0531685 -0.235771 0.0635748 -0.097342 -0.650767 0.0606202 0.0100243 0.136269 -4.3543 0.984242 0.0946942 -2.07296 -1.12455 0.0203424 0.0712205 0.61041 0.00488515 -2.93768 -0.0459746 0.00527605 0.0555751 0.00284009 -3.24228 0.659046 0.393241 -0.317908 0.025937 0.611137 0.0485877 0.864523 0.0245791 -0.342357 0.0328688 0.055789 1.63773 0.529289 -1.13356 -1.29063 -1.44265 0.128519 1.36787 0.0430537 0.881389 -0.296762 0.0308246 0.0615186 0.822346 -0.105751 -0.214754 -2.23647 0.071615 0.330804 -0.023714 0.224383 0.0341917 -1.53084 -0.255997 0.192986 -1.79626 -3.07744 -0.826476 -1.21932 1.02275 0.0508423 -1.36271 0.533039 0.0504098 -0.939604 -0.242596 1.52141 1.76916 -2.47353 -0.221094 0.00872869 -1.70756 1.67827 -2.02416 4.48587 -0.324476 0.0576569 0.289294 0.0689277 0.0177891 0.0833672 -0.0718564 -0.372009 -0.206761 1.39369 0.692718 1.5634 -1.36127 -0.249024 1.65304 -1.26387 -0.464114 -1.11101 
row 0.0503695 0.0354759 -0.285886 0.029335 0.0923627 -1.03148 0.0655698 0.0792387 -0.170376 -0.0846438 0.0840241 -0.592313 0.00381053 -0.177011 0.14868 0.560378 -0.470533 -0.0232556 0.211478 0.066701 -1.34558 0.00282502 0.015676 -0.209711 0.013353 -3.05133 -1.00329 0.0138829 -0.394718 0.080803 0.00873572 0.0317759 0.151593 -0.44807 0.102391 0.154524 -0.0440173 0.0240316 0.0752894 1.29294 -1.20394 -1.21875 0.00816333 -0.684458 -1.00507 0.0733335 0.0817816 -0.480974 0.0850735 -0.207191 0.0478062 0.0320038 0.153841 0.0511835 -0.338135 0.514557 -0.474069 -0.254514 0.0616884 -0.998328 0.0864276 0.132542 0.0471655 0.117225 0.197458 0.0834825 0.00244931 -0.13915 0.165636 0.457462 0.699294 -0.218613 0.320702 0.010717 -1.68506 0.0262456 0.0114397 0.016979 -0.18966 0.0168854 -0.53632 -0.258083 0.0145425 0.222285 0.31282 -0.57519 0.0473889 -0.338846 -0.00987667 0.0201806 -0.447918 -0.988322 -2.10841 -0.295123 -0.4033 0.0777151 -0.366725 0.535236 0.0779688 -0.0325015 -0.66899 -0.917156 -0.297505 -0.882437 0.493611 0.0809937 -0.879191 -2.51029 -0.448236 -0.325079 0.709453 0.0714907 -0.309767 0.05719 0.150015 -2.35321 -0.323551 -0.839353 0.0327513 -1.20661 -0.258498 -1.46103 0.348086 -0.28596 -0.366439 -0.342886 0.888791 -0.097152 
row 0.0750963 0.0434713 -0.351108 0.0376039 -3.67553 -7.0828 0.0727752 0.0189596 -0.644107 -1.70033 0.0524364 5.48437 -1.47201 -1.4395 -0.0533865 -1.08422 -4.38416 0.00907028 0.161784 0.00170229 -4.83585 0.0451849 0.00344745 -3.3457 0.0880536 -0.973248 -6.23314 -0.941556 -10.6713 0.0223144 0.0671603 0.0466101 0.0173954 -1.41994 -0.502666 -3.2789 -0.529396 0.090047 0.0550962 -0.182243 -2.07882 -2.50477 0.0564347 -2.27134 -5.65308 0.00432174 0.0364593 -2.33599 0.0893235 -10.8563 -0.151035 0.00477972 0.378426 0.0843708 -8.31246 -0.0338669 0.611412 -1.53803 0.0425099 -4.63584 0.0233773 -2.01584 0.0864422 -0.158783 0.0525286 0.0256616 -2.17935 -0.478943 -2.39701 -2.95694 -0.815249 -0.976601 3.07987 0.0258037 -1.98866 -1.17255 0.0205771 0.0872406 2.80877 -0.784254 -2.16396 -3.35825 0.0240754 -4.60082 0.0112448 -0.658659 0.00477766 -1.55461 -1.20376 -0.335143 -1.74252 -5.29637 0.506999 -0.24893 -0.919159 0.0809069 1.00614 -1.95284 0.0133723 -4.20675 -4.48367 0.176369 0.0186684 -5.02441 -0.492137 0.0152345 -3.12579 -2.65261 0.356732 -6.69665 -3.63599 0.0810483 0.339966 0.055981 -0.323224 -0.300373 -1.78568 -3.23882 -1.57868 -3.26892 -3.99409 0.661486 -0.5148 -0.775754 -2.2888 -2.66751 -4.63515 -1.40962 
row 0.0701889 0.0644349 0.527266 0.0180702 -1.49855 0.52967 0.0743893 0.00216861 -1.1007 -1.59148 0.0345602 -0.841263 0.493687 -0.0261316 -0.119151 -0.684082 -0.266254 0.0760578 -0.368625 0.0140396 0.378692 0.00619194 0.0825428 -2.63724 0.081605 -0.604789 0.450304 0.504886 -0.128244 0.0898693 0.0873902 -0.000599227 -0.05144 0.772474 -0.557621 -0.601119 -0.786909 0.0651806 0.059448 -2.04779 -2.7379 0.321156 0.042309 -0.809379 -0.68394 0.00372507 0.00719241 0.176281 0.0605394 -1.84216 0.361233 0.0699945 -0.0622388 0.00368566 1.41812 -1.27505 0.0809805 0.336262 0.0165064 -1.16786 0.05233 0.32153 0.0697786 -0.00292662 -0.0607857 0.0558294 0.622249 -0.500457 -0.0870194 -0.0792447 -0.23967 -0.15867 0.00537547 0.0794768 -0.114666 -0.272029 0.0520179 0.0871104 0.00410571 0.29039 0.399892 0.286101 0.0158668 0.38939 -0.115987 -0.269567 0.0982556 -0.292445 -0.711643 0.12187 -1.80682 0.849184 0.390098 0.215109 0.743089 0.0407916 1.22643 -0.127688 0.0366561 -0.545246 -0.684331 1.32607 -0.804022 -0.603764 0.406938 -0.00381891 -0.884923 -0.514439 0.0871847 -0.982565 -0.327466 0.0999077 0.668381 0.0404167 -0.0991133 0.782025 -0.513042 0.0731348 -0.479249 -0.619723 0.0229496 1.4892 -0.11125 -0.037452 0.865897 0.137751 -1.84705 0.105886 
row 0.0922319 0.117119 -0.82182 0.0550948 0.325866 -0.265616 0.0509878 0.0782669 0.523032 1.16986 0.0195738 -0.927313 -0.158135 -0.500525 -0.0103475 0.459619 -1.09985 0.330777 -0.106147 0.0494614 -0.940678 0.0431862 0.0425135 -0.781351 0.0485215 -1.56199 1.33124 -0.17474 -1.07527 0.044313 0.0492874 0.0290104 0.200082 -0.225286 -0.918502 0.251932 1.16924 0.00632913 0.0627292 -0.815104 -1.94596 -1.34286 0.0171499 -0.536589 -0.352251 0.0598487 0.027571 0.467722 0.0707533 -0.485022 0.124662 0.0852795 0.0983262 0.0716938 -0.788239 -0.20686 0.315105 -0.336046 0.0814921 -2.29999 0.0752831 -0.53509 0.0992754 -0.306402 0.116552 0.0316652 0.0467347 -0.107733 -0.417058 0.246225 1.05554 1.02742 0.16407 0.0238145 -3.19733 -0.110166 0.0644367 0.0943499 0.663652 0.894134 -0.340055 0.0572764 0.021973 -0.640322 0.197207 -0.436144 0.0349688 0.122546 -0.0353885 0.00011333 0.0907221 -2.21043 -2.39318 0.192139 -0.263061 0.0834136 0.578865 0.0657572 0.0674766 -0.295599 -2.32989 0.533719 -0.173396 0.0760274 0.096776 0.0785593 -1.3185 -0.605136 2.42514 -0.286691 -1.09505 0.0864488 -0.941869 0.0644589 0.164572 -3.43687 -2.18509 0.52082 0.0707942 0.579275 0.0698208 -1.05428 0.0528511 -0.530549 -0.0670313 -1.13457 1.26616 -0.298294 
row 0.0304388 -0.00738428 -0.0716719 0.0408134 -1.13652 -0.44153 0.0988322 0.0947834 0.380982 0.300177 0.0505017 -0.768765 -0.0686693 -0.275925 0.0432784 0.815345 -0.205175 0.0322206 0.0928773 0.0279487 -1.10312 0.076547 0.0637231 0.143616 0.00818492 -1.20569 -0.36702 -0.138874 -0.285158 0.063537 0.058588 0.0404396 0.162125 -0.4068 0.10114 -0.0957489 -0.0521283 0.046265 0.0642703 0.237633 -0.167142 -0.65178 0.0113616 -0.297897 -0.30831 0.025395 0.0422167 0.105135 0.00327348 -0.0652862 0.0145334 0.0870712 0.146507 0.0726168 -0.260829 0.57212 -0.186515 -0.216092 0.0927002 -0.354957 0.00182898 -0.236791 0.0430069 0.0657639 0.104726 0.00497584 -0.0846981 -0.0564033 -0.0114214 0.158003 0.121818 -0.173948 0.322872 0.0583024 -0.947569 -0.182771 0.00442893 0.017526 -0.183771 -0.245165 -0.217235 -0.120452 0.0929291 0.239713 0.180597 -0.4457 0.0820256 -0.09871 0.0562335 -0.0364819 -0.40054 -0.661053 -0.644701 -0.417422 -0.24817 0.0941222 -0.502481 -0.284777 0.088809 -0.0780561 0.0592636 -0.88328 0.241759 -0.663843 -0.0325618 0.0608908 -0.280693 -0.9373 -0.338316 -1.0022 -0.738874 0.0701604 -0.131399 0.0848039 0.16005 0.20813 -0.3168 -0.63759 0.186554 -0.539666 0.418771 -0.950269 1.19429 -0.0165797 -0.363724 -0.275135 -0.518388 -0.227903 
row 0.0292775 -0.0307872 0.307204 0.0808347 -3.13391 -2.17323 0.0804856 0.033574 -2.09116 -0.760475 0.0116697 -1.98923 -0.238635 -0.803243 -0.883502 -0.771726 -0.220045 0.136192 -0.42711 0.00922993 0.498854 0.0661522 0.00369928 8.0226 0.0775576 -3.98414 -3.95574 -0.185531 -1.36278 0.0598209 0.0751342 0.00519723 0.0425645 0.211003 -0.205711 -0.648135 -0.75312 0.0708128 0.0893424 -0.214268 -0.827765 -0.975923 0.00830934 -0.0562114 0.0822178 0.0554709 0.0491652 0.281872 0.0218095 -3.25888 -0.401909 0.0907906 -0.249618 0.0301894 0.100457 -0.764684 -1.15331 -0.334825 0.0672359 -1.0874 0.0473331 -0.659063 0.0206926 0.331243 0.094477 0.0197885 -0.405776 -1.34771 0.455912 -0.0671421 0.131457 -0.151267 -1.95791 0.010716 -0.99698 1.24251 0.028663 0.0069067 -0.437641 -0.25469 0.218412 -1.29387 0.0847677 -0.311741 0.0996797 -0.644151 0.0146974 -0.242847 -0.332295 -0.14973 -2.33389 -0.893385 -2.33168 -1.93258 -0.686504 0.0573564 -0.0294959 -0.820449 0.0450074 -0.0793911 -1.46048 0.529609 -2.07873 -0.428387 0.0473146 0.0348436 5.06862 -1.50945 -1.0927 -0.162245 -0.689385 0.0221763 0.294276 0.00838815 0.0473257 -0.419708 -0.017868 -0.500031 0.304068 -0.489899 -1.96716 0.065528 -0.276082 0.154993 -1.97659 -0.617994 3.32432 -0.645934 
row 0.100121 -0.0113494 -0.374594 0.0630124 -0.30145 -0.274757 0.0200126 0.0926374 -0.0850641 -1.33108 0.00530347 -0.621775 0.0229183 -0.676165 -0.259212 3.75168 -0.97104 -0.0311649 0.0922731 0.0257898 -3.66757 0.0175484 0.0559034 -0.363558 0.0501061 -2.1669 -0.017611 -0.17538 -1.05481 0.0178502 0.0749635 0.0618901 0.140881 0.0418878 0.21945 0.0578269 3.19088 0.053257 0.0704648 -5.74455 -1.16069 -0.834942 0.0384937 -0.501579 -0.620561 0.0270221 0.0595686 0.985567 0.0833131 -0.725123 -0.133435 0.00321223 0.0846263 0.0128034 -0.478979 0.265377 -0.392257 -0.0229654 0.046811 2.22468 0.060846 0.59021 0.0296424 -0.0225176 0.10251 0.0610051 0.331828 0.621564 0.175572 0.430708 -0.0690971 2.71529 0.254728 0.00294509 -1.54775 -0.501671 0.0590533 0.086232 -0.361674 1.15245 -0.45022 0.0989918 0.0168336 0.194485 0.23972 -0.48885 0.0121153 1.88591 1.69315 -0.00160885 7.94762 -3.25569 -1.10671 -0.818115 -0.223256 0.0619485 0.817811 0.872519 0.0459112 -0.9589 0.0500833 -2.004 -1.54967 -0.0820253 -0.400239 0.0817454 -0.132189 -1.32873 0.820775 -0.808531 -3.87826 0.0785925 -0.462428 0.00823917 0.0621878 -1.17657 -1.58266 -0.685636 -0.0783703 0.146112 0.215217 -1.11008 2.33722 -0.277407 -1.98932 -0.704445 -0.874132 -0.514127 
row 0.0612269 0.0712881 0.278607 0.0743832 0.0803021 -0.946447 0.0718132 0.0605766 -2.00756 0.664955 0.0268494 -0.520022 0.334571 0.198334 -0.013239 -1.2453 -1.03766 0.101444 -0.311936 0.0237775 -0.290836 0.0167771 0.0743845 -1.64079 0.0130636 0.707474 -1.47021 0.18779 -0.717951 0.0312484 0.0290362 0.058167 -0.0264823 -0.561057 -1.47091 -0.258563 -0.943968 0.00476777 0.0769817 -1.86474 -1.74301 -1.52882 0.00785161 -1.04797 0.0194084 0.0290816 0.0326041 0.255731 0.0600919 -0.661379 0.348951 0.00770233 -0.0651675 0.00233613 -0.551475 -0.999125 0.331127 0.152239 0.0267582 -0.0767758 0.0513554 0.568462 0.0330066 0.020535 0.0315467 0.0899813 0.408875 -0.850182 0.322545 -0.193483 0.107482 -0.537079 -0.0378848 0.0859346 -0.431299 -0.963114 0.0594961 0.025889 -0.292927 -0.55409 0.0114338 0.132918 0.0424054 -0.868115 0.0176738 -0.241327 0.0567598 -0.00989787 -0.905518 0.145664 -1.44662 0.722177 -3.25302 -0.111369 -0.093224 0.0580483 0.57642 -0.440532 0.0191304 0.306878 -0.890413 -0.25115 1.0803 1.3257 0.0662902 0.0837648 -0.926488 0.0267663 1.06005 -0.854198 -1.03874 0.0674573 0.115857 0.0392986 -0.0543955 -1.59725 0.148089 -0.174808 -0.127529 -0.901047 0.142718 0.731728 -0.403929 -0.173006 0.256124 0.0824901 0.766085 0.0390068 
row 0.0193976 -0.056884 0.09137 0.0130375 0.324179 0.414164 0.0471375 0.0830655 0.681943 -0.548278 0.0602925 -0.85236 0.377903 -0.442519 0.541196 0.0414158 -0.464461 0.246656 0.0254741 -0.000867275 -0.821517 0.0832784 0.0841178 0.28368 0.0941144 -1.24733 1.51372 0.323125 -0.445888 0.0645385 0.0744166 0.0815055 0.0694711 -0.436549 0.111853 0.126148 0.679522 0.0185217 0.0938929 0.00373867 -0.108913 0.171029 0.0389699 0.684417 -0.614346 0.0148522 0.0185725 0.857148 0.0808817 -0.523667 -0.049274 0.0319087 0.406466 0.008161 -0.421365 0.672839 -0.304376 0.17763 0.0172097 1.14734 0.00969915 0.698113 0.0648471 0.355429 0.035957 0.039584 -0.108719 1.0601 -0.609996 0.126421 0.246525 3.3309 0.253926 0.0651716 0.121311 -0.110716 0.0503942 0.0995139 -0.569912 1.58853 -0.525482 0.343311 0.0775715 -0.532763 0.120719 -0.0768103 0.088017 0.28407 1.66462 0.163024 -0.736358 -1.42256 -1.17412 0.304346 0.938803 0.0994078 -1.3985 0.91479 0.0854543 -0.746902 -0.984708 -0.228431 0.0629576 0.249443 0.134384 0.068514 -0.708201 0.400735 -0.714129 -0.312636 -0.0167723 0.0267852 -0.249341 0.0774943 0.167037 -0.0787551 -0.29478 -0.188852 0.0584028 2.1866 1.32447 0.099079 1.32631 0.554021 0.288909 -0.12624 0.984384 0.175029 
row 0.00260026 0.0025545 0.23082 0.0813882 -0.588906 -0.127182 0.0318255 0.0870163 0.821134 -0.124293 0.0355576 1.19688 -0.0416847 0.034535 0.706394 0.590074 -0.345799 -0.30061 -0.143244 0.0672885 -0.737151 0.0100725 0.0395041 0.511234 0.0467264 -0.892687 0.42533 -0.219213 -0.633912 0.0412621 0.025857 0.0810665 0.214028 -0.509628 0.246743 1.23246 0.848161 0.0107282 0.0814688 0.0726398 0.294319 -0.67758 0.0534642 0.715474 -0.466537 0.0820215 0.00225265 1.61348 0.0740316 -1.03568 0.0579373 0.0735066 0.0819685 0.038999 0.0135247 1.835 -0.58676 -0.403359 0.0190934 3.47053 0.0127975 1.34425 0.0383654 0.218452 0.128274 0.0149878 0.00982833 1.72111 -0.293927 -0.0684985 0.235662 1.00456 0.60221 0.074997 -0.568892 0.432274 0.0104784 0.0231292 -0.0428519 0.00384417 -0.303735 0.0776035 0.0554807 0.692909 0.205453 -0.037356 0.0613132 1.34136 1.1375 -0.0929623 0.230204 -0.598133 0.0246085 0.278592 0.149034 0.0804568 -0.483878 1.25147 0.0113888 1.23069 0.343399 -0.684479 0.0655948 0.521505 0.0448565 0.0116163 -0.965054 0.265715 -0.214355 0.704938 3.24934 0.0542175 -0.0688867 0.0723144 0.223672 -0.273598 -0.313059 -0.495822 0.573891 -0.367021 1.783 -0.998958 0.374961 -0.37387 -0.202504 -0.319938 -1.41657 -0.0427614 
row 0.00702776 0.0240826 -0.223749 0.0317579 0.91948 -0.300405 0.0758885 0.0197661 0.0606507 -0.797015 0.00107086 -0.271993 0.0804695 -0.306049 0.0134736 -0.351419 -0.0813356 0.0538009 0.0251796 0.02277 -0.498539 0.0382651 0.0914972 -0.353645 0.0631465 -1.0692 -0.505181 0.0669112 -1.05937 0.0646949 0.0674216 0.0125642 0.0228582 -0.35717 -0.0257295 0.419965 -0.165191 0.0367724 0.0639122 -0.13073 0.178225 -0.884574 0.0418748 -0.277786 -1.25151 0.0352782 0.0908543 0.416311 0.0627688 -0.59073 0.124458 0.0608257 0.0430924 0.0802867 -0.670582 0.0113415 0.115868 0.178802 0.0110448 -0.850576 0.0667313 -0.157878 0.0147335 -0.19926 -0.0254504 0.0477528 0.0421994 -0.0105854 0.136649 -0.0576537 -0.93632 -0.259762 -0.215315 0.0707861 -0.0185014 0.184249 0.0436373 0.0701467 -0.224873 -0.363379 -0.1504 -0.247755 0.0156035 0.0994728 0.042394 -0.244279 0.0442867 -0.35178 -0.326567 0.0253508 0.406388 -1.78862 -0.56964 -0.143878 0.0297157 0.076665 -1.20721 0.0221162 0.084465 0.0935634 -0.170931 -0.0888173 -0.339838 -0.254379 -0.351556 0.0328112 0.400257 -0.00716799 -1.42836 -0.415981 0.0191974 0.086256 -0.0795917 0.0849243 -0.0195007 -0.523332 -0.239471 -0.373254 0.136464 -0.478215 0.110051 0.222591 -0.155445 -0.0818534 -0.818778 -0.305203 -0.455287 -0.0220088 
row 0.0767266 0.0580591 -0.439923 0.0401513 -0.938387 -0.23663 0.0506549 0.0383393 -0.120576 -1.41401 0.0975088 0.309102 0.0795158 0.272118 -0.157496 -0.677017 -0.641526 0.0492684 0.0119167 0.0567442 -1.89531 0.0243677 0.0418766 -1.6886 0.0267219 -0.555198 0.932209 0.107856 -1.61318 0.0760137 0.0171748 0.0434356 0.019264 -0.764015 -0.315949 0.0630528 -0.506738 0.0567648 0.0176195 -2.10587 -0.468679 -0.748994 0.0641199 0.119955 -0.0209857 0.0265534 0.0299465 -0.205874 0.0780268 -2.98249 0.198164 0.0148214 0.0873389 0.0169764 -0.176693 -0.463383 0.183686 -0.0431133 0.00334471 -0.237954 0.0675981 -0.425073 0.0966231 -0.287755 -0.0111032 0.0108508 -0.325908 -0.00976206 0.018763 -0.280781 -0.671985 0.119851 -0.0465297 0.0457249 -0.243684 0.198598 0.0268389 0.0510274 -0.108999 -0.358501 -0.06292 0.348657 0.0187528 -0.0479574 -0.0267625 -0.263053 0.0803808 -0.159217 -0.442552 0.0221051 -1.04203 -2.93058 -3.33059 0.463338 -0.265897 0.08289 -1.87124 -0.162445 0.0567612 0.325672 0.870167 -0.413413 0.128451 0.201172 0.476846 0.0633098 0.279466 -1.8704 -1.65339 -0.33571 -0.385161 0.0895121 -0.217095 0.047558 0.0935701 -2.6798 0.237982 -0.241212 -0.0213815 -0.661976 0.291086 0.437051 -0.661999 -0.11807 0.780322 0.120585 0.118148 -0.283395 
row 0.0401597 0.0929938 -0.619975 0.0831155 -0.655431 -0.10416 0.0580272 0.0318501 -0.127714 -1.93046 0.0344437 0.196201 -0.241701 0.0907115 -0.0545997 -0.708714 0.0153692 0.0578446 0.044381 0.0587288 -0.124096 0.00937754 0.00945816 -0.93289 0.0925327 -0.0984767 0.124916 -0.0911155 0.164093 0.0769421 0.0623964 0.0981491 0.121606 -0.479038 -0.210074 -0.065352 -0.159277 0.0899653 0.0247384 -0.920959 -0.0993657 -0.90506 0.0618992 -0.084147 0.0104863 0.0705633 0.0644832 0.100276 0.0302222 -3.66724 0.117795 0.0857067 0.0628254 0.0109815 0.216572 -0.3804 0.0761777 -0.210611 0.0495266 -0.0646025 0.0131031 -0.196171 0.0436028 -0.219759 0.0388166 0.0819539 -0.369656 -0.153435 -0.282637 -0.228356 -0.458855 -0.201722 0.0149299 0.00563619 -0.0166849 -0.0188024 0.0150231 0.0273314 0.054995 -0.489272 -0.0411448 -0.289108 0.0788509 -0.0181561 0.0638315 -0.13453 0.0351557 -0.0143491 -0.173307 -0.0805454 -1.77985 -1.32083 0.412649 -0.0702358 -0.34531 0.0547631 -0.898839 0.0789021 0.0211029 -0.066246 0.0934283 -1.62283 0.84799 0.113445 -0.0482289 0.0957814 -0.156905 -1.08729 -0.0335038 -0.188792 -0.254316 0.024612 -0.385682 0.00603957 0.153142 0.0323844 -0.518301 -0.320588 -0.0320541 -0.635813 -0.214731 -0.369255 -0.0520774 -0.0433892 0.94378 0.111026 -0.014156 -0.29651 
row 0.0895159 0.0762381 -0.159963 0.00360096 1.93333 -0.286039 0.0406467 0.0719271 0.263694 -0.145958 0.077173 -0.635173 -0.345859 -0.253134 -0.137908 0.903614 -0.92209 -0.12753 -0.0475814 0.0771039 -2.19082 0.0276971 0.0817457 1.46442 0.0216415 -1.68645 -2.75242 -0.00834351 -1.28286 0.046508 0.0457799 0.0984783 0.104819 -0.429177 0.0625822 0.532676 0.91605 0.0095911 0.00425844 -0.5999 -1.31826 -0.226305 0.0690335 -0.570839 -1.90415 0.0555285 0.0458919 -0.620807 0.092885 -1.36702 0.132082 0.000540795 0.0522988 0.0224979 -0.734836 0.22738 -0.487829 -0.764422 0.0699317 -1.50902 0.0970828 0.265938 0.0141197 0.00227879 0.131384 0.014544 -0.0214104 0.0135966 -0.301509 -0.204708 -0.324186 0.372556 -0.497219 0.0726748 -1.54062 0.580419 0.0682181 0.0414111 -0.189622 -0.0341679 -0.0639353 -0.411228 0.0245352 0.465739 0.0958675 -0.440796 0.0466345 -0.212646 -0.266135 0.0138172 2.19556 -1.22151 -1.91683 -1.34522 0.000346612 0.0408827 -1.44952 -0.140584 0.0312929 0.113355 -0.2176 -1.05556 -0.999827 -0.956466 0.324036 0.0247347 0.74222 -1.45048 -1.89493 -1.01717 -0.725373 0.0162995 0.037278 0.0286591 0.208469 -3.63291 -0.84045 -1.05875 0.550512 -1.18501 -0.333055 -0.805201 0.506464 -0.453967 -0.303858 -0.297535 -0.0640069 -0.108175 
row 0.00198758 0.165401 -0.362115 0.0328867 -0.981575 -2.33975 0.0895551 0.0475308 1.29096 -0.773588 0.0263238 -0.853747 -0.453054 -0.0249646 0.0093827 -1.1327 -3.03966 0.418184 -0.0227552 0.0540576 -1.5075 0.0127791 0.0793251 -1.99097 0.0489917 0.85299 -0.552382 -0.265767 -2.92847 0.0108857 0.0357261 0.0156252 0.111951 -0.175679 -0.171773 -1.27557 -1.06777 0.0679361 0.00242012 0.0386843 -2.23001 -1.0157 0.0150812 2.91298 -1.20439 0.00356338 0.0324939 -1.20362 0.0813792 -3.02331 0.355392 0.00277134 -0.00805144 0.0971523 -0.673694 -0.347491 -0.0230597 -1.15376 0.0129379 -3.05748 0.0113725 -1.07461 0.0105489 -0.204716 -0.00915801 0.033978 0.541616 0.099933 -1.21859 0.327912 -1.27153 -0.978459 0.273034 0.0155792 -0.24596 -0.288628 0.0153556 0.0565659 -0.555593 -1.00495 0.523202 -1.06537 0.0150268 -2.65523 0.0775709 -0.875015 0.0613167 -1.4219 -1.11608 -0.177143 -1.12453 -1.6095 2.14771 1.05094 -0.982964 0.0399542 1.19738 -0.986776 0.0659037 -1.10337 -0.290988 -0.450512 0.0995667 -0.592232 -0.0281051 0.019589 0.15374 -0.873436 0.202612 -3.16779 -1.09697 0.0527789 0.196913 0.0447909 0.0619155 -1.44869 -0.79841 -0.701455 0.190616 -2.57682 -2.35663 0.185393 -0.652146 -0.0309551 -1.06417 -1.59541 -2.49784 -1.09026 
row 0.0909123 -0.050219 -0.334128 0.0404478 -0.731386 -0.22628 0.0243551 0.0542186 0.0148712 -0.154447 0.0679102 -0.173446 -0.309815 -0.525673 0.0815946 -0.125983 -0.496729 -0.14909 0.0848095 0.0168425 -0.261014 0.0202849 0.0022376 -0.266272 0.0332863 -1.26138 -1.57056 -0.0512043 -0.92045 0.0598174 0.0801499 0.0515607 0.0238282 -0.346266 -0.134187 -0.161155 -0.769168 0.0830242 0.0499643 -0.263506 -0.653745 -0.801564 0.0933128 -0.00547982 0.137748 0.0202002 0.0439371 -0.559936 0.0182679 -0.20188 -0.115555 0.067768 -0.0269319 0.0709409 -0.105299 -0.126987 -0.052822 -0.0625641 0.019505 -1.16383 0.0388487 -0.220695 0.0840617 -0.107645 0.0901942 0.0743221 -0.000427483 0.221344 0.317964 -0.385335 -0.384838 -0.697879 0.362133 0.0981012 0.00957062 -0.0822639 0.0502125 0.0979025 -0.163101 -0.366156 -0.30833 -0.299154 0.0074631 -0.24041 0.0832968 -0.493507 0.0455731 -0.513017 -0.164471 -0.050449 -0.340387 0.16282 -1.79271 0.452404 -0.147609 0.0183044 -0.138412 -0.0250554 0.0423191 -0.0853 -0.592645 -0.755221 -0.39042 -1.21366 0.247857 0.0195782 -0.183136 -0.324801 -1.2934 -0.467232 0.172911 0.0718811 0.149397 0.0294578 0.126611 -1.44506 0.332989 -0.636859 -0.13131 0.0205423 -0.0847698 -0.394382 -0.212655 -0.567512 0.368518 0.0153714 -0.986613 0.303141 
row 0.0269362 0.0787012 -0.463116 0.0475439 -0.348832 -0.0433815 0.0608393 0.0792501 0.00123268 0.114316 0.0394051 0.0136304 -0.118712 0.167179 0.0536023 -0.157467 0.228528 -0.028687 -0.0544805 0.0142815 -1.67639 0.0223042 0.0575337 -0.511452 0.00794905 -1.10615 0.484791 -0.0697507 -0.0486967 0.0665805 0.0211087 0.0804906 0.0899862 -0.387326 -0.176708 0.153693 -0.359516 0.0153766 0.0983736 0.0832291 -2.11682 0.0951239 0.0823381 -0.00456015 0.0924674 0.0567005 0.0323901 0.0702022 0.0282112 -2.49057 0.0352455 0.0108377 0.0315353 0.010706 0.0823067 -0.198862 0.141415 -0.189344 0.0906055 -0.0692693 0.0522405 -0.152664 0.0792226 -0.2198 0.00505036 0.0890246 -0.316868 0.0723441 -0.0391832 -0.228283 0.415475 -0.235439 0.240129 0.0736895 0.107616 0.204095 0.0638358 0.00408289 -0.190561 -0.7374 0.0578266 0.0146989 0.0896204 0.0607044 0.0873465 -0.682139 0.0143326 -0.0992939 -0.284488 -0.100477 -0.673872 -1.48234 -0.729091 0.345894 -0.295526 0.0389822 -0.946478 0.599895 0.0489611 0.278487 0.199918 -0.924014 0.448453 -0.777623 0.0328887 0.0698817 0.0992106 -1.7156 -0.585611 -0.373054 0.277556 0.0468735 -0.214896 0.0133586 0.0693925 -0.704259 -0.152026 -0.675677 0.184436 -0.360961 -0.0660035 -0.671096 -0.0388921 0.0545459 1.00116 0.0900488 -0.0951064 -0.667208 
row 0.0237256 0.101062 0.2476 0.0191892 -0.626331 -1.66313 0.0159585 0.0777606 -1.46398 -0.854416 0.0418847 -2.10476 -0.075533 0.463831 -0.757351 -1.04057 -1.01531 0.234814 0.0211347 0.0562162 0.501199 0.0127026 0.0179261 -1.0184 0.079689 -0.215374 -0.223261 0.018939 -2.06829 0.0914293 0.070529 0.0858116 0.0628653 0.128861 -0.354694 -0.773696 -1.01266 0.0302169 0.0845263 -0.316222 -0.0950924 -0.21842 0.0461711 -0.568326 0.206625 0.049977 0.00281546 0.612507 0.0553932 -4.37929 0.129278 0.0639233 -0.0974199 0.0582064 -1.56852 -1.13856 -0.67807 0.162132 0.078645 1.16746 0.0907861 -0.494019 0.0908584 0.161911 -0.0397164 0.0781573 -0.599309 -1.82612 0.134456 -0.000217687 -0.266406 -0.97437 -1.79583 0.0563026 0.371635 -0.0219565 0.0754462 0.0862753 -1.07247 -0.0317338 0.478528 0.0760558 0.0819639 0.137182 0.0678434 -0.243723 0.0380684 -0.161915 -1.58581 0.0200411 -0.111675 0.0968311 -2.39895 -3.14582 -0.0883359 0.0236867 -0.263328 -2.22676 0.098442 -0.877185 0.816455 0.264624 -1.34352 -0.417043 -0.83291 0.0130074 -0.0946766 -2.87746 -0.194085 0.53379 -0.526757 0.000610348 0.358653 0.0409948 -0.049766 -1.11188 0.44657 0.209543 -0.0305419 -0.559891 -1.07047 0.269953 -0.829419 -0.582622 -0.0620901 0.203297 2.20833 0.570397 
row 0.0928671 0.0101197 -0.100827 0.00380895 -1.12398 -0.211333 0.0575866 0.0343267 0.710728 0.107719 0.0638679 -0.266625 -0.186686 -0.135161 0.0442039 0.191337 1.05632 0.0679816 0.0683461 0.0260001 -1.11987 0.0949284 0.086764 -0.568389 0.0458054 -1.16203 -0.538179 -0.0995698 -0.186339 0.0471578 0.0204023 0.0688617 0.101467 -0.17279 -0.224433 0.0947116 -0.234535 0.0119158 0.0624263 1.1094 -0.621683 -0.727763 0.0253281 0.169226 -0.564178 0.078686 0.00322386 0.19662 0.0973642 -0.257556 0.1015 0.0926799 0.0698793 0.0100774 -0.187002 1.71058 -0.343459 -0.58 0.0288539 -0.675339 0.0235308 0.412232 0.0322335 -0.0791973 0.140896 0.0239987 -0.444107 -0.127285 0.124633 -0.0953209 -0.243523 0.311935 0.501804 0.0838874 0.0637565 -0.001177 0.0796187 0.0506677 0.495628 0.144528 -0.430388 -0.409451 0.0126064 -0.38285 0.125197 -0.539435 0.00317852 -0.16349 0.614649 -0.0672614 -1.34575 -0.491646 -1.25794 -0.400553 -0.292877 0.0849322 -0.424248 0.163667 0.061899 -0.0727015 -0.122549 0.979903 1.24727 0.0527327 -0.422154 0.0470158 -0.921778 1.41984 -0.561318 -0.158532 -0.219809 0.0842543 -0.00187178 0.0926441 0.259538 -0.175092 -0.182236 -0.22996 0.0626951 0.184273 0.0331162 -0.74906 0.154117 -0.120715 1.23563 0.671381 -0.802278 -0.203436 
row 0.050274 0.0909081 -0.740015 0.0376226 -2.04804 -0.673254 0.0832983 0.0919318 0.0169805 -2.30745 0.0120946 0.451279 -0.118773 -0.38931 -0.313708 -0.818481 -2.97989 0.152284 0.391432 0.0759276 -0.0944476 0.0726488 -8.10368e-05 -0.0293515 0.0160091 1.55703 -2.15634 -0.461537 -7.42865 0.0727195 0.0532306 0.0399948 0.150436 -0.161857 0.233568 -0.590086 0.420579 0.0122879 0.049473 -3.6029 1.9043 -7.25407 0.0413037 0.661861 -3.03807 0.0880642 0.0628401 0.0662425 0.0589806 -3.24759 -0.0363651 0.0162583 -0.0276751 0.0924699 -2.62764 -0.028016 -0.0242862 -0.33821 0.0660338 -2.81108 0.0976416 -0.701767 0.0527466 0.17406 0.153431 0.0763746 -0.434124 -0.334244 -1.48588 0.563298 -1.08397 -1.18008 -0.39808 0.081044 -2.28203 -0.451562 0.0168952 0.0579256 -0.549248 -1.50883 -0.150767 -0.746537 0.0363591 -1.3684 0.172765 -0.162723 0.0090434 -1.32357 -0.965445 -0.00586633 -2.17055 -4.04296 -0.421803 -0.134201 -0.399868 0.0799695 -0.364884 -0.43211 0.0854178 -1.87923 -1.28403 -0.161275 -0.835419 -0.589627 -0.264721 0.0967571 0.0252395 3.71227 0.59089 -2.09966 -0.130172 0.0360858 -1.08755 0.0446089 0.0560139 -2.18149 -0.702207 0.194608 -0.094684 -3.91792 0.0371177 -1.95161 -0.672727 0.0470034 -0.373621 -1.06005 -0.654703 -0.569949 
row 0.052063 -0.0141717 -0.12628 0.0810425 -1.4644 1.54712 0.065461 0.057065 0.144105 -0.0632794 0.0795057 -1.20377 0.626007 1.80858 0.71389 0.128351 -0.427893 0.0913533 -0.0910047 0.0634121 -0.413411 0.0392488 0.0683284 -1.84209 0.0665302 -0.809218 -1.34208 0.694029 0.0437399 0.0794199 0.0321497 0.0552037 -0.0444543 -0.227431 -0.750213 0.822869 -0.197685 0.0667052 0.0453867 0.0144776 -1.39371 -0.218953 0.0347799 -0.462767 -1.11766 0.0170527 0.0430747 0.26079 0.06093 -0.657158 0.404632 0.00067384 -0.00608114 0.00453644 -0.534735 -0.603034 0.382283 1.50926 0.0118888 0.0143428 0.0832087 -0.124626 0.0163856 -0.205563 -0.0490761 0.0637058 0.54921 -0.138373 -0.80831 -0.422148 0.12712 0.0869765 0.0497641 0.0980594 1.36979 -0.19646 0.0912802 0.0556368 -0.11794 0.0858186 -0.281201 -0.624715 0.0944284 0.702168 -0.0814934 0.00635761 0.0142914 -0.364136 -0.560852 0.223449 -0.473058 -0.613992 -2.86946 -1.8384 1.15934 0.0425211 -0.145652 0.15259 0.0806772 -0.908079 -0.0433106 0.181624 0.0469674 -0.148243 0.161467 0.0740345 -0.103389 -0.684566 -1.39262 -0.095698 -0.0881944 0.091383 -0.123041 -0.00130541 -0.205981 -0.21732 -0.444661 0.207189 -0.152846 -1.18293 0.865513 1.62049 -0.454596 -0.217671 -0.664969 -0.966146 -1.80263 2.09286 
row 0.0893332 0.143252 -1.60998 0.0076569 -1.039 -0.150232 0.0443937 0.0902949 -0.647042 -0.169515 0.0632296 0.247373 -0.0239077 0.146252 -0.33975 -0.0519786 -0.400006 -0.389386 0.238013 0.0596655 -0.77542 0.0739036 0.00222107 -1.76594 0.010405 0.0878245 -0.93742 -0.125467 0.433556 0.0738104 0.0111167 0.100893 0.194065 -0.160043 -0.314165 0.78736 0.402975 0.0902364 0.0415683 -0.651117 -0.428054 -5.50256 0.0853942 -0.349039 0.114768 0.0207326 0.0210775 0.47537 0.0343003 -3.74093 -0.0690834 0.0701885 0.237357 0.0996917 -0.954542 -0.954155 -0.840113 -0.197627 0.0907054 1.00736 0.0673507 -0.134265 0.0944965 -1.31609 0.0942381 0.0321961 -0.225962 0.315756 -2.88435 -0.864911 0.176786 -0.0392039 -0.419196 0.0393841 -3.05137 -1.79396 0.0710569 0.00068877 -0.639095 1.98336 -0.486022 8.55441 0.0935403 0.463292 0.171178 -0.595653 0.0155736 0.196503 -0.428967 0.0153105 -0.329762 -3.26508 -0.226178 -0.496619 -0.559662 2.25035e-05 -0.297296 -0.266799 0.0334905 -2.12825 -0.221503 -1.17567 0.0465234 4.13071 0.392473 0.0554982 -1.36628 -1.2479 5.18968 -0.703192 -0.242256 0.0625287 -2.12335 0.00579895 0.0516138 0.362796 -4.18 -0.738229 -0.509879 1.46304 1.20838 -3.10757 0.632573 -0.0625353 -0.438555 -0.719341 -0.199265 -0.652785 
row 0.0224806 0.264072 2.33101 0.0480907 0.0128447 -0.772553 0.0551946 0.0943744 -0.83778 -1.2285 0.0477151 -1.58196 -0.304969 -0.750853 -0.339431 0.250775 -0.747676 0.50402 0.30865 0.0394832 -0.501086 0.0261148 0.0299345 -0.261428 0.0715124 -0.880903 -1.03417 0.37413 -0.631123 0.0101713 0.0689384 0.0667156 -0.0565952 3.18257 -0.369065 -0.214825 -2.06466 0.0624559 0.00640591 -1.55851 -1.66287 -0.592663 0.0854563 -0.37752 -1.03172 0.000645496 0.0234112 -0.931272 0.0971189 -2.17633 0.99553 0.0710524 0.0553262 0.0796994 -1.66368 -0.719719 0.428363 -0.947138 0.0028677 -2.16818 0.0592159 -0.216348 0.0798487 0.86553 -0.114046 0.0516498 1.94604 0.0695333 0.681201 0.33566 -0.254646 -1.15253 0.8348 0.0110105 -1.34388 -0.269457 0.0597272 0.00708332 -0.105293 -1.23459 -1.34226 -1.37449 0.0674787 -2.5908 -0.148171 -0.585972 0.0876684 -1.00556 -0.953163 0.0884265 -1.709 -1.62107 -2.3123 -0.433505 -0.207361 0.0592133 4.12977 -0.352715 0.00374213 0.302676 -0.129069 3.62113 0.726465 -1.94168 0.227016 0.0629104 0.931691 -0.782371 1.92606 -2.53074 -0.257813 0.00422068 1.7874 0.0024063 -0.0995563 -3.69069 2.13109 -0.78717 -0.107623 -0.963901 -0.680296 2.44769 -0.508034 -0.0926936 0.453837 -0.472628 -1.34248 -0.175933 
row 0.0222249 -0.0305391 -0.041841 0.0667519 0.116692 -0.57998 0.0401668 0.049196 -0.810299 -0.429368 0.0387374 -0.78589 0.028738 0.0217786 -0.0791498 0.0980671 -0.240722 0.0303527 0.143332 0.0973548 0.0462707 0.0309096 0.0912112 0.235111 0.0998628 -1.48536 -2.2441 -0.110112 -0.329484 0.02193 0.0933295 0.0438078 0.106283 0.347835 -0.207373 0.281334 -0.172311 0.0747744 0.0531464 -0.780125 -1.42336 -0.076545 0.00756739 0.072517 -0.501583 0.0490731 0.0787394 -0.367739 0.0155777 -0.828015 -0.0374658 0.00495771 0.030461 0.0532218 -0.815096 0.054915 -0.375675 0.0728163 0.0269688 -0.0509708 0.0727541 -0.10048 0.0391407 0.0359361 0.114301 0.0614456 0.571131 -0.315382 0.0467265 0.0649329 0.490695 -0.188685 -0.241124 0.0482489 -1.09024 -0.0879792 0.0798957 0.0682286 -0.048631 -0.259821 -0.303604 -0.191195 0.0556203 0.249803 0.131916 -0.115811 0.0219642 0.00202713 0.329324 -0.0351587 -0.978088 0.996852 -1.42685 -0.415918 -0.0444354 0.08919 0.0245077 -0.144428 0.0240561 -0.0776506 -0.845935 -1.63101 -0.562414 -0.116688 0.665433 0.0168271 -0.0717118 -1.24608 0.153173 -0.0866511 -0.65702 0.0429028 -0.0321647 0.00573506 0.0508813 -3.93615 -0.55414 -0.472207 0.0547723 -0.10662 -0.843271 -0.386178 -0.216748 -0.0229207 0.201228 -0.0556914 -0.327684 -0.267253 
row 0.0536083 -0.107467 0.531676 0.0682927 7.00444 -0.778542 0.012397 0.0824895 2.63112 -0.166683 0.0650774 0.925332 -0.368895 -0.309075 0.075015 0.576514 -0.424378 -0.163537 -0.139347 0.0153041 0.67279 0.0846177 0.0539643 0.044983 0.0810239 -1.69407 0.18469 -0.102008 -0.282577 0.0479881 0.0776231 0.0251135 0.163973 -0.08006 0.178041 -0.651398 -0.973083 0.0750151 0.0336636 -0.346849 1.9923 -0.314382 0.0396714 8.7399e-05 -1.01585 0.0713654 0.0870734 1.97719 0.0571215 -0.033489 0.352599 0.0909648 0.106802 0.0874357 -0.360066 2.61912 0.362777 -0.127423 0.0735838 -0.760959 0.0104769 -0.399185 0.00166589 0.0302079 0.195106 0.0173678 -0.606968 0.415378 0.928123 -0.371 -0.763759 0.329552 0.488202 0.0771747 -1.11979 -0.673612 0.014052 0.0350195 0.18775 -0.0696083 -0.605375 -0.387666 0.0308836 -1.01501 0.16789 -0.127923 0.0977704 -0.189515 0.413896 -0.162248 -0.655165 -0.471575 2.57792 0.290236 -0.770344 0.0178385 -0.363417 0.611116 0.0828076 -1.61668 -0.555221 0.043519 -0.733724 -0.385032 -0.869159 0.0922846 3.8695 -1.63211 0.0305853 0.150004 -0.341376 0.0233986 0.180174 0.0359844 0.0350819 -0.420068 -1.22239 -1.72466 -0.212636 -0.331571 1.08631 -0.380075 0.130606 -0.289781 -0.388385 -0.2325 5.04254 -0.411023 
row 0.0143469 0.0957861 0.101022 0.0133354 0.177344 -1.17666 0.0617222 0.0496855 1.75489 -0.525535 0.0277261 0.0367876 -0.0876639 -0.538939 0.109432 0.0365009 0.295892 0.407176 -0.234893 0.0624655 -0.202187 0.0126528 0.0987647 -0.230013 0.0375295 -0.928305 -0.401365 0.083027 -0.337602 0.0952646 0.0855073 0.0376126 0.066205 -0.214201 -0.0945244 1.67685 -0.396296 0.103295 0.0330052 -0.00282558 -0.926404 -0.0532535 0.00507427 -0.403632 0.642229 0.00314579 0.0767924 -0.26073 0.0760206 -1.58297 0.0771261 0.014268 0.14759 0.0353854 -0.545056 2.01434 -0.179881 -0.257059 0.0842398 -0.311767 0.0503824 0.647833 -0.000280218 -0.0260288 0.0691742 0.0969354 0.0963626 1.34887 -1.11414 0.0404725 0.0847698 -0.11042 0.565134 0.0202894 -0.718664 1.46251 0.0476201 0.0140987 0.0642235 0.0220306 -0.419669 -0.0139106 0.0718155 -0.00994763 -0.00315453 -0.546727 0.0485572 -0.644155 1.79502 0.0828294 0.278925 -0.711385 -0.930902 0.326921 -0.255459 0.0567144 -0.356746 1.75358 0.0253211 1.45434 -0.00183308 -0.0117493 -0.0332166 -0.579758 0.0282102 0.0411902 -0.109251 -0.102273 -0.708286 -1.25462 0.141708 0.0587958 -0.361588 0.100326 0.211732 -0.386338 -0.136956 -0.580428 1.17375 -1.10176 0.426116 0.203515 0.469895 0.26922 0.346211 0.323544 -0.772763 0.0139079 
row 0.0464795 0.0618285 -0.840573 0.0365891 0.972967 -0.449063 0.0900212 0.0232246 0.0960539 -3.29111 0.0265877 0.146573 -0.420528 -0.116551 -0.0499483 -0.0149717 0.0388765 0.0783911 0.117986 0.00374571 0.85055 0.00287223 0.0342067 -0.321318 0.00477001 -0.283029 -5.06143 -0.366627 -0.679969 0.0390337 0.0170077 0.0706667 0.153246 -0.785974 -0.0754385 0.0335713 0.176548 0.048327 0.0760328 0.272112 -0.308911 -0.90503 0.0197388 0.296459 0.048421 0.0374234 0.0299326 0.10314 0.0960235 -4.5303 0.0337316 0.0808137 0.102198 0.0638039 1.6657 0.186307 0.0770041 -0.217269 0.0923896 -0.0746908 0.0232704 -0.293826 0.0211859 -0.198875 0.090544 0.0841879 -0.546864 -0.0437127 -0.345727 -0.279979 -1.3091 -0.292371 0.094326 0.0204945 -0.0479957 0.0201166 0.0740394 0.0585051 0.253704 -0.764035 -0.111815 -0.0556028 0.00182745 -0.0628525 0.16951 -0.14458 0.038188 -0.0321074 -0.0240102 -0.0993413 0.401149 -0.0249781 -1.0476 0.961585 -0.526835 0.0806566 -1.04223 0.223898 0.0963814 -0.122467 -0.205435 -2.2407 0.759588 -0.725619 -0.497905 0.0244673 -0.104423 -2.79285 0.0193521 -0.354445 0.18753 0.0286469 -0.638866 0.0731394 0.19251 -2.38099 -0.780613 -0.433632 0.0721003 -0.447694 -0.150897 -0.876328 -0.2552 -0.185249 0.871669 -0.0885144 -0.192452 -0.415378 
row 0.0174899 0.0855351 -0.265727 0.0139934 0.338131 -0.349652 0.0712252 0.0712888 -0.528109 -2.86402 0.0178376 0.164486 -0.0985756 0.0449968 0.0171477 -0.424984 -0.561736 -0.0385607 -0.0292487 0.042968 -0.078414 0.00512288 0.089886 0.113968 0.0741326 -0.217846 -0.128806 0.0339989 -0.144937 0.0176413 0.068435 0.0557899 0.078624 -0.120188 -0.231723 -0.0945998 -0.456874 0.0276824 0.0707304 -1.47138 0.551025 0.168791 0.00151473 0.00472074 0.103893 0.0862853 0.00290163 -0.0776482 0.0287779 0.255814 0.0694365 0.0372364 0.122492 0.0204564 -0.171646 -0.874354 -0.0193668 -0.148398 0.0622593 -0.391218 0.0396776 -0.275679 0.0577848 -0.280528 -0.0181103 0.031231 0.0256416 -0.106102 -0.302833 -0.269438 0.247726 -0.320931 0.225823 0.0877821 -0.151047 -0.0110987 0.0099934 0.0599581 -0.0368416 -0.00373279 0.111223 -0.372186 0.080299 0.117131 0.0281402 -0.0383396 0.049134 -0.247051 -0.528683 0.0284298 -0.527731 -0.458684 0.475617 0.270814 -0.0217697 0.0332388 0.164635 -0.211001 0.0815331 -0.435699 -0.400995 -1.39212 0.55563 -0.0253659 0.107899 0.00409799 -0.146904 -0.329361 -0.263775 -0.3162 -0.0974922 0.033028 -0.0725303 0.0181363 0.0098868 0.823644 -0.687001 0.0398938 -0.161785 -0.672668 -0.194738 -0.0426129 -0.309633 -0.394729 -0.377053 0.0626906 -0.845439 -0.0147307 
row 0.0039728 0.0701507 -1.13522 0.00488208 -0.0691775 -1.12345 0.0252969 0.0763709 0.517209 -0.986033 0.0704624 0.415436 -0.575849 -0.365506 0.14343 -0.38249 -0.142478 0.129588 0.130028 0.0706933 -0.121577 0.0962428 0.0808896 -0.440149 0.062124 -0.310117 0.296193 -0.439915 -0.510171 0.0748966 0.0505601 0.0555159 0.120286 -1.34516 0.034707 0.22141 -0.581691 0.0637945 0.0577196 -1.54775 -1.82843 -0.477683 0.074535 0.0498215 0.0711235 0.0880987 0.0960641 0.245114 0.0114654 -0.729433 -0.0109754 0.0592413 0.0486963 0.0755421 0.085529 0.585085 0.069346 -0.321195 0.080296 -0.278871 0.0640037 -0.301267 0.027687 -0.294323 0.152976 0.0729416 -1.16427 0.055927 -0.325187 -0.372315 0.076908 -0.47687 0.148928 0.0859962 -0.139436 0.0721013 0.0730425 0.032292 0.213993 -0.635407 -0.203829 -0.471107 0.0855084 0.0135376 0.248375 -0.228883 0.0360274 -0.381192 -0.0244606 -0.157308 -3.45862 -2.03135 -0.250767 0.639408 -1.03501 0.0137363 -1.54791 0.507435 0.0491465 -0.229745 -0.551324 -1.15303 -1.364 -0.0513374 0.439746 0.0169931 -0.130338 -2.32697 -0.194327 -0.68674 -0.00280109 0.0509133 -0.946119 0.0523074 0.197351 -1.68886 -1.17012 -1.268 0.184575 -0.679134 0.124345 -1.84573 -0.0867598 -0.554826 1.76622 -0.151901 0.285922 -0.467531 
row 0.0858675 -0.027577 0.158365 0.0259582 1.76514 0.0137055 0.0459302 0.0789931 -1.13085 -0.87013 0.00851562 -1.50528 0.447671 -0.859229 -0.0512847 -1.17026 -0.46499 0.136508 0.0263655 0.00311844 -0.606741 0.0384576 0.092996 -2.89598 0.0814546 -2.16292 -0.94048 0.327979 -1.35078 0.0670817 0.051499 0.0719923 -0.0917261 -0.0843454 -0.788195 0.183111 -0.419535 0.0168458 0.0642723 -0.586877 -4.03459 0.357284 0.0154912 -0.351143 -0.694956 0.063883 0.0547381 0.288454 0.0374427 -1.53207 -0.0910506 0.0741332 0.2267 0.0910406 -1.00331 -0.232981 -0.0971755 0.196306 0.0139227 -2.27029 0.0904159 -0.156781 0.0432664 0.178423 0.0102326 0.0954645 -0.0447836 0.106073 -0.118665 -0.353249 -0.81801 -0.666147 -0.671183 0.083418 -2.38157 -0.194047 0.0373463 0.061555 0.122632 -0.838775 -0.425827 -0.747186 0.071333 -0.561945 -0.0218632 -0.538578 0.0848841 -0.835407 -0.401844 0.114929 -0.155577 -1.37018 -1.57921 -0.799173 -0.0173651 0.075478 -0.83929 -0.561632 0.0492447 -0.965137 2.45691 0.19674 0.0429152 -0.313939 0.211747 0.025878 -1.16839 -0.833898 0.261071 -1.08857 -0.249644 0.00979 0.707434 0.00608141 -0.0297829 -0.410561 0.683074 -0.560606 -0.191787 -1.05274 -0.58125 0.812572 -0.365195 -0.0615737 -0.675447 -0.0306837 0.0215986 0.249347 
row 0.0768544 0.022981 -0.920219 0.0434891 -2.28993 -0.139213 0.08289 0.00512709 -0.894638 -2.23667 0.0815853 0.773876 0.04137 -1.25298 -0.293761 -1.45324 -0.597636 0.167908 -0.131901 0.0453385 -3.9183 0.0761023 0.0875533 -2.41805 0.00151915 -0.147554 -0.731849 0.039491 -2.42664 0.0579268 0.0638489 0.0708107 0.0137644 0.0824485 -0.290137 -0.215134 -0.00922385 0.0196335 0.0773525 -0.61157 -0.551842 -2.37862 0.0811076 -1.54372 -1.37977 0.0244065 0.0880286 1.24468 0.00511488 -0.986509 0.0697146 0.0143855 0.258397 0.0171723 -7.28706 -0.624441 -0.466126 -0.778145 0.0264922 -3.72296 0.0867328 -0.81183 0.0418732 -0.289398 -0.0040977 0.0199442 0.341125 0.520521 -1.03516 0.207153 0.440539 -0.515701 1.28088 0.0829116 -0.15615 -0.458189 0.0264684 0.0580431 0.933361 -0.310465 0.217129 -0.27998 0.08616 -1.21968 0.0281448 -0.187558 0.0934776 -0.0116513 -1.23347 0.112271 -2.07919 -1.48926 0.571014 -0.345502 0.0828413 0.0343397 0.568768 -0.494017 0.0759635 -1.20522 -5.02212 -1.04414 -0.24042 2.25374 -0.227061 0.0321516 -1.12257 0.420181 2.33695 -0.0542672 -4.29626 0.100742 -0.676957 0.0961309 -0.0504029 -0.321846 -1.36321 0.436552 -0.757132 -1.06751 -0.611164 0.116525 -0.0838419 -0.561275 -0.479455 -1.08716 -2.98439 -0.0133551 
row 0.000385111 0.0200439 0.221217 0.0692339 -0.580716 -0.260512 0.0873917 0.0333847 1.64496 -0.205387 0.0253096 -1.33141 0.0995845 -0.43336 0.223327 -0.359521 -0.486199 -0.315464 0.0273863 0.0594239 -0.217328 0.0447232 0.085415 0.050821 0.0904456 -0.488139 -1.40771 0.0922486 0.0302492 0.0767915 0.0148282 0.0938015 0.0510501 -0.187944 -0.098971 0.0835245 -0.174925 0.0650541 0.0701349 0.0327539 -2.31448 -0.691913 0.0910644 -0.517682 -0.313942 0.0246775 0.040308 -0.282933 0.053059 -0.263261 -0.0398115 0.0428534 0.127574 0.0944278 -0.602198 0.189855 0.0817669 -0.342366 0.0128444 -1.8611 0.0736218 0.505705 0.0432611 0.0588658 0.0868611 0.0959928 0.0708889 0.210565 0.00267057 -0.138588 -0.00412498 -0.414245 0.429775 0.0190592 1.55182 0.313692 0.0404918 0.00345139 -0.434562 -0.293152 0.0151561 -0.587468 0.0574838 -0.154775 0.0686111 -0.290637 0.048864 -0.362795 0.4535 -0.010712 -0.12498 -1.11226 -0.62278 -0.78609 0.442156 0.089096 -1.16445 0.218038 0.0722078 0.163344 -0.26744 0.0423142 0.000809129 -0.242948 0.0307106 0.0296012 -0.624849 -0.879031 -1.43198 1.30624 -0.225682 0.0797156 0.287686 0.0105826 0.04246 -0.241642 -0.111978 1.17866 0.141427 -0.119175 0.805634 -0.0708595 -0.403519 0.085007 -0.078589 -0.0959377 -0.627455 0.403539 
row 0.047708 0.0194102 -0.697441 0.0707143 1.22796 -0.264803 0.0943745 0.053514 -0.331145 0.224373 0.0317756 0.27188 -0.634913 -0.086053 -0.385825 -1.3574 0.013642 -0.364663 -0.324593 0.0524118 0.160104 0.0348083 0.0656464 -0.167999 0.0456179 -0.380589 0.0605189 -0.435608 0.395471 0.0141487 0.0487535 0.000135353 0.0619522 -0.651882 -0.298323 -0.265961 -0.783382 0.0246294 0.044211 -1.48584 0.0667772 0.538052 0.0196794 -0.689311 -0.00533088 0.0709584 0.0211123 0.120043 0.0125773 -0.870468 -0.210594 0.059725 0.00719852 0.017569 -2.01883 -1.07707 -0.146881 -0.167588 0.0508925 -0.538936 0.0929688 -0.451478 0.0228217 -0.446949 0.0405003 0.00323915 -0.660729 -0.604546 -0.471411 -0.602278 -0.850656 -0.416946 0.0824651 0.0429593 0.124586 -0.0799553 0.0885854 0.064041 0.0834618 -0.553681 0.0527045 -0.859704 0.0840282 0.226049 -0.00955824 -0.37066 0.0844792 -0.424974 -1.03927 -0.252433 -2.32027 -0.330361 0.209387 -0.725742 -0.628819 0.0877152 -0.511837 -0.0432515 0.0804767 -0.400345 -0.610605 -0.990841 0.278567 -0.416037 -0.000225397 0.0620824 -0.174051 -0.176438 -0.235957 -0.196689 -0.559826 0.0891099 -0.334569 0.000949157 0.0958986 -0.995499 -0.851027 -0.377583 -0.22626 -1.34686 -0.901103 -0.244161 -0.842369 -0.274156 0.833641 -0.196257 -0.183545 -0.296726 
row 0.0886771 -0.0855126 -0.403307 0.0459291 3.56379 0.229245 0.0772861 0.000963288 -0.391499 -0.224029 0.0980068 -1.03259 -0.0153826 -0.226476 0.0679853 4.23661 -1.01339 0.190928 0.119873 0.046119 -1.09633 0.0842593 0.057038 -0.0421566 0.0242928 -2.30738 -0.786824 0.0929788 -0.756421 0.0373145 0.0850255 0.0634269 0.106926 -0.670442 -0.56853 -0.260115 1.40481 0.0588826 0.00440642 -0.195401 -1.62111 -0.738551 0.0429869 -1.19753 -1.33596 0.0566733 0.0349868 -0.887856 0.0373566 -0.50174 0.0571497 0.0685697 -0.174249 0.0376955 -0.201656 -0.153587 -0.39165 -0.311725 0.075376 -1.48897 0.00973835 0.0736065 0.0451425 -0.0122469 0.0859801 0.0967166 0.290472 -0.380364 0.661105 1.12963 -1.18764 2.04338 -0.0375201 0.0167428 -2.67945 0.0765206 0.00104898 0.0340454 -0.110408 1.12963 -0.684502 -0.801089 0.0275255 0.275864 0.155924 -0.517335 0.00643096 -0.331467 -0.576579 -0.10269 -0.723306 -2.79257 -0.822085 -0.0993135 -0.00246817 0.0503762 -0.402353 -0.310003 0.0824894 0.267631 -0.912864 -0.748977 -0.356671 -0.291727 -0.266194 0.0852053 -0.831925 -0.719182 -1.38215 -0.618547 -4.42955 0.0260017 0.205039 0.0835678 -0.0214904 -1.67093 -1.16736 -1.17806 -0.161514 4.89485 0.206444 -0.525592 0.145993 0.778261 -0.677116 -0.377978 -0.643086 -0.337625 
row 0.0785367 -0.116181 -0.287002 0.0621624 -0.729891 -1.12994 0.0655734 -0.000639498 -0.583937 -0.0555123 0.039928 0.494518 -0.537932 -0.115551 -0.113165 -0.521716 -0.45035 -0.323232 -0.115486 0.0580718 0.113114 0.0404753 0.0156333 -1.12369 0.0766243 -2.83219 -0.90797 -0.211824 0.189657 0.0504528 0.0546965 0.0259461 0.0838727 -0.837297 -0.0771613 0.210869 -0.530737 0.0038101 0.0486516 -0.323604 -0.843771 -0.685561 0.0257295 -0.253295 -0.0861372 0.0260289 0.0717157 -0.353326 0.0366271 -1.19497 -0.234957 0.0848298 -0.314372 0.0629137 0.229921 -0.320455 -0.452918 -0.949883 -0.000402713 -0.324131 0.02016 0.0700418 0.00873861 -0.220355 0.100628 0.0972445 -0.545824 0.240775 0.461744 0.0851736 -0.198363 -0.36142 0.133848 0.00502459 -1.25668 -0.0690248 0.0565001 0.0448256 0.0667793 -0.250415 -0.773171 -0.462772 0.0326017 0.339365 0.156595 -0.61411 0.0528074 -0.0662912 -0.0706596 -0.0637517 -0.546667 -1.86874 -0.914277 0.203363 -0.200871 0.0723865 -0.93728 0.73929 0.0900604 0.510075 -0.146348 -0.284802 -0.227712 -0.513492 0.011513 0.0944551 0.593788 -0.87218 -2.59999 -0.456137 -0.313208 0.0287327 0.354569 0.0972113 0.110865 -1.27958 -0.33646 -1.23347 -0.117492 -0.89992 -0.362425 -0.933727 0.232942 -0.498651 1.25437 -0.0924442 -0.596076 -0.235833 
row 0.0548911 0.0570359 -0.372782 0.0875752 2.53074 0.000725279 0.0938421 0.0905254 -0.711526 0.279475 0.041548 -0.408619 0.19083 0.833951 -0.437848 -0.154578 0.134158 0.148234 -0.163026 0.072588 0.178264 0.0529203 0.083082 2.25432 0.0986104 0.648063 -1.4159 0.321729 -1.28773 0.0850492 0.0308211 0.08387 0.0840137 -0.496582 -0.403495 -0.37644 -0.0261344 0.0911241 0.0503556 -1.4801 -1.05889 -0.0499544 0.0127879 0.229925 -0.233637 0.0852219 0.0583799 -0.350368 0.0132778 -0.313125 0.361324 0.00681655 -0.162416 0.0666497 0.426904 -0.660869 0.0362629 -0.507599 0.071997 -2.25331 0.0162546 0.129083 0.00415663 -0.139338 0.0664643 0.00911526 -0.266028 -0.723641 1.4489 0.255718 0.111086 0.200241 -0.687072 0.0363702 -0.600427 0.190107 0.0868001 0.0951267 0.103086 -0.169617 0.446027 -0.633259 0.0814991 -0.276309 0.181471 -0.450882 0.0921016 -0.28785 -0.133173 0.0433252 -0.433291 -0.586819 -0.0257447 0.301647 -0.114078 -0.000793633 -1.472 -0.512166 0.0672758 0.658008 -0.390717 -1.17491 1.40759 0.191107 0.437538 0.0277522 2.29508 -0.162745 -1.72473 -0.240619 -0.960312 0.0685402 0.0428339 0.0243872 0.0505533 -2.12409 -0.627296 -0.508594 -0.160963 0.0241486 -0.409195 -0.818206 -0.545808 -0.289647 1.04382 0.73241 0.472087 0.219063 
row 0.0576024 0.0676296 -1.01406 0.0853409 -1.40571 -0.464337 0.0776679 0.0736192 -0.421704 -0.222622 0.0357269 0.0342358 -0.351644 -0.0485577 -0.137122 -0.657297 0.0155402 0.0294794 0.0342888 0.0897953 0.946383 0.00665871 0.0783187 -1.185 0.0118851 -0.21128 0.175861 -0.264051 0.394439 0.0846156 0.0215684 0.0727776 0.121574 -1.01372 -0.365474 -0.146255 -0.310551 0.0791323 0.0225732 0.576767 0.417125 0.351894 0.0822165 0.37622 -0.0463916 0.0321997 0.0888476 0.0997093 0.00426931 1.0229 0.210634 0.0393278 -0.0209878 0.0456359 -1.74015 -0.528265 0.180691 -0.154553 0.0123565 -0.533284 0.0813195 -0.587007 0.0749815 -0.360059 0.102107 0.0295812 -0.628363 -0.618524 -0.51395 -0.369204 -0.317899 -0.458164 0.00862607 0.0629047 0.149207 -0.129421 0.0785109 0.0507667 0.259164 -0.581449 -0.068835 -0.821229 0.00536225 -0.00604307 0.165032 -0.164095 0.097129 -0.0947005 -0.889905 -0.0752097 -0.713475 1.04113 -0.0141712 0.83847 -0.382457 0.0162634 -0.87898 0.0772735 0.0273358 -0.154124 -0.874824 -0.497495 1.31811 -0.725718 -0.513679 0.0915416 -0.342461 -2.13934 -0.390096 -0.239044 -0.088883 0.0452124 -0.622873 0.00505446 0.181859 -0.54612 -0.997981 -1.09528 -0.0859249 -0.862999 -0.604887 -0.689104 -0.551031 -0.247212 0.758179 0.158211 -0.704524 -0.157634 
row 0.0198332 0.0533819 -0.0986818 0.0113712 0.865802 0.248185 0.0822323 0.0132103 0.0932562 -0.422359 0.0267861 0.156857 -0.106174 -0.151458 0.0943014 2.03521 -0.543711 0.051113 0.0604524 0.022961 -2.63894 0.0862164 0.08149 -1.41828 0.00316159 -0.898332 -1.69342 -0.0131321 -0.859466 0.0753828 0.0159186 0.0615968 0.0499684 -0.166918 -0.171769 0.118102 1.41098 0.0314432 0.0063292 -4.04302 -1.08883 -0.361257 0.0530542 -0.748051 -0.984619 0.0965186 -0.000482351 0.24082 0.00666338 -1.1293 -0.0368356 0.0599619 0.0991306 0.0358051 -1.07523 0.102168 -0.0203194 -0.191947 0.0672416 1.65112 0.0758638 0.246631 0.0590097 -0.0195805 0.0275483 0.032629 -0.114544 0.795936 0.11792 0.0964754 0.210393 1.71156 0.0710185 0.0432034 -0.881575 0.0923688 0.0394711 0.0245556 -0.151943 0.174482 -0.163357 -0.313815 0.0194966 0.318294 0.111883 -0.178995 0.0311308 0.786909 0.800128 -0.0455309 -0.0638229 -1.37194 -0.859788 -0.69189 -0.219004 -0.000148413 0.526355 0.717403 0.0403393 0.593445 -0.281548 1.49134 1.13585 -0.495145 0.744946 0.0597165 -0.245541 0.387917 -0.534304 -0.116375 -1.12178 0.0916302 -0.0262644 0.0108528 0.080397 -3.68065 -1.1899 -0.631471 0.104927 -0.291206 -0.143837 -0.457301 1.148 -0.18538 -0.428185 -0.0201428 -0.249824 -0.183004 
row 0.0805487 -0.0971836 0.301095 0.0532608 -0.0123222 -0.210719 0.0455742 0.0363444 -1.52113 -0.29164 0.0625553 -2.92007 -0.042693 -0.534018 0.154412 -0.0510633 -0.50503 0.297509 -0.0180031 0.0239979 -0.101119 0.0315433 0.0938685 -0.434885 0.0109111 -0.588036 -1.45245 -0.0583704 -0.725058 0.0748649 0.00575313 0.0128203 -0.0181589 0.589964 -1.1061 0.224035 -0.334495 0.0383744 0.0153633 -1.7816 -0.159203 -1.06993 0.0668043 -0.651933 -1.18705 0.0459343 0.0944747 0.332289 0.00681773 -0.936054 -0.0980791 0.0342606 0.0561157 0.0688255 -0.846594 0.13216 -0.130947 0.597877 0.0169977 -2.5785 -0.00160586 -0.387763 0.0288573 0.512926 -0.0644636 0.0212684 0.10293 -0.597451 0.29602 0.302185 2.60893 -0.262031 0.0549091 0.0753932 -3.00282 -0.633975 0.0372811 0.0306657 -0.647855 -0.166344 -0.695567 -0.780289 0.0244865 -0.26347 -0.0869061 -0.941627 0.090831 -0.520431 -0.28548 -0.104981 -1.50851 -1.07726 -0.9731 -0.671508 0.0288915 0.00654637 0.614814 -0.768647 0.0182455 -0.0882514 -0.272804 -0.298689 0.429966 0.0219151 -0.218852 0.0560886 -0.867796 -0.749323 -1.23444 -0.0638445 -0.196544 0.0168364 0.227285 0.0886228 -0.136055 -1.18157 -1.19943 -1.05425 -0.433886 -0.309967 0.446528 -0.1069 0.0572097 0.228174 -0.317275 -0.397525 0.634647 0.824781 
row 0.0191656 -0.0463364 -0.248893 0.0965133 -0.741161 0.225649 0.0574686 0.0196344 0.205751 -0.108758 0.0528309 0.366701 -0.0333506 0.638517 -0.0841351 -0.0112058 0.561408 -0.380234 0.069685 0.0618292 -0.391949 0.0315683 0.0469083 -1.09009 0.0221025 -0.299955 -0.617297 0.0876631 -0.950034 0.0706066 0.0484009 0.0977543 0.0794774 -0.49516 -0.261631 0.373134 -0.407379 0.0730606 0.0876772 -0.404492 -1.95734 -1.50057 0.0139862 0.59587 0.355815 0.049977 0.063993 0.342405 0.0458928 -0.178863 0.00402211 0.0842492 -0.232685 0.096806 2.79458 0.146345 -0.246672 0.429073 0.0048292 -0.137192 0.0373642 0.0596429 0.0144099 -0.209451 0.0842431 0.0564787 -0.188345 0.451179 0.406683 0.104186 0.545312 -0.819321 -0.0750473 0.0303094 0.198447 -0.110428 0.062434 0.0946002 -0.260301 -0.328454 -0.322997 -0.362557 0.0254563 -0.303036 0.0646342 -0.187145 0.0872416 0.403152 0.1161 -0.00629075 -1.24442 -0.273589 -0.30687 -0.642733 0.0749709 0.0670011 -0.61426 0.882057 0.0500478 0.353803 -0.251289 -0.555996 -0.986683 -1.30664 0.36052 0.0922938 -0.0735428 -1.8971 -1.42878 0.747566 -0.417747 0.0528413 0.189967 0.0368586 0.253502 0.026664 -0.116865 -0.715469 -0.195168 0.395583 -0.410598 -0.459035 -0.126383 0.118993 -0.150362 0.189594 -0.234043 0.0152772 
row 0.00314149 0.0670497 -0.52315 0.019777 -0.178497 -0.234054 0.00412565 0.0772313 -0.194433 0.261022 0.037774 0.195356 -0.241713 -0.0742744 -0.108789 -0.416821 0.0711512 0.106089 0.0106731 0.052134 -0.592502 0.0857295 0.0817745 -0.239516 0.0261034 -0.176175 0.234895 -0.222871 -0.266057 0.0834093 0.0307398 0.0334805 0.100062 -0.586592 -0.201552 -0.192328 0.110751 0.065668 0.0448697 -0.293544 0.820726 0.0351429 0.0430365 0.333931 0.070185 0.0766656 0.0106808 0.116613 0.0505425 0.311572 0.127588 0.0726219 -0.0384896 0.0386993 -1.31756 -0.353323 0.0715797 -0.162304 0.0518658 -0.117123 0.0345202 -0.207454 0.067665 -0.174711 0.0997449 0.0632465 -0.309705 -0.227603 -0.297053 -0.233851 -0.750401 -0.223295 -0.102659 0.0024271 0.0749229 -0.0862708 0.0278752 0.0218591 0.101938 0.0016816 -0.048926 -0.197565 0.0748805 -0.0413323 0.0549807 -0.0951374 0.0775091 -0.0069471 -0.55496 -0.0813227 -0.619661 -0.113885 -0.528028 0.192356 -0.379694 0.0192558 -1.24815 0.0940009 0.0387792 -0.124861 -0.34507 0.511689 0.269323 -0.319329 -0.490282 0.0730495 0.0587857 -0.722666 -0.568724 -0.186307 0.0252277 0.0996932 -0.293865 0.0549607 0.0794769 -0.621414 -0.701256 -1.24672 -0.0541308 -0.151077 -0.209334 -0.439133 -0.21471 -0.054331 0.414164 -0.0366846 -0.307318 -0.221782 
row 0.0132172 0.161784 0.20901 0.0585423 -0.187072 -0.501674 0.0254846 0.0703662 -1.52652 0.504012 0.0253374 -1.3798 0.0927108 -0.403942 -0.195491 -0.337379 -0.276767 0.216177 -0.0147591 0.0882246 0.777024 0.0261478 0.0861615 1.47012 0.0352723 -0.0344319 -1.8188 0.16664 -1.07637 0.0198568 0.0545237 0.0636792 0.0849345 -0.452453 -0.202552 -0.0900858 -0.109624 0.0782343 0.0298276 0.0318464 -0.907129 -0.192203 0.0593964 0.302298 -0.230965 0.0397609 0.0144918 0.773212 0.0710438 -1.68678 0.099941 0.06151 -0.105204 0.0283221 0.480077 -0.0608164 -0.221833 0.234509 0.0416827 -0.10614 0.0518334 -0.151837 0.0493746 0.329815 0.0762668 0.0646791 -0.31846 -0.563751 -0.0434537 0.300741 -0.405469 -0.0296022 -0.788355 0.0630037 0.101664 0.10457 0.0573217 0.061797 -0.257901 0.0358422 0.136559 -0.885768 0.0682484 -0.0780727 0.0350982 -0.38287 0.0870947 -0.0199454 -0.22098 0.044881 -0.421875 -0.15054 -1.15046 -0.850492 -0.370826 0.0417077 -0.408754 -0.692781 0.0342289 0.277144 -1.27772 0.0173147 0.969769 0.000932666 0.528626 0.0514485 2.41703 0.811444 -0.365717 -0.0107006 -0.279954 0.0977308 0.0272004 0.00168472 -0.00188167 -3.67932 -0.261478 0.173342 0.132382 -0.910917 -0.880849 -0.0135288 0.0361176 -0.33922 -0.395722 -0.192192 1.94414 -0.124221 
