layer
row -6.11097 -2.36475 -1.64184 -12.652 -31.6237 1.87436 1.93803 -6.14901 5.80686 0.787197 
row -0.752067 -20.1919 -0.0360274 0.230197 -3.8487 -1.06167 -10.7218 9.0376 -1.05825 -5.10065 
row -6.42715 -3.31999 -0.259268 -1.51101 -9.03547 -0.184888 3.20294 10.6682 1.69111 -13.2943 
row -1.54538 -0.168106 -1.14238 0.124023 12.0478 0.410103 -2.15701 -4.96349 -4.31508 -1.69841 
row 1.7699 11.3 -0.359312 0.349862 1.69248 0.722389 13.3074 -33.2281 -6.36959 1.11759 
row -0.483433 3.05312 -0.0626998 0.0135114 -0.420288 -0.149585 3.9594 -6.59985 -2.21043 -0.0273986 
row 5.08669 -0.0635207 0.809183 0.00793028 -6.04833 0.0674769 -0.104669 2.05753 -6.91227 2.0467 
row -1.06576 -3.37891 0.305801 -0.0635912 -1.18015 -0.181581 -2.23158 2.2595 -1.78043 -0.458804 
row -8.67605 -4.32707 -0.987557 0.563487 -10.1405 -0.532589 5.31853 7.43164 3.13524 -10.106 
row 3.76836 -2.77803 -1.36138 0.0592923 -8.66614 -0.164366 3.42721 3.47652 -11.2553 0.206131 
row -5.25733 0.525319 -1.20482 0.922233 -3.35106 -0.867308 3.49569 4.74926 1.29391 -6.38479 
row 0.987991 -0.986649 0.803663 -0.187838 -0.844852 0.0345937 -0.614506 0.435988 -0.105138 -1.1301 
row -0.71101 16.4206 0.510675 3.15293 -2.96028 0.455969 -8.92685 -31.7375 -0.900068 -4.60632 
row 10.6044 -0.85069 0.0657516 -1.39564 -4.84901 0.251033 -4.1421 1.21494 12.8096 -19.0264 
row 0.30734 -0.786294 -0.16551 0.204442 -0.0389212 0.043519 -1.48241 0.0166477 1.18361 0.836639 
row 4.1602 -2.87462 0.95334 -1.27642 -16.7947 0.386436 0.958714 -1.32808 13.1133 -20.8899 
row -0.508769 -0.629619 -0.147279 -0.282645 -0.0631422 0.0225822 -0.440735 0.540827 0.00433502 0.228281 
row -2.53625 -0.669797 -0.518697 0.16271 -1.2536 -0.568013 1.90962 2.66275 0.977124 -4.07732 
row -0.294317 -0.941961 0.0170187 -0.439939 -0.408336 0.0102333 -0.415097 0.670398 0.109378 0.239999 
row -0.00661889 1.71189 0.267859 -0.0665432 -0.0626116 -0.213306 2.9129 -4.60128 -1.41291 0.584127 
row -0.334317 -2.33734 0.0129873 -0.116464 -0.293768 -0.0434881 -1.14734 1.51918 0.0165521 -0.161892 
row 0.177272 -5.4441 -0.026508 0.393825 -1.1701 0.0650636 -3.45648 2.92143 -0.897777 -0.531248 
row -0.278383 -0.882016 0.00812424 -0.448425 -0.33961 0.0228338 -0.36883 0.643239 0.173713 0.272101 
row -0.300721 -0.947289 -0.0126409 -0.450751 -0.359789 0.00361264 -0.402837 0.647538 0.096905 0.26925 
row -1.37181 -7.43106 -0.431173 0.692681 -2.71861 -0.337983 -5.18372 4.78599 -2.764 -2.31517 
row -1.97397 18.8853 -0.786852 -1.55807 -0.175969 -0.186605 -3.04563 -31.1341 -3.42717 -3.98602 
row -2.7619 16.8338 -1.42404 1.61073 -2.14138 -0.897914 -1.00936 -25.2648 -4.64575 -0.0469654 
row -3.07753 -1.44653 0.865315 -0.40289 -3.18216 -1.07587 2.24718 2.60362 1.55455 -6.76246 
row -1.04722 -8.5204 -1.19969 -0.481228 19.2615 -0.0778188 -2.1227 -7.64908 0.478665 -5.93412 
row -0.13546 12.5462 -0.707538 0.0648826 -0.141467 -1.07582 -1.45871 -15.4193 -1.13061 -0.367551 
row 22.0417 -3.00904 2.8673 -2.06966 -5.16007 0.0647753 7.0415 4.02266 -12.5866 -33.4696 
row 0.416322 -0.67069 0.389343 -0.588123 -0.687418 0.00911725 -0.31312 0.0921702 0.356019 -0.58092 
row 8.90088 0.632978 -1.13299 -3.30073 -8.26489 -0.45434 -5.88407 -2.08136 -8.12679 7.66798 
row -0.263725 -0.700334 -0.0334238 -0.385854 -0.251275 0.0317968 -0.392668 0.591643 0.0994536 0.237043 
row 5.59253 0.53814 2.39002 -3.38713 -8.65895 0.248785 -6.59172 -1.87269 -5.90079 3.87498 
row 0.357471 -0.283918 0.335211 -0.272998 -0.550039 -0.00860588 -0.060945 0.512958 -0.238677 -0.188896 
row -2.05812 -2.00049 -0.199404 -7.72384 -3.19277 0.238899 -2.23149 2.70032 0.790568 -3.01789 
row -3.53123 -2.35973 -0.916984 0.0628449 -2.4516 -1.56825 4.3268 4.2107 2.78465 -2.2542 
row 4.52856 0.225029 -0.337752 1.15618 1.03092 0.257674 -5.33489 -2.85133 1.9223 -2.44078 
row -0.614765 -0.710547 -0.275267 -0.603174 -0.052827 -0.0320824 -0.430014 0.554919 0.0580114 0.461875 
row -0.00325155 -0.434736 0.08464 -0.213865 -0.319963 0.0307343 -0.189927 0.448142 -0.0410341 0.0454472 
row 3.67084 -3.19124 -1.22186 6.32445 12.405 2.5005 -5.08658 -17.1623 2.13885 2.09202 
row 0.0969288 -2.38361 0.268885 -0.00694037 -0.419313 -0.0604644 -1.503 1.54994 0.00911447 -0.286034 
row 0.47096 16.3893 -0.265588 2.15712 -6.03476 0.164198 -11.1728 -27.0887 0.341119 -0.68975 
row 2.22099 13.1444 0.481357 -0.993622 -4.47229 0.00519267 -10.1353 -18.5588 -1.05689 2.55431 
row -1.16065 12.1322 -0.803763 0.55617 -1.01997 -0.66453 -1.32941 -17.1602 -3.15785 -2.2877 
row -1.6265 8.07044 -0.182552 0.262676 0.701653 0.758401 -9.66457 -14.8449 0.0547816 -1.80728 
row -6.83484 -0.633718 1.55296 -3.00275 -11.4027 -1.45674 3.92339 9.96839 6.07954 -13.5126 
row -0.0465616 -2.04677 0.0241105 -0.16689 -1.32316 -0.016135 -1.23736 1.50959 -0.441452 -0.102858 
row 2.8438 1.58853 -0.209013 -0.377855 -5.53189 0.740872 3.99654 -3.42883 -10.7967 3.28357 
row -29.8413 0.367423 -4.25984 0.45265 -1.27292 1.57411 3.21105 2.1907 -25.4532 -10.688 
row -11.2184 -1.15371 0.923188 3.98427 -8.90832 0.36104 -1.47602 2.23198 -2.44456 -12.6485 
row -2.8858 10.1915 -0.15715 0.517685 -0.0113584 0.0853164 -2.25972 -17.1759 0.895795 -5.45844 
row 0.071461 -0.565803 0.159978 -0.314727 -0.523512 0.0510928 -0.207342 0.646689 -0.143306 0.0286752 
row 18.3519 1.56465 -0.0924725 0.171501 -4.68114 -0.326547 -2.85852 0.846144 -2.01708 -23.7508 
row 3.99176 2.92385 1.12615 1.35494 1.11633 -0.0422949 -6.72387 -3.10162 1.63066 -1.49666 
row 3.64546 0.650829 -1.60602 -0.23246 -2.58191 1.85082 -5.00868 0.129397 -11.5418 4.69935 
row -1.53294 3.55855 -0.363693 0.0521831 -0.622861 -0.226537 3.62425 -6.07662 -0.506792 -1.56876 
row 4.1472 -16.6716 0.603551 -0.556641 -3.10377 0.263651 -19.3337 -4.14192 1.35239 4.08906 
row -0.907513 -0.722104 -0.460485 -0.423608 0.195587 -0.0224417 -0.393638 0.562198 -0.0617586 0.373861 
row -2.92081 -0.351614 -1.26391 -0.133881 8.88255 0.278543 -2.32891 -3.2389 -3.72573 -2.82101 
row -2.99126 -2.3359 -0.953614 -0.0637586 1.02329 -0.058945 -0.576154 0.629707 -1.49725 -1.47586 
row -4.16463 -11.2412 -2.17623 -2.55864 0.163813 0.645337 -15.451 7.33548 0.218772 3.12007 
row -6.59557 -3.15797 -0.772868 0.568302 -7.8996 -1.02654 6.0627 6.76364 3.50501 -11.0856 
row -0.554561 12.6822 -0.420271 0.00772583 -2.04034 0.174743 -3.49259 -20.0249 -1.26044 -0.524122 
row 12.8963 0.781012 1.3048 0.200802 -4.4065 0.176449 -5.12427 0.00405747 11.8629 -22.2513 
row 0.254975 -6.09845 -0.473174 0.334557 -1.60008 0.0475629 -3.59788 3.40532 -0.908218 -0.84801 
row -34.4573 0.720941 -0.589241 0.0941498 -0.787211 -0.328091 -0.913562 -0.742255 -36.7983 -8.45465 
row 2.17089 -0.570257 -0.241615 0.778205 -7.18617 0.167575 1.42681 5.95872 -3.31335 3.78968 
row 0.0467842 3.16221 -0.178459 0.0692583 -3.11875 0.0310646 -5.46104 -0.997214 4.50972 2.02542 
row -1.01711 9.4636 -1.47208 0.137947 -1.97053 0.812335 -1.37374 -17.2282 -4.21147 -1.18943 
row -0.0701607 -1.86632 0.162074 -0.0708809 -0.311769 -0.0522081 -1.04715 1.23087 0.0874525 -0.0343299 
row 0.335951 0.00622011 0.445273 -0.128721 -0.332331 0.0555296 0.393237 0.647835 -0.638979 -0.0550213 
row 0.349317 -0.518203 0.237449 -0.470229 -0.636675 0.0296972 -0.172315 0.0974339 0.291199 -0.513971 
row -2.04687 5.40427 -0.785037 0.104209 -1.49166 -0.376428 5.47822 -9.89242 0.0642133 -2.05941 
row -1.92477 -8.21958 -0.885733 0.537733 -2.05634 -0.204833 -5.29938 5.38732 -1.67583 -1.02487 
row 3.27148 -6.73644 -0.862372 0.720674 13.2877 -0.703399 6.18184 -3.73604 -5.50419 -1.14712 
row -2.32598 1.58089 -1.87164 -3.11911 -1.14199 0.307469 -4.70341 -2.72024 0.38841 -2.84119 
row 0.908594 -1.91381 -0.114948 -1.90349 -0.418831 -0.158038 -0.204974 0.695354 -0.502663 1.08695 
row -0.253145 9.90794 0.37479 -1.4373 -0.79734 -0.163119 -0.77036 -17.9494 -0.902245 -3.62608 
row 22.9062 -6.92642 1.86051 0.225829 -9.51956 0.575152 0.686781 -1.93214 -15.6569 -29.2823 
row -1.02324 -2.12531 0.0980801 0.118859 5.40883 0.404168 -2.64116 -0.435912 0.978439 2.69133 
row -26.6532 -3.00313 -2.39331 -0.13596 -1.20377 1.23805 -5.14386 -0.803664 -21.5161 7.01958 
row -3.54016 -6.38203 0.537464 0.10815 15.1773 0.561866 -2.11284 -4.92097 -2.05852 -6.01564 
row 1.55992 12.4379 0.414852 0.845541 1.04068 -1.00484 0.932841 -16.6961 -0.207062 1.03769 
row 0.0488521 -2.15722 0.183733 -0.109577 -0.480713 -0.108043 -1.09639 1.31828 0.205433 -0.0635279 
row -0.577365 -25.3998 -0.239059 1.35584 -3.36529 -0.082395 -14.0773 -5.70819 -2.97771 -1.7469 
row -0.166606 -0.587443 0.0458787 -0.307099 -0.429966 0.00908182 -0.226387 0.532966 -0.00804767 0.150585 
row -0.804213 -3.37931 0.55943 -1.93828 14.0241 1.51539 -2.3253 -9.38842 1.06354 -3.05564 
row -23.9513 -1.75478 1.57381 -2.99276 -3.92052 -0.339457 -1.60061 -1.87359 -16.9607 13.3285 
row -1.7968 13.0361 -0.630698 0.829435 -1.27466 -0.0167007 15.3086 -27.8508 -3.60255 -1.97224 
row 19.2824 -2.37972 1.64683 -0.618352 -5.06061 -0.423842 -2.27022 -1.34788 -10.428 -31.3458 
row 1.72105 10.0101 0.271685 -0.933745 -0.0996733 0.0852674 -3.05024 -18.2599 -2.21029 -0.820544 
row -0.0989458 -0.68987 0.0749234 -0.351218 -0.49533 -0.0389448 -0.327308 0.612561 -0.0539765 0.131402 
row 0.139981 -0.570835 0.527456 -0.159488 -0.26675 -0.0779517 -0.27554 0.158281 0.45717 0.0928431 
row -26.9652 1.7376 -4.12882 1.22762 1.67681 -0.01954 -1.39985 -1.7153 -15.9278 19.6227 
row -2.08289 17.5419 -0.727992 -0.530648 -2.24704 0.278235 -5.89819 -26.9673 -5.5427 -3.25897 
row -0.80784 -0.969172 -0.65073 -0.552066 0.479571 0.0157477 -0.624019 0.526328 -0.181787 -0.245631 
row 19.6583 -5.54264 0.901361 0.13888 -8.38207 1.31403 1.14734 -3.39438 -8.08304 -31.8007 
row -28.9196 -2.2103 -1.00938 -1.70965 1.99502 0.0591041 -3.2182 -2.51372 -19.931 13.7448 
row -2.21184 18.0206 -0.454286 -0.816413 -5.40744 0.112084 -3.74563 -26.5975 -2.62522 -2.40734 
row -0.145613 -2.85002 0.0877782 0.0510347 -0.438715 -0.0804331 -1.87164 1.74206 -0.325476 -0.409948 
row -0.999353 -0.754234 -0.353072 -0.489942 0.188711 0.0119596 -0.586965 0.497705 -0.132151 0.26167 
row -0.375865 -1.42887 -0.0540009 -0.079518 -0.164434 -0.00573058 -0.913435 0.999515 -0.00744018 0.182014 
row 0.848849 -1.21436 0.886188 -0.351276 -0.944963 -0.0512527 -0.71504 0.660214 0.0872703 -1.07161 
row -1.11196 -2.87819 -0.749765 0.208539 5.97738 0.0424501 0.178522 -2.72991 -0.722418 -1.64833 
row -0.676514 -0.962925 -0.660079 -0.669627 0.481481 -0.0133808 -0.508917 0.513256 -0.10779 -0.249295 
row 1.53929 -0.0126902 0.624172 0.206327 0.215702 -0.0992945 -0.850443 0.686737 0.087858 -0.355271 
row 0.344967 25.348 -0.264943 1.5157 -4.12394 -0.24133 -15.8456 -32.9212 2.80667 2.26771 
row -1.75249 0.194035 3.53245 -2.84309 -0.698058 -0.0792669 -0.483723 -0.675119 -1.12682 2.31497 
row 20.9039 2.74548 1.27289 -0.238999 -7.67227 -0.910011 -0.512542 3.86834 -4.26462 -30.851 
row 0.234104 -7.32116 0.410015 -0.823102 -1.31894 -0.0385528 -5.34678 5.26884 -1.10759 0.0661081 
row 0.857265 -1.25614 0.902706 -1.07571 -1.10364 0.03028 -0.674103 0.150861 -0.145617 -1.23723 
row -3.10254 1.47013 -3.01269 0.911949 0.0298371 0.258762 0.123966 -2.81205 -5.10511 2.59539 
row -2.91561 1.59016 0.956134 1.81264 4.50569 0.260809 -4.47655 -2.64266 -4.35531 3.60762 
row -0.319225 -1.14602 0.163462 -0.52845 -0.497546 -0.00198489 -0.564668 0.771396 0.0320543 0.164432 
row -30.524 -7.20764 -2.848 2.06738 -4.49585 -0.460585 -3.02286 -0.606246 -23.0767 -6.79281 
row 15.5999 6.10763 2.78219 -0.184616 -5.48584 0.372109 -6.02606 6.42837 13.7592 -18.5781 
row 0.217679 -0.0443544 0.3269 0.000215605 -0.32726 0.0498918 0.301348 0.533411 -0.419214 -0.10279 
row -0.043851 -2.3494 0.152048 -0.0435089 -0.41819 -0.0251462 -1.52383 1.56615 -0.0769172 -0.263851 
row -0.715656 -0.781226 -0.604374 -0.433461 0.346649 0.0199169 -0.409203 0.538463 -0.138939 -0.171481 
row -0.862998 -2.62414 -0.239909 -1.07386 -0.12458 -0.317062 -2.11946 0.97313 0.704049 2.48083 
row -0.49521 -1.16879 0.0708081 -0.483808 -0.32402 -0.0675569 -0.662464 0.82864 -0.0512722 0.238778 
row 5.80385 -5.08064 0.230332 0.370041 -6.63831 -0.207827 0.654049 0.378815 -7.84182 -3.1921 
row 0.755671 -56.4044 -0.622834 -5.00157 2.41256 1.35959 -27.9805 0.227948 -1.75534 1.28845 
row 8.92913 0.79105 -1.92169 -1.93718 -3.96812 -0.127264 -2.95607 2.3548 6.5686 -17.8233 
row 8.70364 -4.37301 2.62405 0.432327 2.07177 0.737805 -10.8468 -2.0705 5.10556 -3.07221 
row -0.123854 -1.44079 -0.253336 -1.07835 -0.247868 0.00994918 0.116697 0.19974 0.134575 0.529431 
layer
row -0.335361 -0.282175 -0.0605429 -0.47449 -0.205213 -0.171812 -0.386367 0.00770581 -0.200432 -0.945696 -0.202604 0.190931 -0.00368495 -0.121156 -0.155368 -0.572832 0.0404843 -0.0860984 0.00515948 -0.233201 -0.0886904 -0.144429 0.00549948 -0.00739446 -0.0236724 -0.0741673 -0.180093 0.339712 -0.629039 -0.157736 -1.30083 0.120374 -0.519793 0.0407156 -0.8091 0.0790392 -0.542808 0.224309 0.156196 0.0868157 -0.0179131 -0.784105 -0.0770946 -0.2606 -0.113707 -0.318439 -0.280806 0.192892 -0.0290685 -1.38972 4.60896 1.81446 -0.239386 0.0788733 -0.296424 -0.156089 -0.569134 -0.250588 -0.81312 0.125358 -0.455284 0.0214816 -0.469455 -0.456832 -0.763745 -0.16826 -0.177598 3.81748 -1.01859 -0.352281 -0.601916 0.0381399 0.0221078 0.123042 -0.0992139 -0.113984 -0.314535 -0.507656 -0.160935 -0.391381 -0.402309 -0.0235829 -0.795655 0.67277 -2.00319 -0.0209891 -1.40266 0.0133811 0.82106 -0.578296 -0.00383897 -0.0311869 -1.44413 0.0160266 -0.0190282 -0.976411 -0.0195171 0.125858 -0.052561 -1.15932 -0.450597 -0.0625213 0.0850668 0.00542458 0.110254 0.264721 0.0604154 -0.313939 -1.03556 -0.159033 -0.221414 -0.346192 0.153177 -0.02031 0.0101596 -0.0326191 -0.166503 -0.726254 -0.0413471 -0.0492113 0.078917 0.146691 0.0177872 -0.358256 -0.149437 -0.0467287 -0.372253 0.0241267 
row -0.355003 -0.300762 -1.07685 -0.315722 -0.297267 -0.255794 -0.481386 0.0868338 -1.33707 -0.957413 -0.03884 0.0970353 -0.296486 -0.642433 -0.072079 -1.34456 0.0805641 0.461421 0.0526763 -0.303335 -0.0200293 0.160314 0.0520216 0.0689489 0.668008 -1.13743 -0.0600064 0.0678343 -0.700258 -0.404937 -1.7238 -0.0204538 1.23531 0.083508 -0.788042 0.0286162 -0.974943 0.459647 0.513374 0.136513 0.0349124 -0.161639 0.253076 -0.612124 -1.56748 -0.292998 -0.381043 0.00307671 -0.00493006 -0.789291 -0.59088 -0.265183 0.130706 0.0456088 -0.410543 -0.399636 -0.478953 -0.241499 -0.785885 0.13155 -0.104207 0.0998529 -0.478676 -0.865882 -0.13407 -0.710185 0.260385 0.70718 -0.635503 -0.465679 -0.724818 0.132127 -0.0357434 0.0402473 -0.217241 -0.260828 -0.0313359 -0.499184 -0.0461588 -0.368311 -0.378042 0.0305938 1.48943 1.04809 -0.553306 0.126441 -0.120433 0.0438964 -0.873094 -0.0675738 -0.348699 1.9087 -0.670959 0.0641067 0.0521925 1.0409 -1.13949 0.0525005 0.894056 -0.901977 -0.0751636 0.113112 0.0792734 0.216976 0.17197 0.229644 0.0263372 0.0818889 -1.91288 0.0301496 -0.747466 0.603919 0.040946 -0.142034 -0.867312 0.0750869 -0.432677 -1.09847 0.0305583 0.257667 0.115007 0.0310841 0.128256 -0.889812 -1.17877 -0.650155 -0.554702 0.056834 
row 0.156451 -0.687884 0.11223 0.0534488 -0.0718552 0.00329386 0.155985 -0.0626314 -0.214724 -0.82595 0.280344 0.117365 -0.996654 0.18689 -0.00940277 -0.239601 0.0683191 0.231064 0.0956544 -0.081289 0.0435952 -0.0475761 0.111978 0.156248 -0.503644 -1.48852 -0.161388 0.119385 0.573279 -0.270633 -1.07361 0.0739927 -0.309709 0.13823 -1.59993 0.079071 -0.0356643 0.223847 -0.261455 0.0645335 0.136644 -0.80682 0.0140517 -0.561434 -0.641525 -0.248337 -1.13008 -0.311909 -0.0318854 0.3467 -0.117948 -0.285558 -0.602958 0.0962412 -0.394535 -0.0385596 -0.218635 0.0329675 0.469354 0.0839965 0.425263 0.200146 0.436548 0.0488422 -0.0951034 -0.635508 0.039373 -0.87621 0.637221 0.0872995 0.159652 0.057159 0.118837 0.0671332 -0.00814266 -0.223616 0.293506 -0.303289 0.13898 -0.328948 0.110741 -0.181602 -1.00622 0.0467817 -0.380449 0.0171459 0.072793 0.109186 -0.435728 -0.507505 -0.192178 -1.11269 -0.0948215 0.0903757 0.134337 -0.434379 -0.0082186 0.0372497 -0.783115 -0.409803 -0.47862 -0.0502558 0.0927211 0.0295296 0.176265 -0.182942 0.0534308 0.0425096 -1.4554 -0.3511 -0.272602 0.0171518 0.0926978 -0.406304 0.107388 0.149779 -0.29526 -0.909895 0.0435092 0.0730044 0.0974224 -0.13804 0.148054 0.0968738 -0.108133 0.126946 -0.0175922 0.0874795 
row 0.651003 -0.087868 0.759355 -0.406329 -0.554348 -0.0928451 -0.115227 -0.0500788 -0.357778 0.599663 -0.122017 0.116461 -2.04595 -1.16477 0.0079917 -0.405134 0.0716869 -0.100393 0.0487726 0.0339202 -0.00658857 -0.187864 0.0688135 0.0675856 0.717109 -0.0243576 0.323844 -0.0617657 0.675312 -0.442189 -0.181934 0.0883664 0.197433 0.103776 -0.176152 0.0647838 -2.0616 -0.453617 -0.232804 0.164444 0.0516276 -0.0818044 -0.0260765 -0.166978 -1.94037 -0.301793 -1.30271 -0.516978 -0.16619 0.452649 -0.678955 0.483021 0.230032 0.0991211 -0.212003 0.0236889 0.823791 -0.141404 -2.01396 0.108336 -0.181537 0.483741 -0.373193 0.163055 -3.12183 -0.58389 -0.339132 -0.750767 -0.0692781 -0.918558 0.652646 -0.0512485 0.0267087 0.0501709 0.0662902 -0.325536 -0.697355 -0.80304 -0.197891 0.127854 0.16739 -0.226776 0.415816 -1.4419 0.17501 -0.0659319 -0.402609 0.0693691 -0.261541 -0.482065 -0.825073 -1.72548 -0.360415 0.107772 0.0748257 0.175181 -0.146122 0.15198 -0.24809 -0.343095 0.443436 -0.111052 0.0687035 0.0482436 0.242805 0.359465 0.13515 0.0280116 -3.23668 -0.117241 0.499062 -0.425723 0.132268 0.152873 -0.823245 0.0535364 -0.280575 0.147489 -0.0115956 -0.0790555 0.10422 0.432275 0.06377 -1.12007 0.179196 -0.662054 -0.018589 0.121763 
row -0.00521974 -0.822885 0.683932 -1.17944 -0.359401 0.488249 -1.0546 -0.347131 -0.478649 0.0559863 -0.357171 0.0530386 1.13031 -0.564821 -0.222792 -0.707284 0.0184789 0.328147 0.120039 0.157537 -0.0618099 -0.292919 0.154544 0.118231 -0.6526 -1.46722 -0.494041 -0.366179 1.27646 0.383076 -0.672356 0.0265267 -1.02027 0.148779 -0.398787 0.0995369 -1.7728 0.420068 -0.259181 0.0690378 0.0542055 -0.250408 -0.127473 -0.667713 -0.646263 0.809374 -2.15031 -0.359446 0.164013 -0.176326 -0.288915 -0.2005 -0.0755955 0.100119 -2.70049 -0.303415 -0.927897 0.0385958 -0.721803 0.113364 -0.495656 0.298792 0.662734 -0.652619 -2.61668 0.054156 -0.0909597 -2.23483 -1.47687 -1.05956 -0.0839585 0.0308541 0.0994526 0.0300959 0.0780225 -0.347378 0.170941 -0.290337 -0.384372 -0.0309487 -1.27343 -0.31984 1.29928 1.68984 0.198985 -0.0453017 -0.605446 0.117852 -1.60842 -0.307139 0.0186611 0.0526127 0.621648 0.165715 -0.218473 -1.18649 -0.695396 0.165549 -1.01962 -0.0250373 -0.491944 -0.057198 0.039442 0.0387009 0.19333 1.11753 0.132216 -0.217412 -1.06476 0.45048 -0.188784 0.00503143 0.0955125 -0.75406 -0.581586 0.141694 -3.12261 -0.0346617 0.0472405 -0.102348 0.152881 -1.15694 0.10457 -0.362777 -0.0408376 -0.540386 -0.37476 0.0544921 
row -0.275457 -0.483454 0.224822 -0.0709288 -0.598361 0.0689315 0.0446266 0.0260217 0.0835141 -0.692999 0.377102 0.0757329 -0.467664 -1.05859 0.0188115 -0.959178 0.0270601 0.00334388 0.0831361 0.0994623 -0.0673811 0.103097 0.128438 0.0669562 -0.403502 -0.509419 -1.11291 0.278005 0.0984307 -0.0209033 -0.35843 0.0284354 -0.426507 0.0397224 -0.378528 0.050411 -0.543398 0.00430803 -0.22299 0.0723484 0.102263 -0.29782 0.0301321 -0.898623 -0.938646 0.0289514 -0.925076 -0.763728 -0.161672 0.246287 0.0249537 -0.247543 -0.294021 0.04515 -0.826705 0.116037 -0.0715955 -0.0611171 -0.972302 0.078246 -0.427688 0.164853 0.531612 0.0705114 -0.65709 -0.206288 0.109538 -1.18801 -0.0316512 0.304032 -0.0935325 0.00234864 0.00123266 -0.0253023 0.085943 0.0297113 0.354953 -0.593936 0.0545998 0.00664174 -0.781032 -0.0254264 -1.39446 0.00361017 -0.64038 0.0065578 -0.343451 0.0926056 0.0529134 -0.245213 -0.49409 -0.68615 -0.249963 0.0630691 0.0420373 -0.204033 -0.399715 0.0579154 -1.19674 -0.642858 -0.719362 -0.00816038 0.0504781 0.0954809 0.161031 0.0581016 0.104357 -0.0730283 -0.19888 -0.439807 -0.149758 -0.0253225 0.0330478 0.340166 -0.390132 0.0185596 -0.115916 -0.140131 0.00413583 -0.0301018 0.129524 0.207385 0.10427 0.520463 -0.0194806 0.164769 -1.95056 0.142327 
row -0.357904 -0.055121 0.803138 0.196861 -1.42181 -0.0941934 -0.464496 0.324211 -0.988449 -0.21781 0.772658 0.162369 -0.734115 -2.89766 -0.243964 -2.56493 0.163904 0.216524 0.0783983 0.128781 0.151424 0.575824 0.0992783 0.0235414 0.720216 0.412046 -0.189965 0.57522 -0.894899 -0.422877 -1.57169 0.058941 0.0730527 0.116636 -0.241397 0.0107615 0.574815 -0.240936 -0.487422 0.161374 0.0582988 0.130645 0.426856 -0.489643 -0.170516 -0.354674 0.0188306 0.563439 0.0387495 -0.429831 0.0685236 0.162261 -0.160087 0.0061276 1.43595 -0.662253 -0.534953 0.118434 -0.807875 0.113397 0.368059 0.132228 -1.12437 0.579609 -0.21699 -0.829318 0.709274 -1.08008 -0.711301 -0.355094 -0.101319 0.244391 0.0482131 0.0216677 -0.00975234 0.148131 -0.5287 -0.271141 -0.288185 -0.186769 -0.143813 -0.308249 -0.347601 0.659724 -0.523114 0.278945 0.456317 0.0201497 -0.463638 -1.81299 0.0749898 -0.219958 -1.24158 0.0453193 -0.00861175 -0.508929 0.0575704 0.0234202 3.0666 -0.0692757 -0.326468 0.447851 0.149205 0.322826 0.132222 0.417068 -0.0197956 0.33588 -3.53587 0.0821926 5.5727 0.0540148 -0.0421957 -0.701783 -0.485956 0.106182 3.05208 -1.13374 0.0108626 0.450855 0.0549012 -0.929899 0.222046 0.378866 -0.560514 -2.75071 -1.94683 -0.0730249 
row -0.412585 -1.54419 -1.2699 -0.619693 -3.90109 -1.26199 -0.425061 -0.0143745 -1.88073 -4.05394 -1.70092 -0.180936 7.21033 0.530846 0.116886 -0.0374788 0.129878 -0.806403 0.0518861 -0.774182 0.112307 -0.227993 0.0822361 0.0618982 -0.761039 4.96511 4.64133 -1.77334 -4.6263 1.74926 -0.211604 -0.214977 0.224266 0.0655584 -0.632118 -0.00592208 -1.39601 -2.11178 0.655762 0.128371 0.0891038 -3.47528 0.0439176 0.534012 1.0665 1.09141 0.719652 -0.202755 0.0947794 -0.184967 -1.17395 -1.04836 2.41606 0.0211431 -3.52723 -0.0461682 -0.972602 -1.13407 7.2962 0.0927345 -0.612824 0.201831 -3.03174 0.837595 5.06817 1.38524 -0.338504 -3.28719 -1.03689 1.286 2.83523 0.0463581 -0.11768 -0.0988165 -1.63563 -0.0434836 -5.34092 0.269301 0.195472 1.95807 -3.1179 -0.816195 0.60065 -1.86824 1.6999 0.0466752 0.962299 0.0646392 -1.30249 1.2851 -4.02395 -2.13704 1.44322 0.104059 -0.134764 0.634462 4.30967 0.0569177 -0.456669 -0.486816 4.78293 -0.0452415 0.160211 0.106284 -0.124567 -0.786641 -0.0145252 -0.356581 3.97073 0.265153 -0.506799 -1.79264 -0.193448 0.717232 0.220509 0.0791916 0.782145 0.839001 -0.0970727 -0.00753351 0.0545733 0.239535 0.04257 -2.21673 -0.519169 -0.487013 0.224164 0.192339 
row 1.19555 -0.291313 -0.44058 0.136975 0.624707 0.0383109 0.110902 -0.227153 -0.400097 0.274624 -0.242516 0.0587599 0.638183 -0.9265 -0.0167843 -1.20612 0.0655549 -0.0461146 0.111922 0.0802866 -0.0318855 -0.104065 0.101912 0.0510061 -0.13205 0.482113 0.728281 -0.387266 0.142793 0.247042 -2.50106 0.0190645 -0.0847389 0.080927 -0.219557 0.0852371 0.475965 0.12313 0.0720638 0.0681849 0.0761154 -0.043878 0.0179248 0.116783 -0.0187467 -0.148513 -0.136755 -0.925103 -0.0253641 0.320785 -2.78311 -0.929273 0.257287 0.14444 -0.709089 0.138905 -0.00712099 0.17119 0.405838 0.0795721 -0.0992942 0.298193 0.284897 -0.200236 0.209782 -0.128649 0.00764919 -3.41942 0.467957 0.043246 0.12203 -0.000923838 0.0942191 0.000193605 0.138214 -0.007553 0.135905 -0.0687078 -0.0107274 0.17518 -1.6568 0.0148114 -1.09369 0.665146 0.355152 -0.0518513 -0.212065 0.0687238 0.055569 -0.996407 0.158051 -1.57507 -0.0134397 0.13581 0.0352045 0.197939 -0.0581063 0.0758153 -1.32632 -2.04018 -0.172124 -0.0930242 0.0614825 0.0182353 0.152309 0.287176 0.0837765 0.0603939 0.624504 -0.349888 -1.68365 0.00517743 0.099491 -0.465702 -0.209835 0.0911134 -0.887655 0.0288399 0.0737919 -0.0433018 0.0996919 -0.0241005 0.0239128 -0.093278 0.50615 -0.580819 0.147917 0.0625153 
row -0.440315 -0.237549 0.116558 -0.147512 0.0233339 -0.364177 -0.2067 -0.0387105 -0.83707 0.61137 0.662092 0.147277 -0.895191 -0.892146 -0.20378 -1.07558 -0.00245423 0.318767 -0.0390639 -0.23326 -0.143519 -0.0893933 -0.0224282 -0.0500141 -0.356438 1.02159 -0.111009 0.416513 -0.780692 -0.443258 -0.645489 0.132057 -0.0650591 0.0241675 -0.473417 0.0747303 0.216032 0.600833 -0.682355 0.0315458 0.0421309 -1.20334 -0.0814036 -1.08935 -0.793244 -0.65079 -0.352542 -0.37924 -0.15113 -1.54742 1.59658 0.0663706 -0.387018 0.0014899 0.54975 -0.785053 0.974417 -0.408959 -1.5879 0.136309 -0.260374 0.645527 -1.24214 0.702913 -2.02604 -0.908652 -0.124853 1.6524 0.0589073 -1.0753 -0.816909 -0.0704128 -0.0321604 0.0600686 -0.753384 -0.23463 0.528243 -0.587927 0.1968 -0.470216 -0.504283 0.243951 -0.54741 1.12593 -1.26865 -0.12039 -1.10225 -0.00203165 0.514387 0.0161695 -0.0707512 -0.29881 -0.786623 -0.0582295 -0.000312129 0.94288 -1.52739 0.157543 1.9377 2.27979 0.138468 -0.0497434 0.138303 -0.0139232 0.232999 0.597481 0.120286 0.105554 -1.92325 0.14864 -0.433847 -0.0445046 0.200792 -0.216407 -0.423486 -0.0775063 1.93522 -1.09018 0.0230877 -0.111641 0.109669 -0.0872309 -0.0353477 -0.360909 -0.143556 -1.27203 -1.18852 -0.0503492 
row -0.628305 0.471969 -0.529048 -0.722608 -0.768652 0.0513433 -0.0118516 0.0140596 -0.188157 -0.928494 -0.652279 0.104402 -0.370103 -0.210964 0.0382859 -0.0766062 0.132371 -0.128273 0.173914 0.0862665 0.112495 0.0416576 0.167736 0.11433 -0.191305 0.133624 0.959948 -0.504671 0.268456 -0.00895961 -2.0407 0.0625115 -0.0785423 0.0921395 -0.291857 0.105714 -1.64198 -0.0937523 0.110314 0.0896209 0.0866329 -0.387026 0.106413 -0.640403 -0.895786 0.271863 -0.446654 0.178679 0.037398 -0.691672 -1.27337 -0.281485 0.797923 0.0799054 0.646877 0.717448 -0.423459 0.0998802 -0.473729 0.0336703 -0.333294 -0.0816471 0.399611 0.435621 0.520727 -0.325011 0.0818389 -2.1955 -0.346723 -0.0687502 -0.227778 0.0709736 0.116195 0.138484 -0.0124581 -0.173459 0.279494 -0.640412 -0.343555 0.303384 -0.38813 -0.494527 0.214392 -1.16307 0.30842 0.0701939 0.392552 0.0882341 -1.24893 -0.968124 -0.061125 0.175084 -0.166154 0.156123 0.156655 -0.118085 0.192668 0.0724855 -0.280531 -0.854295 0.416746 0.0522558 0.0380936 0.117889 0.186349 0.114059 0.0320037 -0.0242765 -1.03927 0.013656 0.0261006 0.39667 0.00858961 0.38236 -0.164699 0.176151 -0.441691 0.461303 0.0807499 0.152226 0.0247194 0.22569 0.135601 0.588404 -0.42867 0.119436 -0.307869 0.075823 
row -6.29796 -2.54358 2.53353 -5.7405 -5.73311 -0.61261 -3.32931 0.0662835 2.15902 -6.7281 3.87199 0.0962353 -0.705295 -3.00428 -1.26541 -6.43722 0.178138 3.3043 0.136531 -0.43129 0.00244207 0.0978038 0.104564 0.126716 -0.444541 -4.26735 -2.0792 2.66019 -4.99342 -0.928171 -2.94562 0.0698751 -4.86761 0.125387 -6.71189 0.135237 -0.910929 2.18849 -2.85489 0.114867 0.10678 -4.14514 0.408017 -4.73613 -4.437 -1.23065 -4.51667 2.31588 0.23979 -4.59411 -3.79255 2.24408 -0.810763 0.153701 -1.05906 -2.33326 -3.09597 -0.159235 -1.6471 0.0724451 -3.53827 -0.306318 -6.07006 3.34915 3.70298 -3.78951 0.0584983 -3.77604 -4.01595 -3.52187 -3.12437 0.275321 0.0830473 0.0883261 -0.577392 -1.53725 -6.34155 -1.50494 -0.359927 -0.603497 -5.45988 -4.29399 -3.04772 -9.12895 -1.35953 0.183777 1.37177 0.149642 -5.15145 -0.468782 -4.80068 -2.98063 2.16549 0.185504 0.0135007 -3.38001 -2.74958 0.0677119 -2.51654 -4.01681 -0.808446 0.277473 0.173329 0.213784 -0.00183242 -3.36344 0.0115513 -0.299704 1.95185 -0.0595308 -2.99897 -1.29784 -0.0521842 -1.966 0.52203 0.181509 -2.02371 -3.84387 0.0723864 0.46011 0.0292474 -1.83266 0.261254 -6.28609 0.759221 -2.3248 -4.54073 0.081253 
row 5.14174 -0.102238 -1.09293 -0.26662 0.583889 -0.0373389 0.329074 -0.216686 -1.242 0.212523 -0.357261 0.0989606 -0.155117 0.364268 0.179006 -0.0914402 0.0370812 -0.0814868 -0.0121228 -0.142164 -0.0884927 -0.256199 0.0600316 -0.00405168 -0.103313 1.01771 0.400453 0.125332 -0.116653 0.442368 -1.31541 0.0326013 -0.514984 0.0298762 -0.0348668 0.0326969 -1.6014 0.0989992 -0.397033 0.0366943 -0.00600729 0.47812 -0.142885 -0.727525 -0.413697 0.38998 -0.487823 -0.290142 -0.0720648 -0.470111 -0.752479 -0.0364771 -0.530253 0.00938728 -0.807657 -0.172634 -1.31071 -0.161776 2.05415 0.0635315 0.370733 -0.192011 -0.410393 -0.296123 -1.75894 0.0544303 -0.468974 -0.552425 -0.525753 -0.417083 -1.12326 -0.0996848 -0.0415235 0.0202511 -0.274147 -0.180677 -0.453563 -0.414498 -0.404154 -0.189613 -0.578954 -0.370613 -0.199192 -0.254872 0.403891 0.016967 -0.297057 0.0247681 -3.03513 -0.375665 -0.184913 -0.74399 0.457588 0.0360958 0.0339077 -0.603801 -0.780383 0.187549 -0.266599 -0.445347 -0.441399 -0.163384 0.0652136 -0.095359 0.129684 -0.272173 0.187028 -0.0956496 -2.54318 0.206534 -0.86085 -0.0811893 0.205664 -0.470716 0.187826 -0.000382595 0.0902719 -0.387511 0.00792497 -0.257941 0.145812 0.507658 -0.0517078 -0.545177 2.77906 0.143002 -0.73483 0.14967 
row 0.377231 -0.0520181 -1.18915 0.120951 -1.1937 -0.162679 -0.0251871 0.156885 0.25074 0.516076 0.466115 0.159942 -0.763011 -0.318594 -0.173679 -0.41812 0.138546 0.199565 0.062848 -0.0553916 0.161517 0.0364349 0.0803255 0.0915847 0.134853 -0.56973 -0.443478 -0.106273 -0.101037 -0.277214 -1.72738 0.135358 -0.19905 0.0349463 -0.173318 0.0879312 -1.27577 -0.11051 -0.43463 0.154338 0.0346092 0.0533797 0.171625 -0.794419 -0.489454 -0.443913 -0.176687 0.268579 0.0755302 0.304141 -0.749225 -0.124047 -0.11244 0.078062 0.0417706 -0.415257 -0.223741 -0.145568 0.8324 0.156838 0.330624 0.0191432 -0.155224 -0.080783 -1.73849 0.0343716 0.0818949 -0.152477 -0.390801 -0.416162 -0.436986 0.157602 -0.0538125 0.0564394 -0.225819 -0.0277905 0.269746 -0.528465 -0.0690495 -0.405716 -0.394445 -0.152146 -0.445611 -0.288523 -0.234335 0.0438309 -0.506368 -0.0102053 -0.975372 0.432726 -0.292729 -0.160313 -0.938081 0.0487812 -0.0291889 -0.780722 0.14065 0.0599141 -0.294917 -0.0743428 -0.392475 0.236406 0.181359 0.160077 0.225288 -0.194449 0.0446302 0.154511 -1.52597 -0.150872 -0.653646 0.157982 0.0184502 0.0381457 0.460375 0.121132 0.391344 -0.825132 0.0510664 0.284608 0.0963393 -0.275574 0.146931 0.0490775 0.238004 0.126671 -0.400992 -0.0261935 
row -2.70978 3.2781 -0.456738 -0.0177672 -2.19679 0.682764 0.837197 1.32932 -0.665331 0.473827 -0.713431 -0.0407383 -0.0179992 -0.374624 -0.0500748 -1.63794 0.131703 1.29663 0.174867 0.602991 0.726772 1.34927 0.078705 0.150481 1.55249 -1.94855 -0.871974 -0.330042 -0.679024 -0.18898 0.438599 0.0905712 -0.142272 0.122125 -0.682362 0.012951 -2.89735 -0.622032 -0.406935 0.140268 0.118554 0.372404 0.651708 0.0766895 -0.824228 -1.2083 -0.930561 1.09903 0.614491 0.903323 -1.05119 -0.21125 -0.323976 0.0605862 -0.441921 -0.243791 -0.166545 0.476441 -0.446372 0.104119 1.21005 -0.284325 0.84954 1.29013 -1.41119 -1.99624 1.35755 -0.756451 1.01972 -1.00614 -0.0927898 0.502807 0.07236 0.0520491 0.517055 1.98301 -0.354784 -0.674742 0.0629005 -0.664987 -0.0934967 -0.155093 0.0907216 -1.83228 -0.168274 0.562902 4.15095 0.146303 1.41512 -0.0306484 -0.89774 -0.24543 -0.516849 0.104319 0.128634 0.817537 -0.26297 -0.0548707 -0.697657 -1.36942 -0.397882 0.851524 0.126661 0.366214 -0.0141035 -0.512366 -0.130943 0.581373 -0.172923 0.46233 -1.84429 2.43052 -0.115695 -0.295114 -0.6246 0.188142 -0.589459 -0.424222 0.124929 0.655306 0.0303744 0.626604 0.193029 1.59994 3.41924 -1.02238 0.188763 0.251805 
row -1.98511 0.415929 -0.654779 0.11738 -0.199979 -0.273367 -0.454945 0.129993 -0.768264 -1.26381 -0.240519 0.104458 -0.8869 -1.62447 -0.0770648 -1.32426 0.0472564 -0.347272 0.150252 -0.0766027 0.133016 0.100746 0.118269 0.0808847 -0.0909105 -0.653484 -0.0857948 -0.322341 -0.364822 -0.552563 -1.65727 0.14117 -0.640381 0.121358 -0.945549 0.0249397 -1.70139 -0.176722 0.296932 0.0900124 0.0359953 -0.593326 0.122159 -2.16143 -0.941461 -0.588805 -0.575217 -0.0569864 0.125448 -0.134514 -0.388795 -0.296703 -0.133753 0.133709 0.0581449 0.302632 -0.611069 -0.166885 -0.226969 0.114038 -0.124528 -0.0856516 -0.149812 -0.480292 -0.860471 -1.75754 0.0526564 4.23379 -0.851305 -0.00926748 -0.405712 0.151362 0.0961278 0.127736 -0.240225 0.198683 0.314378 -0.0230692 -0.213992 -0.194838 6.13715 -0.151205 1.24068 -1.06182 -0.302595 0.117616 -0.353159 0.0668457 -0.97353 -0.7147 0.488137 3.5754 -0.886754 0.0477136 0.0888595 -0.81186 -0.00736123 0.00175974 -0.989849 -0.98289 -0.607305 0.181133 0.0325426 0.148377 0.172337 -0.462131 -0.0363471 0.299299 -2.31784 -0.0153937 -0.678446 0.733072 0.096053 -0.0907878 -0.188561 0.114767 -1.23302 -0.909472 0.115644 0.234611 0.0778236 -0.00738726 0.156386 -1.13388 -0.475883 -0.494941 -1.10805 -0.0211524 
row 0.0360933 -0.245052 -0.0047051 0.105303 -0.523923 0.03975 0.0645699 -0.134087 -0.554272 -0.0203478 0.0904162 0.233619 -0.699329 -0.415189 0.0100769 -2.19288 -0.0329598 0.184962 -0.0213018 -0.0326179 -0.08946 -0.302065 -0.040906 -0.0850996 -0.0559575 -0.277973 -0.315997 0.00717916 -1.01354 0.0497504 -0.65028 0.182685 -0.587998 -0.0564259 -0.0259105 0.0346384 -0.171854 -0.236506 0.0152185 0.0221719 -0.0465267 -0.154086 -0.330701 -0.136484 -0.824622 -0.189067 -0.485226 0.107246 -0.0475269 0.145722 0.278405 -0.0179608 -0.383277 0.0278141 1.37825 0.148572 -0.145692 0.00241463 -0.220108 0.0723031 0.0410253 0.16671 0.567758 -0.0528308 -0.251375 0.045268 -0.3749 -0.991427 -0.439016 -0.538351 -0.211911 -0.259169 0.0723061 0.120477 0.0334319 0.0239856 -0.139011 -0.55004 0.0189882 0.15648 -0.161159 -0.341113 -0.4245 -0.307943 -0.186791 -0.20792 -1.90792 -0.030036 -0.326176 -0.8757 -0.202821 -0.262238 -0.489361 -0.00405249 0.0892437 -0.111837 -0.331103 0.157135 0.861543 -0.338134 -0.330125 -0.279883 0.0405812 -0.212991 0.164044 -0.00849199 0.159627 0.215217 -0.88907 0.019507 1.67541 0.00648124 0.328347 -0.392671 -0.0528518 -0.119638 1.74627 -0.396331 0.0574829 -0.283006 0.105721 -0.00360051 -0.138019 0.23859 -1.70289 0.163481 0.143466 -0.0321015 
row -2.34723 -2.64799 2.10668 -0.656665 -5.70791 -0.0760967 -2.16425 0.179805 3.65096 -7.88456 2.20142 0.0520451 -4.32209 -2.52339 -0.565046 -7.90927 0.159715 1.58327 0.117793 -0.185985 0.0227348 0.236839 0.134122 0.13166 -0.634166 -5.56288 -4.43318 1.16387 -6.97799 -1.30081 -1.48507 0.0627628 -6.92969 0.109579 -0.699986 0.0518455 1.92292 1.12706 -6.48743 0.0930064 0.115608 -4.13828 0.417352 -3.67199 -5.52164 -2.20385 -3.82745 -0.32455 0.249888 -1.69776 -0.104088 -0.693097 -1.9015 0.144578 0.0318062 -3.38299 -4.57865 0.0862896 -3.08596 0.171486 -1.22379 -0.290919 -7.47927 -0.779223 -3.19657 -5.02581 0.254606 -7.07421 -5.6728 -4.00129 -3.38537 0.32978 0.103458 0.0580351 -0.0769559 -2.1339 -6.71419 -1.39317 0.346023 -1.00628 -4.52026 0.367293 -2.64797 -8.19359 -4.19899 0.143631 1.16619 0.140922 -0.65468 -0.995557 -2.65926 -0.155842 -0.757453 0.162335 0.356658 -0.285853 -5.55545 0.0107088 -2.90888 -3.48856 -1.11372 0.351045 0.129641 0.244366 0.0153259 -2.27491 0.040076 -0.00107041 -4.46151 -0.473835 -2.82671 -0.643095 -0.162645 -3.16821 -3.94373 0.218795 -2.50377 -2.76683 0.0740846 0.489708 0.0394221 -1.01201 0.229041 -5.12984 0.149098 -2.0175 -5.03463 0.255929 
row -0.147919 -0.167808 0.253541 -0.617903 -0.555214 -0.128446 -0.59721 0.375327 -0.359373 0.165421 0.290315 0.106836 -0.755434 -0.944036 -0.233021 -2.44869 0.11005 0.105765 0.104891 0.0470456 0.160419 0.526881 0.0360044 0.0643281 0.211902 -1.16906 -0.974083 -0.0638036 -0.968508 -0.90142 -0.251413 0.0104729 0.265812 0.0430481 -0.0603291 0.0746177 -1.90812 -0.315845 -0.567292 0.16781 0.0161035 -0.205446 0.441909 -0.258459 0.0401454 -1.73381 -0.699228 0.296201 0.0787535 -0.565195 -0.318136 0.148342 -0.498616 0.0016144 2.00805 -0.49741 -0.0135366 -0.147603 -1.10522 0.164964 0.21509 0.00335668 -0.160876 0.62661 -0.333931 -0.172901 0.739938 0.609935 -0.508216 -2.02688 0.00512663 0.286298 0.0272984 0.0271896 -0.30264 0.163976 -0.336271 -0.0330107 -0.190299 -0.444625 -0.543512 -0.130698 -0.108501 -0.0359113 -0.548885 0.185246 1.03618 0.0685014 -0.557011 0.563599 0.184261 -0.226869 -1.53632 0.0579016 -0.319284 -0.699696 -0.130909 -0.028415 2.51967 0.355057 -1.00836 0.457504 0.148191 0.357578 0.170496 -0.0519916 -0.0459813 -0.324251 -1.27273 -0.0248047 -0.444302 -0.348413 0.0133628 0.0116739 -0.120066 0.0684118 2.3209 -1.00129 0.0020833 0.493339 -0.0262553 -0.250837 0.185903 -0.825431 -0.171486 -0.610007 -1.96492 -0.0183172 
row -0.154322 0.228372 0.0161026 -0.0223311 -0.158804 -0.0139813 0.238569 -0.0780997 -0.057259 -0.817264 0.280331 0.0747478 -0.820488 -1.11881 0.0644551 -0.578303 0.085157 0.178299 0.0505934 0.0685742 0.0135194 -0.129048 0.100284 0.0628357 -0.0417565 -0.204459 -0.299131 -0.142608 0.3263 -0.0321083 0.535745 0.144677 -0.0627244 0.0482635 -0.255761 0.0795419 -0.137626 0.124555 -0.246061 0.0828273 0.0151996 -0.00836837 -0.114852 -0.301998 -1.49595 -0.0679881 -0.793314 -0.134773 -0.0201356 -0.040148 -1.14396 -0.227767 -0.321392 0.0450441 -0.160171 -0.1216 -0.0160503 -0.0933248 0.232962 0.103059 -0.0768887 0.11761 0.136038 -0.567256 -0.179856 -0.120433 -0.281204 -0.735464 0.256411 0.0221649 -0.331617 -0.00534376 0.0686085 0.0611283 -0.0180544 0.10191 0.273775 0.0405574 0.0424197 -0.383315 -0.127338 0.122644 -0.248262 0.19549 0.639518 -0.0343666 -1.05223 0.0506901 -0.326433 -0.546289 -0.355199 -1.15983 -0.676242 0.015556 -0.0283868 -1.84146 -1.15331 0.0958045 -1.33293 -0.229123 -0.14801 -0.0931971 0.0392672 0.0327286 0.141997 -0.123617 0.142504 0.00366172 2.1785 -0.105581 0.0182234 0.00393065 0.100313 0.0622364 -0.117083 0.0851248 -0.350079 -2.2157 0.0596559 -0.107851 0.113536 0.0245868 0.0163167 -0.0677702 -0.75529 -0.212329 -0.0671614 0.118257 
row -3.87251 -1.4521 0.909829 -4.13529 -3.75593 -0.705034 -2.20191 0.218049 1.39481 -4.5077 0.463504 0.069881 -2.50427 -3.44755 0.338307 -4.40906 0.130537 0.051935 0.216381 -0.498375 0.120624 0.10857 0.14555 0.193235 -0.267826 -2.77796 -2.37514 -0.488272 -2.75579 1.77941 -1.59657 0.0707045 -3.92773 0.159657 -5.07326 0.118565 0.0440117 0.228713 0.0752546 0.0881562 0.0760408 -2.35136 0.308176 -2.25103 -3.03041 2.12329 -2.49439 0.703929 0.383367 -3.35766 -1.90245 1.67816 0.794834 0.167191 0.439267 -2.26154 -2.84932 -0.403435 -2.60343 0.0614128 -2.04984 -0.236283 -3.18928 2.91881 -2.26821 -3.04633 0.288795 -1.79548 -1.78047 -1.1141 -3.15552 0.276176 0.155937 0.0922269 -0.6481 -0.0516093 -4.39382 -1.76397 0.26543 1.4251 -4.2348 0.770341 -2.32474 -3.33533 0.183488 0.197003 1.90635 0.154004 -4.30918 -0.571657 -2.00999 -2.64208 2.0911 0.220467 0.197017 -2.57689 -3.25939 -0.0450172 -1.63444 -1.42716 0.314553 0.318212 0.150893 0.165901 0.0947855 -1.3096 0.0254886 0.133791 -2.17152 -0.557005 -1.46862 -2.67356 -0.0352859 -0.237851 -1.13942 0.236383 -1.35438 -1.42404 0.149029 0.301651 0.0561463 1.48174 0.220675 -3.97247 0.21496 -1.22776 -3.29531 0.228654 
row -0.0687653 -0.312097 -0.298259 -0.104999 -0.422159 -0.0486071 -0.107315 -0.1737 -0.519517 -1.57778 -0.197166 0.150727 -0.551043 1.90772 0.12345 -0.590633 0.0331662 -0.229934 0.106153 -0.0633814 0.0385708 -0.211363 0.00752757 0.099126 -0.12832 -0.283206 0.104506 -0.024174 -0.810084 -0.774549 2.71433 0.171898 -0.307184 0.00954506 -0.370365 0.085103 -0.603678 0.0918407 0.784707 0.0970724 0.05452 -0.821724 -0.138179 -0.303635 -0.126691 -0.413652 -0.114344 0.131985 0.0318733 -0.112908 -0.0989738 -0.118451 -0.518413 0.147749 1.39329 0.104507 -0.836578 0.0862684 0.743228 0.0807511 -0.154454 0.0404346 -0.496256 -0.576225 -0.706839 3.61258 -0.338349 -0.147707 -0.188947 0.340123 -0.355826 -0.00956057 0.0547499 0.134507 0.0121336 0.0260361 -0.639201 -0.0491295 -0.0823522 -0.268011 -0.265509 0.194051 -0.311557 -0.372587 -1.07727 -0.0221958 -0.684227 0.0549129 -0.549335 -0.834066 -0.372856 -0.284345 -1.02437 0.0405538 0.133135 -0.371963 -0.553831 0.0399491 -0.657692 -0.0505387 -0.471899 -0.113885 -0.0159269 0.0154292 0.144879 -0.34372 0.0456524 0.171931 -0.604371 -0.0823492 1.655 -0.208423 0.175717 0.132724 -0.196812 0.105557 -1.45681 4.7368 0.0629871 -0.0477782 0.0551763 0.545866 0.0581308 -1.50768 -0.0656995 1.49041 -0.286708 0.0575252 
row 0.559793 0.00896532 -0.159711 -0.0468542 -0.120603 -0.206741 -0.0732067 0.0142326 -0.920884 -0.257867 -0.150399 0.142861 -0.735503 -0.119083 0.0415765 -0.036397 0.0798888 0.0690557 0.0613243 -0.109956 0.0414338 0.122113 0.0664842 0.0589352 0.082728 -0.636913 -0.284103 0.327192 -0.553062 -0.661376 -0.203564 0.151015 0.0638384 0.0853159 0.159926 0.036305 -0.778355 0.163114 0.326621 0.078764 0.0579967 -0.0856529 0.13182 -0.197234 -0.114363 -0.554551 -0.250902 0.261649 0.00864358 0.154906 -0.746512 0.0104029 -0.029332 0.0550336 0.121621 -0.00308847 -0.0835101 -0.00465715 0.158611 0.11906 -0.06638 0.0504465 -0.0250227 -0.570398 -0.201324 -0.497044 0.135589 0.00190512 0.0956779 -0.534581 -0.443067 0.10178 0.0761313 0.115937 -0.0365331 0.206624 -0.232486 -0.299578 0.0982923 -0.0673511 0.0249289 0.103916 -0.424112 -0.426814 -0.087157 0.0896942 -0.630525 0.0138985 0.168006 -0.421598 -0.273982 0.208774 -0.907125 0.0455931 0.0456496 -0.542284 -0.430694 0.0378005 0.0274604 0.340064 -0.46039 0.0856616 0.145619 0.103957 0.114012 0.0226882 0.02618 0.232707 -1.29824 -0.434453 0.0162977 0.0546404 0.126035 -0.0994624 -0.0950923 0.088848 -0.232022 0.969123 -0.00113234 0.138436 0.108884 0.235555 0.151704 -0.201944 -0.951718 0.117443 0.461593 0.0368038 
row -4.7232 1.12186 -0.841319 -0.322686 -1.74804 -0.00874768 0.671941 0.647713 -0.209527 1.518 0.676128 0.126404 -0.148807 -0.129058 -0.120403 -2.66724 0.124008 0.105508 0.070947 -0.102167 0.288968 0.684793 0.0706064 0.0755958 0.636214 -1.24459 -1.28268 0.0640703 -0.295199 -1.11023 -0.26262 0.0638071 -0.478133 0.132893 -0.0820402 0.050185 -3.21111 0.310788 -0.67221 0.108482 0.107544 -1.67034 0.39977 -0.58364 -0.0900869 -1.21211 -0.696439 1.01584 0.256964 -0.000976751 -0.206432 1.23193 -0.344455 0.0260075 0.218431 -0.470606 0.549664 -0.160072 -2.08725 0.149466 -0.132448 0.0865327 1.02284 2.29547 -2.14023 -0.476637 0.76021 -0.114639 0.411092 -0.782806 -0.924888 0.34169 -0.0358755 0.0695602 -0.055448 0.781705 -1.04268 -0.294235 -0.18583 -0.710236 -0.373847 0.312201 -0.453851 0.154857 -0.925241 0.286497 1.1037 0.039294 -0.821191 -0.914989 -0.93544 0.737581 -1.66616 0.0809188 -0.101159 -0.721604 -0.276902 -0.0086707 -0.124049 -0.893824 -0.847167 0.450624 0.0894624 0.272638 0.175125 0.605486 0.00184166 0.00994017 -0.568756 -0.0665316 -0.609832 1.06451 -0.0367746 0.117575 -0.249076 0.147647 3.19947 -0.112092 0.0127213 0.453397 0.0637163 -0.318845 0.238848 0.868498 1.16166 0.200376 0.912268 0.0307063 
row 0.231631 -0.166179 -0.0946339 -0.076508 0.0268959 -0.00529196 -0.238935 -0.193145 0.20728 -0.687299 0.0257796 0.0562648 -0.227716 -0.981802 0.0209985 -0.302383 0.0797373 0.0885936 0.115471 -0.0821392 -0.0168531 -0.0429351 0.0737724 0.108946 -0.155598 0.0087617 -0.323104 -0.0667782 0.273299 -0.0259617 -0.0372941 0.102263 -0.247197 0.0260689 0.0907526 0.032107 0.283818 0.156127 -0.0902646 0.0299927 0.0625095 -0.0668339 -0.0213995 -0.414807 -0.69108 -0.17878 -0.643022 -0.0878249 -0.0491219 -0.13743 0.020038 -0.869761 -0.33206 0.0491195 -0.295032 -0.116909 -0.645168 0.0122979 0.0749445 0.0841346 -0.0755488 0.337664 0.131069 0.00689818 -0.343074 -0.170715 -0.0458964 -1.86063 0.484771 0.070538 0.162707 -0.0080555 0.0439671 0.0799628 -0.196219 -0.15377 0.426143 -0.0622237 0.0111354 -0.250117 0.0421904 0.00869036 -0.662095 -0.143663 -0.234783 0.0498462 -0.367578 0.0768842 0.193134 -0.590349 0.160724 -0.638403 -0.20097 0.110652 0.0984377 0.0430629 -0.207974 0.0342904 -0.555752 -0.637423 -0.512468 -0.0427205 0.0848185 0.0570481 0.159177 0.0158602 0.0768651 0.0808675 0.211279 -0.263075 -0.488346 -0.251564 0.0417482 -0.309832 -0.0601223 0.115161 -0.171528 0.0127582 0.101841 -0.0210116 0.0482451 -0.140915 0.117322 0.340429 0.0523338 -0.122183 -0.434251 0.108443 
row 0.03427 -0.862033 -0.794141 0.00803147 -0.69711 0.00324794 -0.109041 0.0483397 -1.20855 -1.63914 0.387136 0.124154 -0.00153828 1.80794 0.105315 -1.74544 0.0252527 0.0999421 0.0269003 -0.198391 0.0809704 -0.107805 0.0724217 0.0469021 0.100846 -0.0248662 -0.500468 -0.118291 -0.827526 -0.523889 -0.773794 0.146532 -0.631815 0.0660343 -0.234467 0.0529969 -1.10003 -0.322831 -0.113848 0.122513 0.0220486 -0.353422 0.0224353 0.13283 -0.483918 0.0141206 -0.512714 1.19181 0.127857 -0.00506019 -0.105096 -0.246363 -0.322082 0.0689665 2.15902 0.381558 -0.914522 -0.0247782 -0.0644343 0.0384335 0.101263 0.0248287 -1.23426 0.486594 -2.56267 1.95466 -0.094609 -0.623032 -0.499603 -0.00815831 0.0759804 0.0180447 0.0885556 0.0745604 -0.00649348 0.0370904 -1.28159 -0.416569 -0.258804 -0.252537 0.250774 -0.251829 -0.893196 -0.590055 -0.315284 0.00681306 0.172704 0.031534 -0.982572 -0.354988 -0.237304 -0.260711 -0.205411 0.0896251 -0.0268378 -0.206639 -0.411428 0.0218552 0.037843 -0.0630572 -0.0815338 0.0581286 0.0372981 0.0880628 0.126087 -0.447293 0.01773 -0.0129889 -1.01033 -0.115589 1.08116 -0.144176 0.0980006 0.370843 -0.734022 0.0413606 -0.336757 -0.696366 0.0397939 0.0377677 -0.0175041 -0.119282 0.0993256 -1.31191 -0.118875 0.620238 -0.189528 -0.00511344 
row -1.35439 0.926518 -0.45328 -1.38815 -0.505871 2.55364 -0.113443 -0.0651311 -3.70927 0.016974 -0.146822 0.233351 -0.977027 -0.231101 -0.133695 -2.23102 0.00526563 -0.171453 -0.0368091 1.49016 -0.131985 -0.339223 0.00703689 -0.00489399 -0.170049 -0.523576 1.80769 0.211705 -2.40318 2.63044 -0.0166223 0.138365 -0.771806 -0.0125453 -0.0421836 0.0714056 -2.36477 0.26299 0.280584 0.0262239 -0.0537749 0.125677 -0.239021 -0.600929 -0.213917 3.13815 -1.05119 0.226225 -0.130121 -1.35693 0.0586308 -0.186007 1.17234 0.0129489 -0.373782 -1.51775 -1.33719 1.89541 -0.31478 0.0636985 0.194881 -0.0145235 -0.215224 -3.00106 -1.60992 0.0624813 -0.0746838 -0.532798 -0.759704 -2.5602 1.79891 -0.106178 -0.0336838 0.12392 3.54271 -0.426018 -0.903584 -0.990186 0.0814455 1.96785 -1.6169 -0.419468 -0.0217795 0.907277 3.74671 -0.0923994 -1.67283 -0.024489 -4.92023 -1.37728 2.52161 -1.56783 2.09623 -0.0280727 -0.0848884 -0.957551 -1.1561 0.180295 -0.339987 -1.19933 3.32037 -0.177381 0.131812 -0.143573 0.176918 -0.401344 0.130217 0.218979 -2.62933 0.0177605 -0.799304 -0.0233648 0.434114 0.569242 -1.5492 -0.10248 -0.318676 -0.672031 0.00549399 -0.235806 0.117178 -0.520058 -0.0920413 0.0213981 -0.602927 -0.235617 -0.540406 0.0849754 
row 0.153724 -0.0355489 -1.11943 0.348279 0.0977356 0.381689 0.12693 -0.369319 -0.682836 -0.833883 -0.216742 0.114534 -1.06512 0.399256 -0.0127027 -0.161911 -0.0217003 -0.0726391 0.0317509 0.184876 -0.0800497 -0.377763 0.0896274 0.0884637 0.0327153 0.180838 0.633444 -0.135407 0.176187 0.178041 -0.88381 0.0769037 0.229538 0.0647711 0.131687 0.0438073 0.127301 -0.580632 -0.218609 0.057958 0.0767292 -0.0879102 -0.182248 -0.82376 -0.249138 0.26605 -0.77447 -0.283265 -0.105253 0.0809168 0.194929 -0.412689 -0.318356 0.121839 -0.288192 0.0930416 0.171496 0.511726 -1.31062 0.0404689 -0.325938 0.250531 -0.127488 0.619245 0.615527 0.233047 -0.473406 -0.126885 -0.403592 0.0187069 0.322631 -0.140097 0.158145 0.0967981 0.650579 -0.293141 0.0199628 -0.176214 0.0823308 0.108219 0.10365 -0.163365 0.0405988 -0.0758069 0.327587 -0.0857947 -0.179356 0.0859924 -0.0710951 -1.1845 0.384057 -0.499241 0.234084 0.0383181 0.0488565 -1.57624 -0.564776 0.143209 0.0627579 0.0440877 0.0301166 -0.281967 -0.00682917 -0.101744 0.214443 0.539813 0.165144 -0.0821673 -0.806022 -0.0245481 -0.0316927 -0.610455 0.149707 0.0797065 -0.71639 0.0575415 -0.422291 -1.81558 0.0570724 -0.137067 0.127588 0.372204 0.0358495 0.191739 -1.47894 -0.251123 0.0574831 0.159096 
row -0.834661 -0.140381 -0.152696 -0.385972 -1.34783 0.220322 0.0262576 1.08008 -0.486961 -0.00549536 0.109596 0.10628 -0.53167 0.288056 -0.144911 -1.02628 0.116585 -0.150946 0.0819939 0.0895312 0.497492 1.31994 0.144455 0.140203 0.676698 -1.50165 -0.786759 -0.473876 -0.094876 -1.01907 -0.842048 0.0491357 0.69238 0.113725 0.506027 0.0594087 -3.12719 -0.0727712 -0.285988 0.143389 0.0492205 -0.317383 0.477405 0.15989 -0.608174 -1.07566 -1.05851 -0.266972 0.497537 -0.566104 1.20874 -0.285098 -0.342732 0.0751147 -0.15341 -0.0765074 -0.24081 0.363628 -1.76566 0.141449 0.546779 0.0578237 0.629045 0.414722 -1.46264 -0.817105 1.30366 -1.75132 0.652125 -0.839798 -0.066797 0.409651 0.049435 0.0693988 0.257742 1.73529 0.555657 -0.133159 -0.075337 -0.277065 0.233996 -0.198285 0.421597 0.219644 -0.46949 0.519869 3.54227 0.0906865 -1.12416 -1.84236 0.540467 0.136212 -1.71733 0.0997003 0.0231698 -0.592081 -0.304373 0.0705042 -1.47093 -0.605335 -0.210203 0.696038 0.150667 0.279824 0.189671 0.61333 -0.0330548 0.110901 -0.927648 0.0690041 -2.07036 1.18583 -0.0579543 0.0019279 -0.453689 0.160867 -0.582756 -0.600029 0.0251614 0.474591 0.0685283 -0.00588899 0.234377 -0.485635 0.634791 0.11701 0.114938 -0.0121656 
row -0.0879409 0.0695983 -0.651763 -0.442403 -0.523555 0.0539891 -0.210673 0.264022 -0.744742 0.177338 -0.184213 0.0641289 -0.802629 -0.694495 -0.136103 -2.40445 0.0902127 0.298177 0.12428 0.00641674 0.308983 0.567813 0.0895568 0.069731 0.439176 -1.1611 -0.825463 -0.0407939 -0.145238 -0.383203 -0.741098 0.0833919 -0.348605 0.0950142 -0.264213 0.0624889 -1.60916 0.0855403 -0.718536 0.179396 0.0742815 -0.269383 0.45035 1.57206 -0.418946 -0.777345 -0.754113 0.372719 0.239192 -0.604238 -0.180117 0.00931027 -0.285814 0.0107347 1.43604 0.0356654 0.158567 0.0727223 -0.541342 0.131954 -0.197018 0.290161 -0.64628 0.116331 -1.53889 -0.0153801 0.820588 -0.352474 0.17775 -1.35031 0.104532 0.324382 -0.00674879 0.0526448 -0.0269607 0.29007 0.00379609 -0.35915 -0.234326 -0.339288 -0.115847 -0.877972 -0.151184 -0.989917 -0.775307 0.306027 0.413122 0.0490894 -1.05036 -0.848791 -0.233816 -0.205077 -1.00837 0.0327602 -0.0728387 -0.361273 1.21256 -0.00826673 1.64099 0.542468 -0.669418 0.499105 0.122497 0.287878 0.131214 -0.231343 -0.0345211 0.0862231 -1.25331 -0.0772806 1.623 0.177925 -0.0373644 0.785247 -0.117108 0.131405 0.806241 -0.805997 0.0400813 0.431683 0.046663 -0.213188 0.191208 -0.516962 0.00633716 -0.801127 -1.43169 -0.0916317 
row 0.624923 -0.00469978 0.371151 0.493257 0.472125 0.114865 0.149895 -0.0623115 -0.418451 0.528443 -0.337752 0.0635962 -1.29069 -0.00437012 -0.0870332 0.167337 0.0401894 -0.214044 0.0843604 0.188067 -0.0474971 0.0402785 0.0549601 0.096247 0.319581 0.0119103 0.193845 -0.469494 0.819366 0.018113 -0.291828 -0.00791984 0.351342 0.0698398 0.0214615 0.0592504 -0.329083 -0.18478 0.06025 0.0932552 0.0190796 0.398397 0.0132424 -1.22691 -0.425862 0.258324 -0.601076 -0.607693 -0.0924103 -0.574729 -0.534483 -0.15457 0.203223 0.0108977 -1.47148 0.0932023 0.802494 0.0541674 -0.498075 0.0770142 -0.0799173 0.02209 -0.210378 0.512285 -0.739199 -1.29769 -0.00473356 0.0634614 -0.0407984 -0.631613 0.199038 -0.00185342 0.0531961 -0.0122295 0.0713585 0.173991 0.811244 -1.04267 -0.0763187 0.139866 -1.53257 -0.0210227 0.381909 -1.23724 0.145333 -0.00626383 -0.288054 0.0192446 -2.00506 -0.86609 -0.395003 0.527441 0.104969 0.103448 0.00133393 0.570682 -0.895667 0.113541 0.8069 -0.00290335 0.793927 -0.0430427 0.0179938 0.0631121 0.064072 0.00305977 0.104089 0.127031 -0.425675 0.124975 0.530355 -0.198558 0.0714357 0.453686 -0.921737 0.0353332 0.144406 -2.44587 0.00207133 0.0123113 0.0423281 0.277503 0.034434 0.378874 -1.23382 -0.344175 -0.432164 0.0621913 
row 0.938684 0.0660092 0.263818 0.457382 -0.0711371 0.0102727 0.348219 -0.39292 0.595123 0.386754 -0.134126 0.016653 -0.194848 -1.13449 -0.180911 -1.34482 0.00375834 0.0389113 0.085095 0.00306645 -0.151818 -0.0633108 0.185626 0.12851 -0.116918 -0.463701 0.21063 -0.417441 0.440096 0.025791 0.341605 0.0542119 -0.0891782 0.136575 0.0954071 0.128222 -0.0312854 -0.103009 -0.10496 0.0945775 0.0853335 -0.265187 -0.0517503 -0.530184 -0.972753 0.0470271 -0.878032 -0.596303 -0.11698 0.492209 -1.11815 -1.10264 0.0835789 0.186359 -0.739508 0.00559172 0.434558 0.280675 -0.224676 0.0361174 -0.417015 0.0487513 -0.0524399 -0.803288 -0.0382492 -0.157237 -0.0602835 -1.50661 0.0951318 0.269282 0.254544 -0.00912072 0.129094 0.0219141 0.326713 0.10449 -0.357516 -0.239773 -0.032582 -0.202959 0.273098 -0.0231431 -0.681486 0.218477 -0.0483981 -0.013136 0.33007 0.147308 0.39198 -0.821825 -0.430906 -1.86233 0.292136 0.164649 0.0669457 -4.06407 0.232079 0.104551 -0.931663 -1.09015 -0.328014 -0.115626 0.105568 0.00346056 0.145738 0.21165 0.155576 0.0211872 -0.289411 -0.565597 -0.46512 -0.428782 0.0784133 -0.564969 -0.168988 0.107568 -3.41883 0.757811 0.141664 -0.0750213 0.166033 -0.0314616 0.0298227 -0.248506 0.469327 -0.447224 0.277556 0.123506 
row -0.602704 -0.825431 -1.33267 -0.398561 -0.677477 -0.376132 0.225116 -0.313294 -1.48531 -0.702216 -0.0478048 0.0405058 -1.58479 -0.897184 0.326404 -0.152157 0.0420979 -0.766704 -0.0338405 -0.0959892 -0.171279 -0.20042 0.0299189 0.059507 -0.338748 -0.0126391 -0.956035 -0.427766 -2.12808 -0.247053 -1.34358 -0.101457 -0.454784 0.0732803 -0.735134 -0.0431881 0.0692768 -1.08104 0.263352 0.0693096 -0.00849946 -0.00748767 -0.0123394 -0.274103 0.0143321 -0.0937094 -0.379769 -0.69615 -0.273298 0.0679384 -0.799943 -0.631877 -0.373376 0.0505532 -2.39663 -0.362357 -0.709831 0.0368738 -0.310544 0.131166 0.0747033 0.0209506 -0.266941 -0.930659 0.79297 -0.244229 -0.390145 -0.491926 -0.381192 -0.440424 0.12963 -0.0226486 -0.0975092 -0.060486 0.197414 -0.138566 -2.12392 0.235874 -0.308527 -0.235322 -0.22479 0.38414 -0.770625 -3.11279 -0.118534 0.0472965 -0.471107 0.0296415 -0.232418 6.87321 -1.17047 -0.0372101 -0.0470431 -0.0210964 0.120714 -0.295154 -0.0102942 0.0680678 -0.298796 5.96474 -0.152225 -0.0622652 0.0797051 0.0202916 0.0161848 -0.469123 0.0705204 0.603602 -0.753184 0.366293 -0.947068 -0.180364 -0.00446761 0.0708193 2.10323 -0.00259047 2.83992 -1.21662 -0.0194733 -0.0696156 0.112541 0.602583 0.0333501 -0.189853 -0.348158 0.186868 -0.64618 0.109814 
row -0.171775 -0.958803 -0.896307 -0.697179 -0.0715322 -0.0319206 -0.258433 -0.0256753 -0.753893 -1.08361 -0.421809 0.177277 -1.15592 1.1461 0.0779683 -1.25474 0.0399588 0.316898 -0.0988206 -0.0377865 -0.0350472 -0.207378 0.0136652 -0.00933292 0.434535 -0.223986 -0.479442 0.1122 -0.537414 -0.068251 -0.789289 0.197143 -0.50663 -0.059883 -0.499145 -0.0105487 -2.01472 0.321765 -0.148026 0.0372489 5.78677e-05 -0.710629 -0.180424 -0.924512 -0.752008 -0.432553 -0.35502 0.0532659 -0.170149 -0.286351 -0.141496 -0.665642 -0.57592 -0.0090213 0.506733 0.0307712 -0.890245 -0.159498 -1.4532 0.166074 0.271084 0.0353982 -0.30114 -0.28499 -0.689226 0.870115 -0.258654 1.12456 -0.471935 0.0452687 -1.27503 -0.133869 0.00587722 0.128949 -0.191425 0.300238 0.0641536 -0.612683 -0.120025 -0.467293 -0.260816 -0.235458 -0.246314 -0.326128 -0.698421 -0.194244 -1.75597 -0.0746333 -0.578353 -0.865122 0.741522 0.842465 -0.946572 -0.0970511 -0.0156359 -0.322555 -0.359278 0.15371 0.00875277 -1.57367 -0.751303 -0.101132 0.101891 -0.0331777 0.182468 0.121571 0.162241 0.0936682 -1.98929 -0.302105 -0.543836 -0.414644 0.260259 -0.078167 -0.525118 -0.0798409 1.38211 -1.23319 0.0318648 -0.203703 0.14954 0.108021 -0.0825021 -1.94271 -1.3278 1.03004 -1.46689 0.0124994 
row -0.203717 0.0899862 -0.872516 -0.367289 -0.117832 -0.241883 -0.32515 0.0742506 -1.33667 -0.325124 -0.543782 0.096763 -0.910718 -0.050629 -0.106459 -0.24821 0.0130039 -0.1128 0.0332854 -0.246792 0.105529 -0.0749988 0.0128209 0.068444 0.152073 -0.429207 -0.221998 -0.094147 -0.115721 0.00770856 -0.204995 0.111662 -0.0863807 0.0576551 -0.575227 0.0456363 -0.0888312 0.262708 0.0892973 0.0861089 0.00944083 -0.14099 -0.0419111 -0.866188 -0.694415 -0.239401 -0.231087 -0.540936 -0.067219 -0.118071 -0.0745645 -0.477171 -0.432786 0.0497883 -0.617387 0.347168 -0.075713 -0.130232 -0.64477 0.116267 -0.268991 0.0846906 -0.0211483 -1.00417 -0.0560178 -0.685454 -0.0142415 -0.211986 -0.0561972 0.0571784 -0.199924 -8.3244e-05 -0.0147097 0.0924058 0.0301575 -0.139186 -0.80586 -0.537591 -0.0498825 -0.458106 0.972463 0.139016 0.928209 0.548758 -0.207005 0.0173643 -0.964629 -0.00547401 -0.721723 0.603358 0.0736971 0.74692 -1.21774 0.0514027 0.0865275 -0.123759 -0.156929 0.142201 0.379134 0.681917 -0.893555 0.00336573 0.103885 0.0431595 0.154672 0.134566 0.119872 -0.220373 -1.41662 0.0418445 -0.660496 -0.221232 0.102194 0.199144 -0.153432 -0.0236942 0.177686 -0.418247 -0.0201024 0.0161444 0.114978 0.256091 0.0294469 -0.973085 -1.37996 -0.217845 -1.12508 0.0826641 
row -6.27434 -0.498116 0.522087 -0.149293 -0.444708 -0.177061 0.00890673 0.440365 -0.314062 -0.603595 -0.131463 0.206538 -0.938411 -0.894243 -0.237857 2.15674 0.0802105 0.199581 0.0144768 -0.142979 0.111147 0.353588 0.0437131 -0.0271533 0.24115 -0.649814 -0.269705 0.627595 -1.72218 -0.261514 -0.610457 0.182713 -0.111986 0.07506 0.809949 0.0924396 -0.263179 0.00232034 -0.8494 0.14396 0.014213 -0.31218 0.198657 -0.913016 -0.17034 -0.320451 0.310139 -0.165785 0.0694598 0.787893 1.41091 1.81541 -0.48763 0.00278661 2.20482 -0.573989 0.0217217 -0.126336 0.432954 0.0926774 -0.126595 0.0277566 -0.358421 -0.027097 0.106391 0.762712 0.467548 -0.652944 -1.01313 -0.690399 0.323901 0.155684 -0.0228487 0.090953 -0.204472 -0.0986462 -0.719423 -0.203705 -0.351748 -0.0897832 -0.439045 -0.00977741 3.02738 -0.244914 -1.0845 0.100667 -0.0847939 0.00127499 -0.266931 1.3661 -0.323543 0.0884582 -1.37801 0.0382614 0.0158262 2.84194 0.49451 0.0709627 1.96668 0.482824 -0.931271 0.210997 0.131379 0.141984 0.18156 -0.382829 -0.0390809 -0.106632 -2.71701 -0.0236086 -0.606056 0.136071 0.163377 -0.416775 0.469359 0.0534261 2.33447 3.44448 0.0415868 0.194853 -0.000449415 -0.409366 0.122055 -0.139616 -0.553473 -1.23435 -1.67628 -0.0952467 
row 1.00573 -0.365034 -0.129979 0.155395 0.0837412 0.0481775 -0.346886 -0.0527264 0.153309 0.0844211 0.0521172 0.0572561 -0.174455 -1.01801 -0.139425 -0.217036 0.0354869 0.222893 0.0867714 -0.0531642 0.054331 -0.114469 0.0922465 0.146874 -0.545153 0.555486 0.308558 0.493211 0.144712 0.016971 -1.77412 0.0552192 -0.318101 0.0817282 -0.186399 0.0517462 0.571995 0.158298 -0.163671 0.0995945 0.0401082 0.0728905 0.0244796 -0.343908 -0.049574 -0.353057 -0.485994 -0.239259 0.12955 0.370633 -1.74614 -0.0987212 -0.177234 0.1441 0.107923 -0.0251684 -0.703607 0.0696256 1.11792 0.0383856 -0.108037 0.132674 0.394206 0.052279 0.118623 -0.0907734 -0.0580432 -2.35982 0.529826 -0.138206 0.00964626 0.0205126 0.0423786 0.0456329 0.211835 -0.0873362 0.26769 0.230743 -0.0920845 -0.00967578 -1.10432 0.134449 -0.532489 0.605052 0.35621 0.0761277 -0.235892 0.0536303 0.0373126 -1.26231 -0.435253 -0.393265 -0.158663 0.0794975 0.0652801 -1.01064 -0.0278684 0.0377898 -0.121775 -1.64434 -0.13134 0.00152073 0.0456817 0.0390542 0.154386 0.288486 0.0348322 -0.000285574 -0.944885 -0.538204 -0.495227 0.22132 0.0416436 -0.0133717 0.0399712 0.173003 -0.912552 0.407697 0.125413 -0.000550389 0.070376 -0.00232437 0.0963351 0.239848 0.283438 0.130968 0.244511 0.0607215 
row -0.226618 0.00633155 -0.475509 -0.451445 -0.125745 0.0301802 0.487076 -0.0665666 -1.06065 0.264664 -0.255731 0.145786 -0.518904 -0.131601 0.0938236 -0.140574 0.00323433 -0.0237656 -0.027264 0.0501262 -0.0466902 -0.0666757 0.0174682 -0.0117914 0.218696 0.346267 0.0724997 -0.507351 -0.205531 -0.0919477 -0.435182 0.0220385 0.151925 0.0468637 -0.474779 -0.047669 0.237205 -0.0851641 0.569199 0.0853796 -0.0255654 -0.0419436 -0.0821899 0.170172 -0.30917 -0.258757 -0.376613 -0.0666132 -0.216526 -0.045993 -1.08805 -0.195258 -0.652162 -0.010461 -1.34643 0.624229 0.525426 -0.0782436 -0.752763 0.153572 -0.301975 0.217492 -0.381204 -0.224405 -0.553825 -0.628862 -0.164664 -0.0107191 -0.970938 0.353209 -0.203189 -0.0313783 -0.0502716 0.0863539 -0.021705 -0.00133267 0.299663 -1.12725 -0.0632642 -0.659781 -0.319874 -0.457497 0.691463 -0.502653 -0.926017 -0.00784471 -1.37245 0.0154878 -0.450685 1.13948 -0.265887 -0.767445 -0.606262 -0.00701282 -0.0114163 0.518937 -0.590412 0.125779 0.608624 -0.246727 -0.514518 -0.100989 0.105762 -0.0685168 0.139245 -0.0413955 0.128057 0.0154964 -0.514123 0.00930581 -0.521448 -0.125814 0.198852 0.493072 -0.436469 -0.0809823 1.63956 -1.14011 -0.0843869 -0.150089 0.0785707 -0.06026 -0.0402732 -0.154848 -1.67934 -0.310695 0.105533 0.0727461 
row 1.02043 0.385854 0.363823 -0.541622 -1.62806 0.0452669 0.140505 0.0966439 -2.29949 0.348981 -0.581789 0.104008 -0.304456 0.894467 -0.0280542 1.33144 0.120439 -0.0293092 0.0822174 -0.113184 0.127627 -0.0242033 0.122889 0.0768354 0.0663411 -0.69229 0.170544 0.697218 -0.455154 -0.037982 -0.423071 0.124044 -0.207432 0.0374819 0.510935 0.05333 -0.442585 -0.604829 0.310619 0.0691144 0.0481632 -0.757038 0.0510122 -0.442769 -0.431103 -0.310697 -0.507252 0.922084 0.107543 -0.135369 -0.255928 1.17797 -0.312843 0.142795 0.675783 -0.780246 -1.17297 0.186723 -1.59583 0.0662188 -0.655855 0.0487705 -0.797674 -0.244485 -0.242349 -0.239734 -0.0888982 -0.23838 -0.117794 -0.67025 0.377245 0.0750965 0.115813 0.0946216 0.410741 0.140013 -1.75667 -0.440211 -0.0378547 -0.403215 -0.842159 0.222622 -0.209083 -0.412482 -0.48252 0.0880043 -0.00101674 0.123737 -1.53302 0.659071 -0.430304 1.05821 -0.56644 0.0545001 0.00469841 0.00712127 -1.16913 0.00756903 0.364333 -0.320485 0.174663 0.0503758 0.100842 0.106618 0.115209 -0.138215 -0.0224769 -0.441358 -0.638197 0.483786 0.824198 0.710549 0.064686 0.358585 -0.467398 0.115138 -1.02936 -2.20433 0.0624847 0.121721 0.0560188 0.437021 0.156628 1.7539 -0.827459 0.383119 0.00409345 0.0545228 
row -0.294203 -1.11131 0.0495019 1.03667 1.3486 0.154816 -0.130194 -0.250237 -0.151462 -1.86264 -0.414989 0.174608 -2.59183 -0.00405863 -0.0448249 -1.57405 0.0584179 -0.0180109 0.101934 -0.0317032 -0.0267857 -0.114026 0.0648057 0.0593315 0.0939293 -0.0581066 -0.273855 0.342041 0.44421 -0.180859 -1.26255 0.105703 0.198316 0.0565701 0.199176 0.06927 0.139037 0.145965 -0.0395162 0.11821 0.0854605 0.19034 -0.0324561 -1.29582 0.204228 -0.17746 -0.600274 0.225681 -0.0401574 0.338224 0.182617 -0.897931 -0.575713 0.040767 -0.129309 0.401128 -0.483071 0.024439 0.37361 0.0227476 0.347416 0.222017 -1.75446 -0.52893 -0.124295 -1.11125 -0.111938 0.106043 -0.517102 0.0865544 -0.700659 0.0375248 0.0716118 0.116109 -0.0922053 -0.200123 0.168106 -0.177642 0.152591 -0.0394431 -0.144882 -0.329123 -0.536176 0.428215 0.0931786 0.076084 -0.471464 0.0234787 -1.90644 -0.93505 -1.54681 -0.642034 -0.908737 0.068012 0.158856 -0.143184 -1.13436 0.0316685 0.571745 -1.04935 -0.709501 -0.0321315 0.0748138 0.0718817 0.191392 0.180512 0.0598562 0.30798 -2.67088 0.016785 0.232094 0.0986633 0.119127 -0.537631 0.144465 0.115678 -0.48243 0.0311819 0.0161212 0.00765543 0.083117 -0.0931409 0.0386425 -0.000696972 -1.57361 -0.412544 -0.318603 0.0490588 
row 0.7746 0.0195022 0.212532 0.146544 -0.998465 -0.281193 0.0958956 0.0446669 0.00912359 0.169513 0.0387089 0.203878 -0.759604 -0.143382 0.0132425 -0.187046 0.00750568 0.0918159 -0.0755349 -0.0664855 -0.00389078 -0.142929 0.0141585 -0.0147134 0.0842708 -1.50938 0.212323 0.554211 -0.0888422 -0.672317 -0.922035 0.173485 0.251036 -0.0280099 0.195781 0.0445517 0.487343 0.414847 0.0894869 0.107781 -0.0165159 -0.247648 -0.108214 -0.480323 -1.04349 -0.450063 -0.560173 -0.0412214 -0.139129 -0.140466 -0.228239 -0.16451 0.180337 -0.0236503 0.656669 0.669256 0.26376 -0.0476353 1.75341 0.172 0.124002 0.453703 0.327887 0.147449 -0.306836 -0.373266 -0.19952 -0.346907 -0.791561 -0.813163 0.0673102 -0.153568 -0.102577 0.0763495 0.15512 0.194916 -0.309031 -1.15423 -0.127049 0.166268 -1.52499 -0.361092 -0.918362 0.237289 -0.455221 -0.105753 -2.20842 0.0234251 -1.89646 -0.319546 -0.498281 -0.192505 -2.3844 -0.0196144 -0.0152065 0.556346 -0.720837 0.0865469 0.203263 -0.890829 0.227772 -0.0438747 0.135457 0.00750422 0.21091 0.179695 0.160368 -0.06688 -0.613146 -0.816698 0.170955 0.10823 0.20351 -0.114933 -0.0770189 -0.018042 0.799944 0.0139884 -0.0750005 -0.122747 0.11483 -0.207938 -0.0241897 0.651469 -1.78991 0.377293 -0.345099 -0.0329761 
row -2.37846 -0.461973 -0.835785 -0.582006 -1.84481 -0.101778 -1.1849 0.268365 -0.54447 -1.36222 -0.683607 0.146311 -1.03322 -1.21517 -0.0553377 -1.36186 0.117288 -0.132096 0.051092 -0.0556501 0.153328 0.0844513 0.0182752 0.0722343 -0.169651 -0.779316 0.00650778 -0.579086 -0.46398 0.0294628 -1.43677 0.146427 -0.956477 0.0906418 -1.32102 0.0802016 -1.75406 0.123389 -0.55178 0.171931 0.0667477 -1.02144 0.21003 -0.855945 -1.04169 -0.654934 -0.753036 -0.0761931 0.0391401 -1.17237 -0.991641 -0.131395 -0.279309 0.0262308 -0.122481 -0.863029 -0.674654 -0.124751 -0.769947 0.213528 0.37368 0.00813532 -0.582848 -0.0980632 -3.67685 -1.14184 0.169991 1.01255 -0.0212441 -0.449757 -0.483562 0.193738 0.0258748 0.0426045 -0.382806 0.140786 -0.215663 -0.497773 -0.135796 -0.279604 -1.03336 0.0589732 -1.65757 -0.860275 -0.33423 0.133769 -0.280145 0.0310607 -0.786139 -1.09166 -0.416883 -0.746703 -1.24655 0.0760256 -0.16894 -0.943462 -0.880287 0.0152422 -0.740903 -1.52904 -0.252687 0.332783 0.198236 0.233052 0.195984 -0.908629 0.0561537 -0.124998 -1.51545 -0.217139 -0.223206 1.17505 0.107092 -0.00326255 -0.191894 0.154091 0.833629 0.0101807 0.0494828 0.30432 0.0877867 -0.542535 0.177817 -1.1662 0.0187938 -0.693878 -0.509859 -0.00323281 
row 0.458307 0.0739062 -0.127226 0.305653 -0.462538 -0.292475 0.395711 -0.175269 -0.129732 -1.02478 0.509 0.0835604 -0.819582 -0.54508 -0.0222381 -0.238549 0.0842123 0.195848 0.0891159 0.0312038 0.00476004 -0.0261422 0.131101 0.098317 -0.193026 -1.31668 -1.05155 -0.110072 0.146548 -0.166221 -0.400628 0.0974282 -0.321359 0.143853 -0.825495 0.00243817 0.0614063 0.496431 -0.121696 0.0963251 0.125662 -0.20209 0.00188892 -2.15451 -0.922224 -0.491278 -1.24801 -0.431614 -0.118945 0.315423 -0.633674 -0.969928 -0.571244 0.113039 -0.0552638 -0.2977 -0.39831 0.0430373 -0.391663 0.0652232 0.447108 0.189222 0.427769 0.0952436 -0.296978 0.251899 0.0637664 -1.20603 0.354357 0.0359244 -0.245436 0.0756002 0.0515315 0.0769646 0.121723 -0.0521594 0.571712 -0.431593 -0.018287 -0.51482 0.00658743 0.0510571 -1.15127 0.225214 -0.431207 0.0388851 -0.740298 0.0977621 0.010071 -0.372723 -0.949123 -0.690048 -0.482052 0.0894569 0.123332 0.083913 -0.47955 0.0301936 -1.21372 -0.497483 -0.43946 -0.0420716 0.0579535 0.126552 0.187972 -0.44455 0.0496839 0.258267 -2.24486 -0.525575 0.203908 -0.238733 0.0631101 -0.578672 -0.100986 0.130456 -0.205817 0.0990631 0.013652 0.0921038 0.0882947 -0.214897 0.155228 0.411054 0.23981 -0.037202 -0.0615171 0.120911 
row -1.19735 0.0935997 0.314456 -0.0643122 -0.584502 -0.16919 0.495674 -0.000388604 0.396009 -0.0170099 0.355402 0.0572354 -0.946496 -1.47421 0.0742377 -0.899802 0.119441 0.230241 0.0980828 -0.122459 -0.00763661 -0.0846658 0.0566198 0.0735232 0.398858 -0.0318753 -1.21829 -0.0143325 0.480512 -0.336282 -2.10834 0.0272798 0.087386 0.0412937 -0.121659 0.0560968 0.153201 0.288355 -0.229168 0.122259 0.0501335 -0.439972 0.0570834 -0.893941 -1.64283 -0.408731 -1.39879 -0.0475292 -0.12757 0.0352264 -1.71084 -0.754753 -0.515604 0.0347744 -0.14225 0.0198244 0.526327 -0.218938 -2.00286 0.140866 -0.330458 0.196325 -0.00540933 0.263929 -0.673265 -0.184017 -0.131606 -0.874563 0.372033 0.262354 -0.288267 0.0225832 -0.0518899 0.0322935 -0.261511 0.0709377 0.127599 -0.190177 0.151691 -0.49227 -1.12855 0.224286 -0.242219 0.0184672 -0.71769 0.0115938 -0.799009 0.0771466 0.40148 -0.350494 -0.402471 -0.591376 -0.863973 0.0861226 0.126493 -1.79164 -1.46097 0.123764 -1.2096 0.0350703 -0.66472 0.0326123 0.0733203 0.069515 0.158558 -0.305286 0.105092 0.00179631 -1.22215 -0.0498843 0.249329 0.157144 0.106231 0.068156 -0.752014 0.0855826 -0.412836 -2.56232 0.0149816 0.0399272 0.0947918 0.0730292 0.115548 0.178355 -1.21835 -0.265361 -0.513693 0.127021 
row -3.48822 -0.821476 -0.75785 0.364872 -0.972239 -0.195401 -0.357714 0.186996 0.101806 -0.436042 0.0876928 0.139533 -0.763688 -0.929991 -0.140567 -1.28485 0.177039 0.0863171 0.0943913 -0.0131768 0.0945087 0.167325 0.0507806 0.122055 0.170289 -0.301075 -0.458217 -0.115503 -0.818801 -0.00748983 4.06475 0.0931822 -1.43651 0.0748213 -0.340709 0.116563 -0.862182 0.347948 -0.293789 0.121077 0.0907133 -0.995058 0.18496 -1.59586 -0.335817 -0.415019 -0.311187 -0.375471 0.0685347 -0.464367 -0.290304 -0.265721 -0.267244 0.0907375 2.44845 0.336433 -1.24895 0.0766689 -1.49646 0.0711433 0.597795 0.323838 -0.830625 0.031217 -2.26485 -0.604614 0.0885073 -1.3264 -0.0262792 -0.342612 -0.485381 0.142451 0.0262013 0.13107 0.189643 0.0222716 -0.747864 -0.182405 0.0673949 -0.30026 -0.890142 -0.330526 -1.33616 -1.37715 -1.4672 0.0941411 0.191164 0.0777586 -0.02002 -1.25844 -0.453523 -1.06956 -0.930292 0.0801018 -0.107064 -0.192796 -0.181557 0.0525931 0.0477808 -0.168361 -0.634487 0.205798 0.143448 0.228965 0.1875 -0.855543 0.0180559 -0.176014 -0.662286 0.00869765 3.60904 0.190723 0.0488292 -0.147137 -0.602558 0.157357 0.672832 -0.688813 0.0908524 0.258585 0.0665707 -0.290433 0.144349 -0.216309 -0.304748 -0.158427 -0.0698471 0.032667 
row 0.279524 -0.123023 0.0124793 0.329443 0.0090758 -0.0441654 0.188881 -0.117443 0.00231977 0.0981942 0.337835 0.0504914 -0.716132 -0.375113 0.0243886 -0.243046 0.0832905 0.172189 0.0266275 -0.0541927 -0.0360044 -0.0677056 0.0334101 0.00385547 0.176076 -0.776033 -0.148951 0.12314 -0.762764 0.115591 -1.43951 0.126941 0.0107366 0.0164891 0.00857649 0.0379185 0.0807633 0.234488 -0.00154445 0.0787346 0.0423725 -0.0952893 -0.102771 -1.0141 -0.370189 0.00933469 -0.623463 0.0240154 -0.0330334 -0.548293 -1.51044 0.225244 -0.140723 0.074708 -0.184189 0.0195264 0.0449496 0.0784864 0.0334751 0.0412719 -0.142624 0.108462 0.0214358 0.374831 -0.437202 -0.0782231 -0.172615 -1.73045 0.159025 0.0724612 0.0898915 0.00268835 0.00461908 0.077285 0.192356 0.0216229 0.0673081 -0.19875 -0.0123313 -0.0719308 -0.574471 -0.0331063 -0.379382 -0.121544 0.0883121 -0.0575899 -0.848926 0.0813234 0.0967904 -0.258232 -0.0337694 -0.228918 -0.231767 0.0730836 -0.0310359 -0.758509 -0.000563756 0.100314 -0.0677054 -0.118882 -0.386827 -0.0387748 0.0394173 -0.0149394 0.0718285 -0.158799 0.0640431 0.0352781 -1.03291 -0.0119397 -0.248675 0.136238 0.0781627 0.00319247 0.0322518 0.021405 -0.196946 0.50281 0.0249306 -0.0781028 0.0552378 -0.129002 0.00316745 0.275746 -1.49417 -0.108052 -0.439399 0.106848 
row 0.462309 0.063012 -0.344542 -0.0682315 -0.284983 0.119425 0.066361 -0.0625544 0.486979 -0.00100511 0.365254 0.0304187 -0.817922 -0.836022 0.0898272 -0.725602 0.0639485 0.199693 0.0556213 0.107532 -0.0718983 0.0714675 0.120931 0.101376 0.091939 -0.599917 -0.513246 -0.224486 0.331443 -0.0492933 0.101118 -0.0480507 -0.0740094 0.0973045 -0.0264626 0.0525553 0.0832492 -0.153076 -0.0705477 0.0616404 0.0424567 -0.08758 0.155131 -0.649771 -1.70523 -0.31526 -1.3006 -0.338001 -0.0843079 -0.0852097 0.0945342 -1.19003 -0.508279 0.0716008 -1.06993 0.0148037 0.111584 0.0458763 0.0720887 0.0908665 -0.76961 0.200804 0.304706 0.466804 -0.334579 -0.700151 0.0771774 -1.06361 0.362887 0.443255 0.386318 0.125172 0.00517447 -0.00500766 0.0790932 -0.171238 0.412374 -0.370837 0.0841746 -0.114163 0.11219 0.229341 -0.3195 -0.0655091 -0.349621 0.0689185 0.0574976 0.0729326 -0.0912278 -0.296313 -0.788342 -1.04051 -0.028173 0.10138 0.0297672 0.0606986 -1.53333 0.0941743 -1.03812 -0.597788 -0.588054 0.0358515 0.0300623 0.134387 0.0247547 -0.0369358 0.106262 -0.00576363 -1.71199 -0.362658 -0.198546 -0.341862 -0.0490734 0.314209 -0.137273 0.0406269 -0.200177 0.198649 0.0166091 0.0656907 0.0609169 0.264437 0.0685249 -0.132328 0.0682436 -0.278071 0.045422 0.16593 
row 0.477595 -0.191412 -0.437768 -0.0542335 -0.297287 -0.0028865 -0.124847 -0.0722517 -0.867508 -0.192729 -0.0544052 0.128041 -0.55016 -0.164921 -0.0815139 -0.985029 0.0476042 0.0399317 -0.0299444 0.0650775 0.00160888 -0.128847 0.00192208 0.0474981 0.332128 0.0995055 0.00245299 -0.0787213 -0.323332 0.0812875 -0.682867 0.116816 -0.164449 -0.0134329 -0.0129127 0.0420995 -0.0859598 -0.0390008 -0.186157 0.00550646 0.0655067 -0.169683 -0.160272 0.0301363 -0.0705835 -0.0662869 -0.431046 0.244844 -0.0330194 0.00100882 -0.00672975 0.0386637 -0.0374823 0.0996771 0.946568 -0.255138 -0.213566 0.103072 -0.0861258 0.0852178 0.0551029 0.213427 -0.352167 -0.11614 -0.732223 -0.374526 -0.12081 -0.282079 -0.185275 -0.215819 0.107404 -0.122246 0.0432387 0.149592 0.056035 -0.114265 -0.124361 -0.140642 0.13559 0.63961 -0.283116 -0.261696 -0.219911 -0.14662 0.123253 -0.0853717 -0.933886 0.00129405 -0.185705 -0.506206 -0.140012 -0.151864 -0.212154 0.024701 0.0930983 1.21051 -0.287495 0.0658606 0.980595 -0.175379 0.251701 -0.0847447 0.0686398 -0.1143 0.158122 -0.261112 0.0868113 0.102881 -0.699023 -0.636062 -0.0348762 -0.0280674 0.209355 -0.0299962 -0.294214 0.0193676 0.602634 -0.63968 0.047485 -0.11358 0.0962477 -0.0159354 -0.0297256 0.0693336 -0.508362 -0.158556 -0.541402 0.0419172 
row -1.30472 -0.551487 -0.55779 -1.12751 -0.688286 0.270228 0.593239 -0.139004 -1.76329 0.081394 -1.01712 0.205433 1.18389 -0.487908 -0.0357955 -1.90731 -0.00944956 -0.0244837 0.0798313 0.0550801 0.0750084 -0.308123 0.070914 0.0570839 -0.385409 0.95375 0.311618 -0.38764 -0.541936 0.495101 -1.69671 0.0777368 -0.167756 0.0686554 -0.687804 0.158627 -1.34673 -0.191397 0.300458 0.0142373 0.0345916 -0.332881 -0.183643 -0.753136 1.20365 0.790494 -1.1037 0.108691 0.0407129 -0.930118 -1.13902 -0.0250726 0.141799 0.160186 -0.831576 0.363231 -2.03672 0.0814837 -1.5713 0.0210748 -0.847425 0.146754 0.0209872 -0.397684 1.24801 -0.662151 -0.37265 -1.53102 0.077667 -0.0371869 -0.157549 -0.0472805 0.144723 0.120408 0.475025 -0.252124 -0.742114 -0.00722268 0.0392341 0.027208 -1.36358 -0.132936 -0.415038 0.69015 -0.0428365 0.0313494 -0.561119 0.0777261 -2.74891 -1.15055 1.09556 -2.50239 0.857697 0.0641175 -0.0467747 -0.349508 -0.354064 0.187007 -0.937718 -0.930826 0.613099 -0.227206 0.0205934 -0.0941022 0.234774 -0.012137 0.240979 -0.06642 0.900447 0.0016999 -1.73068 -0.496085 0.193603 -0.481116 -0.304919 0.100132 -1.71258 -0.556259 0.0878808 -0.224212 0.157388 0.320728 0.00413382 0.269504 -0.452263 -0.453241 -0.735877 0.188899 
row 0.516873 -0.059386 0.228219 -1.23225 -0.881303 -0.0126416 0.153731 0.0475695 -0.266174 1.693 -1.1034 -0.0404506 -0.704263 -0.225455 -0.0998368 -0.017084 0.011638 -1.00082 0.179002 0.0011163 0.104334 0.24419 0.151526 0.165865 0.336566 -0.114407 -0.313689 -1.21026 0.314742 0.346431 -0.961122 -0.0272787 0.143756 0.0748549 0.188445 0.156148 -1.126 -0.865926 -0.397561 0.0389593 0.0931886 -0.00278055 -0.04505 0.0450281 -0.219785 0.271832 -0.632767 -1.35894 0.0250797 0.212074 -1.44466 -0.318466 0.348832 0.158608 -3.59278 -0.707693 0.740288 -0.0482738 -0.767929 0.057245 -2.07145 0.106645 -0.082278 0.52349 -0.557983 -0.0410622 0.293319 -0.136632 0.722845 -1.23167 0.247194 0.00366979 0.152325 -0.0398594 -0.261827 0.112409 -0.89785 0.22662 0.542856 0.108051 -2.47507 -0.281077 -1.41124 -1.96405 0.158464 -0.0258475 0.401075 0.169669 -2.90505 -1.35186 -0.191614 -1.66164 0.370809 0.182093 -0.328481 -2.9374 -2.05618 0.127355 -1.08128 -0.90267 0.147235 0.00264135 -0.0114451 -0.0471376 0.0893544 -0.701369 0.151708 -0.0691064 -0.265692 0.10192 -2.93202 -0.279706 0.0378301 0.47459 0.281568 0.120607 -2.06123 -3.06244 0.0873421 0.019972 0.0743829 0.209248 0.13325 0.0750542 -1.44751 -1.74007 -0.228801 0.110999 
row -0.576607 0.0311353 -0.674276 0.547863 -0.046644 0.219253 -0.285958 -0.110943 -0.628533 -0.623883 0.682094 0.179819 -0.398147 -0.992186 -0.129881 -0.78974 -0.0298063 0.411456 0.00530789 0.0553221 -0.0551832 -0.530196 -0.0343112 0.0378317 -0.237642 0.246771 -0.10798 0.135891 -0.493779 0.126493 -0.78631 0.166969 -0.284691 -0.0346132 -0.22139 0.0680533 0.27528 -0.939657 0.202261 0.00547646 0.0388898 -0.414347 -0.386687 -0.592806 -0.151298 0.0847679 -0.144555 0.643153 -0.0261875 0.00494519 0.538785 -0.236783 -0.523195 0.102318 1.95767 -0.604155 -0.340041 0.154798 -0.0138811 0.0178143 0.180233 0.281171 -1.13593 0.265528 -0.144967 -0.584816 -0.645931 -1.0587 -0.477778 -0.139711 -0.364139 -0.277121 0.169065 0.123642 0.313691 -0.483106 -0.577654 -0.226513 -0.0605568 -0.0684177 -0.630495 -0.167879 -0.494077 1.26013 -0.509105 -0.164691 -1.56011 0.0491472 -2.02738 -1.22995 -0.650528 1.70532 0.265141 0.0109852 0.0343898 -0.463997 -0.671226 0.136145 -0.217809 -0.591824 0.157712 -0.288211 -0.0398947 -0.152077 0.147071 0.322142 0.114906 0.298572 -1.46091 0.0391761 1.04229 -0.271761 0.229819 0.0374542 -0.306248 -0.0102127 0.89312 -0.626977 0.0687992 -0.274881 0.0686434 -0.32529 -0.0784184 0.940342 -1.87587 -0.386634 -0.32489 -0.0306604 
row 0.258976 -0.214859 -0.467369 0.0765821 -0.563182 -0.0722611 -1.05741 -0.134577 -0.555529 0.0792484 0.231254 0.142408 0.285904 -0.725445 -0.0593778 -0.221085 0.0621277 0.194033 0.101502 -0.0185428 0.0319029 -0.202887 0.0892001 0.138123 0.398293 0.15831 -0.226476 0.143003 -2.77381 -0.332557 0.0670294 0.141831 -0.489768 0.0635243 -0.49537 0.0624756 -0.0809033 0.345378 -0.123808 0.0956804 0.0347517 -1.00088 -0.0665251 0.0990228 -0.733386 -0.203894 -0.359663 -0.0735464 0.0370669 -0.279689 -1.56463 -0.32821 -0.135791 0.0573804 -0.229822 -0.101192 -0.062088 0.0754445 -0.329917 0.103932 -0.920278 0.0615838 -1.2533 -1.00413 -0.00356822 -0.277023 -0.365022 -2.54735 0.393169 -0.0571537 -0.0168625 -0.0678061 0.105589 0.111827 0.189034 -0.0668147 -0.404324 -0.0998834 0.0269343 -0.119781 -1.06 0.128185 -0.586794 -0.0021893 -0.232949 -0.0405536 -0.291719 0.116937 -0.368721 -0.532975 -0.103532 0.0694838 -0.337803 0.107049 0.082535 -1.14502 0.0117262 0.0851402 -0.49406 -1.51586 -0.0860062 -0.152338 0.0556015 -0.0249533 0.147596 -0.458774 0.120017 0.0931722 -0.077278 -0.224949 -0.367696 0.407685 0.0868642 -0.0417718 -0.543338 0.064929 -0.485955 0.0623335 0.0463849 -0.0761552 0.0425397 0.020377 0.106377 -0.136109 0.0555095 -0.157739 0.519159 0.113605 
row 0.297171 -0.784515 -0.745706 -0.131168 -0.207164 -0.0978904 -0.0795254 0.163481 -0.723344 -0.976371 -0.251132 0.0320882 -0.852595 -0.77893 0.00358225 -0.354339 0.0978288 -0.232596 0.111269 -0.0505073 0.116964 0.069114 0.0317912 0.0367069 0.487196 0.111267 -0.427509 -0.284567 -0.533466 -0.487428 -0.72076 0.00780051 0.184818 0.0969839 -0.283578 -0.0332376 -0.893926 -0.621397 0.688146 0.0955541 0.0597411 -0.260064 0.13875 -0.30728 -0.0490487 -0.505453 -0.269783 -0.19565 0.0548149 0.374444 -0.193734 -0.310958 -0.261716 0.0156689 -1.025 -0.196142 -0.269675 -0.114972 0.0919451 0.105495 -0.373214 -0.0551738 -0.0343579 -0.492229 -0.275333 -0.481813 0.049902 0.714624 -0.5059 -0.0684936 -0.680906 0.1428 -0.0135769 0.0155191 -0.0161966 0.0274041 -0.938764 -0.269274 -0.261807 -0.282204 1.08618 -0.0169277 -0.400129 -0.619878 -0.131805 0.115634 -0.195612 0.0311391 -0.598852 0.0788678 -0.171888 0.872244 -0.739656 0.0947875 -0.0191191 0.465348 0.122258 0.0743555 0.70727 1.1256 -0.371611 0.0758143 0.0787353 0.201199 0.0114229 -0.112876 0.0367037 0.0749369 -0.939665 0.314632 -0.131143 0.0439398 -0.0163754 -0.000523425 -0.235524 0.067908 -0.0256085 -0.744599 0.00264614 0.134947 0.121764 0.289233 0.133798 -0.5359 -0.74358 -0.247874 -0.653571 0.121525 
row -0.218359 0.303721 -0.545594 -0.421337 -0.0931031 -0.209869 0.306049 -0.0762184 -1.03394 0.0400425 -0.24728 0.112962 -0.273268 -0.0308076 -0.0438418 -1.1163 0.112078 -0.0930424 0.129192 -0.147917 0.0462202 -0.0425104 0.0538054 0.150896 -0.0740413 0.816269 -0.482472 0.0489508 -0.283841 -0.184453 -0.622468 0.103496 0.128744 0.0443788 -0.12889 0.0971836 0.673649 -0.374201 -0.492332 0.0624828 0.0902524 0.00885194 0.0293896 -0.349951 -0.249421 0.06089 -1.01261 0.13643 0.0464466 -0.542977 0.120587 0.0333694 0.346235 0.102434 -0.144933 -0.890963 -0.23537 -0.151076 -0.834088 0.0555948 0.159187 0.598005 -1.04778 0.0533766 1.23057 -0.248865 -0.0554251 -0.255683 0.246797 -0.971922 0.0216103 0.0623886 0.127968 0.145997 0.00732191 -0.538018 0.379643 -0.117327 -0.0198326 -0.0363533 -0.725361 0.15256 -0.356875 1.37497 -0.0416608 0.0843497 -0.337591 0.106019 -1.71257 -1.69413 0.638202 -0.536345 -0.579879 0.0890961 -0.0219039 0.047547 -0.311945 0.0706774 -0.526932 -0.407223 0.880074 0.056749 0.0580623 0.155452 0.110798 0.866687 0.0182883 -0.318781 -0.443536 0.3155 -0.597586 0.295957 0.0734651 -0.0281208 -0.901615 0.152869 -0.544656 -0.843871 0.113273 0.139019 0.0960391 -0.0323597 0.12837 0.180067 -1.1108 -0.291478 -0.607325 0.110796 
row -0.390954 0.0289353 -1.29496 -0.576325 -0.505149 -0.186787 -0.382097 0.0707773 -0.864248 -0.727203 -1.05994 0.120508 0.0728416 -0.39234 -0.445885 -0.498938 0.0537407 0.203716 0.0740679 -0.142755 0.0633748 0.0532113 0.0525791 0.0865952 0.109738 0.415899 0.271563 0.102853 0.116741 -0.359652 -1.44744 0.0630639 -0.328603 0.0927711 -0.299113 0.000205819 -1.30472 0.318161 -0.110921 0.143612 0.0843717 0.703209 0.16028 -0.330599 -0.53284 -0.40387 0.512382 0.137314 0.0373313 -0.425218 -0.916058 0.31068 -0.589822 0.0226622 -0.917122 0.428438 0.015829 -0.25085 -0.1856 0.155786 -0.359368 -5.49939e-05 -0.873649 -0.805538 -0.206938 -0.655795 0.0485623 -0.551073 -0.520528 -0.270758 -0.977293 0.13118 -0.0831644 0.0720994 -0.250661 0.0253845 0.145013 -0.732405 -0.419297 -0.606095 -0.495633 0.35236 -0.274829 -0.161923 -0.582109 0.0920799 -0.559861 0.0802518 -0.743771 -0.102711 -0.270627 -0.411275 -0.889493 0.0116699 0.00233698 -0.0455823 -0.395516 0.0516619 0.0316723 0.590636 -0.784175 0.0920232 0.121757 0.135113 0.0914067 0.498657 0.0321106 -0.206113 -1.56446 -0.0490959 -0.725409 -0.00138062 0.0506089 -0.335381 -0.698603 0.0184753 -0.779427 -0.0327841 -0.0313378 0.0739568 0.081452 -0.185533 0.071446 -0.605264 -0.358844 -0.420965 0.237191 0.046768 
row -1.19469 0.355384 0.213966 -1.6692 -1.89334 0.185705 0.307382 -0.138994 -0.252579 0.494273 -0.110577 0.0208204 0.289643 -1.35009 -0.16233 -2.06347 0.0486705 0.072573 0.0841999 0.147071 -0.00357199 -0.0123432 0.111496 0.127344 -0.266492 0.0964053 1.12662 -0.164203 0.390008 0.103149 -1.78651 -0.0997114 0.146689 0.0999299 -1.73454 0.0453348 0.030901 -0.065016 -0.270825 0.0499658 0.0432608 1.68405 -0.0398509 1.81647 1.38374 0.245831 -0.024073 0.892543 0.154096 -1.17878 -2.21304 -0.663203 0.126363 0.107296 -3.13879 -0.0197342 0.389936 0.39025 2.7904 -0.0187245 -0.278683 0.0724896 0.0239818 -0.147296 -0.338826 -1.24259 0.10893 -3.77697 0.787119 0.0574276 0.207692 -0.0343342 0.0534901 -0.0279091 0.333793 -0.285428 0.304283 -0.310537 0.0875805 0.570324 -1.31685 -0.343082 -0.760633 0.857145 0.26277 -0.0549386 1.2514 0.128071 -2.02135 -0.685984 -0.219331 -4.52083 0.56973 0.12755 -0.0622341 -0.443355 -0.566599 0.0994603 -2.03278 -1.39019 0.425761 -0.0819747 -0.0276472 -0.0288881 0.0879227 0.648496 0.0972111 -0.216972 -1.06762 0.0132393 -2.74415 -0.0945551 0.0415729 -0.661017 -0.0213545 0.0954526 -1.43344 -1.08955 0.0956934 -0.0958354 0.123721 -0.039082 0.0550003 -0.872706 0.171847 -0.753357 0.515665 0.15271 
row 1.60542 0.438084 0.268887 0.15699 0.0593955 -0.0113023 0.118145 -0.173481 0.000862591 -0.0412693 0.190632 0.122569 -1.27343 -0.369236 0.021983 -1.15051 0.0528563 0.237359 0.0689098 0.0332833 -0.143452 -0.142481 0.0705106 0.0519314 0.737551 -0.24964 -0.707106 0.0435896 -1.61494 -0.095557 0.440131 0.0547329 0.276895 0.0731746 0.310158 -0.0190389 0.276504 0.178515 -0.406631 0.127245 0.0360789 -0.25908 -0.0717338 -1.13337 -0.831826 -0.0784804 -1.27256 -0.909751 -0.205334 -0.113474 -2.83162 -0.662804 -0.66816 0.0658427 -0.527312 -0.258058 0.287657 -0.0114313 1.35435 0.124358 -0.36919 0.198382 -0.477049 1.0385 -0.468731 0.13801 -0.185977 -1.04201 0.585935 -0.139224 0.150721 -0.05725 0.00114029 0.0129312 0.18919 -0.378739 -0.0201817 -0.282523 0.0502534 -0.409253 -0.181075 0.00439211 -0.0443281 -0.168717 -0.749341 -0.092984 -1.00424 0.0605411 0.376822 -0.318091 0.0922449 -0.583038 -0.71743 -0.0058327 -0.0510795 0.764313 0.281326 0.0845466 -0.748705 -0.271676 -0.43902 -0.0298243 0.104427 0.0312128 0.192744 -0.218795 0.124035 0.0153626 -1.36508 -0.175789 -0.307772 0.0141871 0.153689 0.414655 -0.319663 0.0625585 -0.645173 -3.57626 -0.0544724 -0.0438994 0.151478 0.16307 0.0816645 -0.00517965 -0.298858 0.12419 -0.706788 0.0739467 
row 6.16446 -0.732408 -0.263956 -0.56215 -0.499591 0.217816 0.430699 0.150579 -0.0888737 -1.08992 0.0813453 0.360169 -2.1771 -0.904718 -0.287298 -0.78909 -0.0134591 0.666002 -0.141719 0.305721 -0.158564 0.177469 -0.0663495 -0.0957579 0.416534 1.13906 -1.38437 -0.760789 -1.21086 0.129693 0.433187 0.200364 0.047862 0.00451203 -0.390911 0.0869483 1.21573 -0.523863 -1.81853 0.0288021 -0.0702172 -0.571117 -0.0913603 -0.970347 2.05957 1.52792 -0.66369 0.048628 -0.334673 -1.41067 -0.0246635 0.419696 -0.408563 -0.00521715 2.3554 -1.91 -0.840989 0.0199581 1.22561 0.150506 -0.476182 -0.0239453 -1.53466 -0.978017 -1.18494 -0.152292 0.819791 0.874934 -0.268506 -3.34136 -0.008084 -0.0469739 -0.0109269 0.148807 -0.262774 0.522961 -0.670298 -0.85416 0.260635 -0.293201 -0.0655799 -0.0713162 3.1815 -0.0920179 -0.292821 -0.148037 -1.28098 -0.0942327 -0.153702 4.39695 0.0700001 -1.13468 1.55475 -0.145575 -0.0683977 0.123642 -1.36108 0.2214 4.13928 3.20781 -1.79459 0.0207224 0.128425 -0.00778009 0.218288 -0.495535 0.154997 -0.218209 -2.25162 0.224917 -1.14771 -0.0189983 0.397872 0.0200843 2.05969 -0.157232 6.17684 -0.112159 -0.0213541 -0.0886979 0.173241 -0.0768072 -0.0492155 -1.20214 -0.622593 -2.0761 -2.1638 -0.102512 
row -0.280525 -0.545759 -0.717659 1.15823 -0.143568 -0.156619 -0.186247 -0.0336479 -0.418216 -0.925148 -0.107677 0.198107 -0.894965 -1.01081 0.0330152 -1.54357 0.0406609 0.332229 0.00631976 -0.0440713 0.00936639 -0.184112 -0.0377196 -0.038604 -0.0362447 -1.05789 -0.448548 0.270288 -0.26632 -0.447607 -0.751401 0.190029 -0.591973 0.0156154 -0.42112 0.00812365 -1.14436 0.193457 -0.17103 0.11526 0.0438268 -0.457309 -0.113422 -0.750397 -0.691935 -0.505976 -0.402454 0.0185392 -0.111068 -0.051461 -0.182165 -0.0884136 -0.3983 0.021538 0.607536 0.153702 -0.614043 -0.0698649 -0.422667 0.0728786 0.549846 0.0948349 0.189598 0.049984 -0.69969 -0.501131 -0.144606 0.925703 -0.30448 0.098317 -0.476552 -0.107646 -0.0388039 0.0432381 -0.044852 -0.116997 -0.0957562 -0.344602 0.0207231 -0.326838 -0.742533 -0.319922 -0.647164 -0.51607 -0.312036 -0.0940416 -1.16622 0.0179923 -0.0191949 -0.73361 -0.767416 -0.137026 -0.774008 -0.0626289 0.0808583 -0.128156 -0.59602 0.122062 0.61837 -0.890902 -0.467265 0.00344035 0.116655 -0.00566439 0.217304 0.127905 0.166186 0.0383851 -1.39631 -0.184186 1.68802 0.286031 0.161881 -0.313967 -0.00619877 -0.0657625 0.115249 -0.205845 0.0446679 -0.0946624 0.0854021 0.11835 0.0171448 -0.20134 -1.41861 -0.0612786 -0.0502273 -0.0328523 
row 0.586363 -0.380861 -0.159077 -0.496498 -0.809126 -0.107111 -0.885382 -0.0599929 -0.141934 -1.72022 -0.5083 0.147499 -0.780232 -0.907613 0.0874012 1.06863 0.0364104 -0.0695719 -0.0270938 -0.249164 0.0118692 -0.097897 0.0369421 0.0363733 0.405183 -0.68336 -0.306877 0.684892 -0.826171 -0.716406 -0.321749 0.182085 -0.336941 -0.00634751 -0.14335 0.117017 -0.4642 -0.723507 0.778451 0.0332587 0.0384316 -0.740799 -0.091719 -0.518803 -0.861714 -0.769021 -0.233653 0.20626 -0.0417543 1.64058 -0.514681 -0.19506 -0.594215 0.0882042 1.76361 1.54818 -2.20294 0.137087 -1.15815 0.0953868 -0.18111 -0.18048 -1.25437 0.360053 0.169619 -0.880524 -0.264798 -0.410993 -0.934908 0.505642 -0.00792156 -0.0825973 0.0905309 0.108553 0.253571 -0.0568853 -1.06217 0.282004 -0.0650977 -0.0403697 -0.313706 -0.743737 -0.565372 -1.18672 -0.240747 0.015291 -0.716833 0.0231238 -0.461133 -1.11253 -0.987723 3.51504 -0.831 0.0608996 0.14276 2.24859 -0.241653 0.0294658 0.78966 -1.62527 -0.489408 -0.00730989 0.0669157 -0.00946601 0.120107 -0.633099 0.0856213 0.520977 -1.15659 -1.75982 2.10331 -0.0215753 0.183267 0.231232 -0.197825 0.0311485 -0.574314 -0.716375 0.0215301 -0.0184624 0.0426375 0.334054 0.0589278 2.50137 -0.622062 -0.138797 -0.302979 0.0219816 
row -2.20727 -0.416369 -1.21196 -0.486112 -1.82604 -0.0616692 0.0513344 -0.0144387 -1.27569 -0.994871 -0.00714685 0.0638094 1.24068 -0.226877 -0.0100462 -0.794549 0.0868956 0.0385443 0.179327 -0.0430517 0.0615504 -0.0218547 0.139654 0.109739 -0.378126 0.742044 0.176972 0.157452 0.18542 -0.196573 -0.610723 0.132015 -0.198858 0.113186 -1.72361 0.0939247 0.160652 0.0721059 -0.0282239 0.0890896 0.0583929 0.365542 0.0118301 0.89617 0.491669 -0.0932975 1.09999 0.691424 0.0951324 -0.892664 -0.997467 -0.0556071 0.0718371 0.107594 -0.177151 0.514454 -0.772562 0.0807475 0.483443 0.0660024 -1.28064 -0.109225 0.278708 -0.565812 0.306962 -0.584942 -0.0469901 -2.07899 -0.601142 -0.0291092 0.0931418 0.0861395 0.101934 0.0911477 -0.03401 -0.168382 -0.615969 0.188193 0.0609009 -0.0409281 -0.738485 0.000620797 -1.01506 -0.222478 -0.146057 0.0303419 0.274818 0.0896386 -1.23174 -0.802738 0.25118 -1.25638 0.104098 0.0849312 0.0769917 -1.14325 -0.62143 0.0704798 -1.16353 -0.865151 -0.0346173 0.0895368 0.102759 0.0672593 0.098405 0.23644 0.0830487 -0.0301156 -0.288609 -0.0600147 -1.27894 -0.0375384 0.0292936 -0.167407 0.137549 0.137766 -1.73755 1.45095 0.123706 0.0810981 0.0856751 0.146069 0.0722811 0.479206 0.899854 -0.773254 0.283836 0.0682477 
row -2.60408 3.13087 -0.212751 -0.30229 -1.89394 -0.232143 -0.722829 0.700696 -0.635742 -0.057228 -0.374089 0.161118 -0.591349 -0.644269 -0.24174 -1.21149 0.142673 0.0218078 0.095993 -0.165877 0.468249 1.07813 0.122126 0.0551213 0.966469 0.0076912 -0.781142 -0.893523 0.380074 -0.519093 1.55869 0.0987239 -0.165643 0.123424 -0.361598 0.0690499 -3.06154 -0.359195 0.0978498 0.14523 0.107695 -1.28312 0.551528 -0.363835 -0.684179 -0.778779 -0.294555 -0.531818 0.344624 -0.545667 -0.231705 -0.00985675 0.0889137 0.0265825 0.238834 -0.502845 -0.144069 0.0990716 -1.30983 0.141241 0.7946 0.0343631 0.0937648 0.366004 -0.823779 -0.90819 1.24276 0.61085 0.125748 -0.79665 -0.746173 0.447417 0.0681734 0.0369851 0.0250535 1.23893 -1.94963 0.346953 -0.0196769 -0.560099 -0.732025 -0.457554 -0.211415 -0.0580251 -0.000535869 0.486657 2.50541 0.0814983 0.120703 -1.45349 -0.437194 1.146 -1.34681 0.0729902 0.0716251 -0.869392 0.0329011 0.0341196 1.05951 -0.184346 0.624664 0.657116 0.101798 0.337175 0.14773 -0.339717 -0.0285494 0.111475 -0.884906 0.226166 0.111829 1.08712 -0.0302693 -0.168974 -0.360465 0.141128 3.29119 -1.33449 0.11277 0.489189 -0.00323082 -0.672722 0.200467 0.32385 1.07677 -0.266594 0.749664 -0.0591842 
row 0.868493 -0.660824 0.0946039 -0.719814 -0.769414 -0.0324339 0.332681 -0.0477461 0.197722 0.0623747 0.454442 0.133579 -0.589337 -2.05437 0.015212 -1.0374 0.0425077 0.267057 0.0465125 -0.015527 -0.0487847 -0.160153 0.0376125 0.0345934 0.0641048 -2.26735 -0.148272 -0.097985 -1.31114 -0.149627 -1.20707 0.0689496 -0.336498 0.0284704 -0.412784 0.0457035 -0.177287 0.147323 -0.162624 0.138156 0.0491087 0.146552 0.0513055 -1.22004 -1.09192 -0.267288 -0.733793 -0.78462 -0.218151 0.378127 -0.755375 -0.703405 -0.288406 0.000232163 -0.407706 -0.0273363 -0.559545 -0.0284803 -1.98835 0.188308 -0.553457 0.0686589 0.196644 -0.768409 -0.651825 -0.102565 -0.251195 -0.841685 -0.606174 -0.191621 0.0714474 0.0311002 -0.0636345 0.0172064 -0.0455811 0.149357 0.396251 -0.299174 0.127547 -0.191912 -1.06624 0.0399865 -0.110515 -1.16254 0.77342 -0.0351177 -0.891112 0.0524701 0.707953 -0.00169985 -0.621155 -1.34157 -0.46624 0.102122 0.0301841 0.246286 0.737553 0.155206 -0.872514 -0.9241 -0.390538 -0.0384402 0.0952605 0.0670477 0.201541 -0.189352 0.114864 0.04964 -2.08284 -0.304714 -0.161224 -0.417681 0.116515 0.304261 -0.287038 0.0525498 -1.12858 -2.57003 -0.0654217 0.0109187 0.113664 0.163086 0.0854665 -0.791682 -0.657309 -0.858027 -0.757857 0.157142 
row -0.952571 -0.404151 -0.925921 -0.289635 -2.47246 -0.0237656 1.31259 0.1968 -1.75217 -1.3377 0.325016 0.0688937 1.80928 -0.991988 -0.0386356 -1.92045 0.0696762 0.292894 0.108343 0.055499 0.131781 0.146668 0.12436 0.0809526 0.151188 2.45403 0.0244295 0.296387 -0.69812 0.0873199 -3.33018 0.0488766 0.00873057 0.109305 -1.98538 0.100214 -0.647183 0.316505 -0.267334 0.137802 0.0845488 0.988751 0.174119 5.16467 1.74219 -0.0805892 1.81954 0.78631 0.163399 -1.00874 -3.02856 -0.580233 0.236882 0.115213 0.118284 -0.226405 -0.0597227 -0.0375158 -1.3885 0.0893804 -0.7978 0.0172415 -1.15906 0.0891279 -0.128883 -0.628868 0.256658 -1.53832 -0.210883 -0.0311768 0.282374 0.189533 0.0972028 0.0672062 0.0129674 0.0533914 -0.812462 0.184193 -0.158559 -0.115416 -1.27026 0.329906 -0.565575 0.620957 0.423058 0.13543 0.411605 0.101912 -2.2489 -0.319522 0.260452 -1.48396 -0.631146 0.147155 0.0680706 -1.47866 2.82229 0.00205503 -0.597643 0.0695806 -0.413618 0.164842 0.074157 0.126209 0.0717782 0.241766 0.0206661 0.036026 2.50131 0.19308 -1.31029 -0.863789 0.0117144 0.218329 -0.208807 0.218024 -0.0953135 -1.69148 0.0603255 0.206502 0.107554 -0.0459939 0.218403 -1.14852 -1.48002 -0.680849 -0.203426 0.00870527 
row -1.17264 0.118172 -0.484346 -0.966646 -1.14761 0.369519 -0.207307 0.832239 -0.567519 -2.09922 1.9399 0.163898 -0.808774 -0.330874 -0.236393 -2.0784 0.224773 1.47186 0.136514 0.25531 0.308426 1.63899 0.190926 0.149883 0.402732 -2.87146 -1.67623 1.47681 -0.28622 -0.16405 -0.114585 0.113021 -0.0719241 0.180381 -0.28243 0.0333951 0.689171 1.20531 -0.544647 0.13887 0.10872 0.995608 0.904469 -0.0109561 -0.996747 -1.1903 -1.12328 0.425252 0.516136 -0.98286 -0.0403996 -1.12763 -0.589836 0.0508637 -0.46093 -2.04112 -0.436164 0.0602011 -3.84482 0.150314 0.439164 -0.448695 -2.88444 -0.716998 0.450569 -1.11069 1.70913 0.272612 -1.58587 -0.81614 -1.78776 0.591515 0.0438108 0.100095 -0.00925207 0.24596 -2.76066 -0.78914 -0.377614 -0.977377 -0.497311 -2.95999 -2.16583 -3.56248 -0.439681 0.989157 6.47308 0.127428 -0.278037 -1.09305 -0.470668 -0.954272 -1.53241 0.110004 0.0965972 -1.59599 -0.600803 -0.0385676 -0.0626231 -1.67823 -0.501614 1.29002 0.160667 0.428903 0.1677 -1.59793 -0.1421 0.0568163 -1.41399 -0.092419 -0.765727 1.1983 -0.155312 -0.0561186 -0.524957 0.216865 -2.16941 -0.833605 0.124335 0.843725 -0.0405258 -0.847909 0.284398 -0.89366 3.10623 -0.363654 0.399525 0.0631729 
row -0.115097 -0.296671 -0.143716 -1.01272 -1.04131 -1.46055 -0.520903 0.188534 -1.33705 -6.13104 -0.725977 0.0746981 -1.33393 -0.706006 -0.284028 -4.79645 0.20465 0.518945 0.190922 -1.22717 0.263029 -0.0343226 0.21865 0.231139 0.0849365 -0.118312 3.05755 0.0124515 -4.0549 2.92972 -1.17894 0.0758993 -0.806672 0.175291 0.0130849 0.146461 -0.843482 0.899513 -0.0263684 0.124948 0.159551 0.126185 0.157769 0.0778282 -2.44576 2.79268 -2.89886 -0.158844 0.268965 -0.466576 -0.212197 -0.0487906 3.13915 0.124441 -0.945596 -0.692527 -2.3113 -1.15685 -0.431773 0.130553 -0.73543 0.139265 -1.67595 0.00337681 -0.448895 -0.983884 -0.0647273 -2.12568 -1.31406 0.936466 3.48226 0.259969 0.0976217 0.123442 -1.83457 -0.0298794 -8.1845 0.244246 -0.713974 2.88533 -1.84125 -1.31213 -1.58337 -2.38591 2.19761 0.159119 1.53466 0.176836 -3.7702 -0.8037 -2.3794 -1.41524 2.41027 0.149339 0.00885716 -0.119306 -0.812063 0.0184422 -2.40635 -1.59267 4.42542 0.18553 0.229967 0.192594 0.102638 -1.93199 0.00713491 -0.226906 -1.8411 0.778022 -0.955016 -0.0656808 -0.0380026 -0.0491436 0.0860531 0.22462 -2.23473 -0.661675 0.0511965 0.206126 0.0516891 -0.874402 0.268656 -1.06302 0.202109 0.148182 -1.16508 0.0894229 
row 0.123158 -0.521391 0.695163 0.224763 -0.203232 -0.25403 0.178438 0.0121237 -1.26799 0.843338 -0.428011 0.0955321 -0.30502 -0.442155 -0.386022 -0.283763 0.0199143 -0.205504 -0.0336436 -0.0670389 0.047714 -0.0258014 0.0499177 0.036195 0.0846143 -2.37217 0.731247 0.474997 0.42483 0.92438 -0.424359 0.159379 -0.679291 0.012209 0.585779 -0.0181459 -0.289548 -0.309829 -0.375056 0.0727584 0.0649785 -0.464444 -0.00801103 -1.55569 -0.376636 -0.133 -0.793465 -0.414627 0.00703617 0.110366 -0.13555 0.0333009 -0.873963 0.0582427 0.424875 -1.07626 -0.217081 0.269717 0.189034 0.16571 -0.608844 -0.0741041 -0.657191 -1.93285 0.0954933 -1.22634 -0.188667 -0.216213 -0.124672 -0.31374 0.59679 -0.0408615 -0.0921563 0.0523388 0.611934 -0.167679 -1.64349 -1.28193 -0.0819745 0.627398 -0.608973 -0.680293 2.98318 -0.202169 -0.578353 0.0219519 -1.56574 -0.0196459 -1.76095 0.203017 -0.323985 0.778813 -1.55581 0.0485611 -0.0862686 4.50474 -0.23289 0.122294 -0.837614 0.505598 1.66124 -0.0176184 0.107149 0.0876609 0.0983175 -0.247135 0.11419 -0.1265 -0.352 0.44269 -0.304906 0.342591 0.223279 0.0351497 -0.639928 0.0282147 -0.159494 -1.39202 -0.0234009 0.0337763 0.0786578 -0.559168 0.0309156 1.37837 -0.602233 0.596046 -0.194117 -0.00930129 
row 1.02737 0.0623684 0.267139 -0.407384 -0.184088 0.081044 0.0721261 -0.0447342 -0.845098 0.454421 -0.870871 0.135983 -0.582879 -0.597754 0.184915 -0.172661 0.0537167 -0.298013 0.0469629 0.056872 -0.0903532 -0.0736997 0.0278427 0.0192643 0.201544 -0.0177049 0.901166 -0.61359 0.0829062 0.0557683 -1.08488 0.0584881 0.120475 0.064744 -0.156537 0.0715867 0.572129 -0.0739829 0.19047 0.0613031 0.0416745 -0.0765734 -0.0783618 -0.290935 -0.803203 0.037384 -0.752117 -1.45486 -0.159883 -0.00208718 -1.26079 -1.24813 -0.360785 0.0342862 -1.10757 0.675485 0.465299 -0.0315137 -0.670239 0.112911 -0.434678 -0.0492644 0.166749 0.186662 0.266155 -0.261669 0.0310293 -0.349275 -0.162894 0.302269 0.129538 -0.106998 -0.0332776 0.0861584 0.0554113 0.0989561 0.170352 0.0793236 0.0816478 -0.0433664 -0.151807 0.038117 -0.0532573 -2.38861 0.395507 -0.0489643 -0.463169 0.0323011 -0.140547 -0.150883 -0.0645745 -0.75331 -0.335796 0.0489177 0.0812162 0.328485 0.338983 0.152044 -0.0320415 -0.331441 0.136746 -0.0298589 0.0886811 -0.0117382 0.117307 0.081017 0.0977494 0.0018926 -0.858286 -0.0148064 -0.0817104 -0.116459 0.165923 0.282331 -0.190169 -0.015004 -0.50196 -1.55932 -0.034745 -0.138894 0.147936 0.456317 -0.0178911 -0.573621 0.355653 -0.182258 0.00114985 0.0992792 
row -1.34815 0.210132 -0.0973674 0.124379 4.35221 0.121401 0.0994129 -0.16324 -0.169021 -1.29834 0.25113 0.0263572 1.49431 -0.686804 -0.0168816 -1.36404 0.0546406 0.149097 0.0798398 0.0915912 0.0909161 -0.0799726 0.121931 0.158611 -0.625803 0.217665 0.403367 0.243416 0.0621791 0.112293 -0.834417 0.132913 0.147202 0.0486459 -0.347405 0.0526838 -0.328053 0.0765293 -0.0981935 0.107882 0.142356 4.99725 -0.0883308 -0.797783 0.0148676 0.00889968 -2.11034 -0.147674 0.13232 2.2721 0.026349 -1.73827 0.437256 0.116814 -0.0945769 0.280989 -0.592038 0.231064 -1.14082 0.020443 0.173061 0.0266749 -1.57415 -0.484064 0.857185 -1.66665 -0.0558479 -1.45795 -0.309618 0.359959 0.127391 0.0277404 0.181325 0.080474 0.228047 -0.260945 -0.13925 0.200386 0.00252692 0.294261 -0.845211 -0.310585 0.046712 0.236297 3.25891 0.0023322 0.0728511 0.112286 1.40773 -1.12219 0.487127 -0.35302 0.121598 0.110591 0.0907427 -1.03619 -0.869061 0.129635 -0.542573 -0.736501 0.658536 -0.0560827 0.022706 -0.00686777 0.119175 0.42996 0.0912729 -0.0485199 -0.257908 -0.124531 -0.532189 -0.41819 0.0200918 0.114539 -0.354216 0.181073 -1.56401 -0.720376 0.14518 -0.0244488 0.0844657 0.274191 0.118384 -0.45476 -0.131345 -0.752235 -0.408921 0.106065 
row -0.652552 -0.142336 -1.03557 0.411864 -0.063079 0.15302 0.718859 -0.54555 -2.98566 -0.0590006 0.391206 0.228443 -1.0384 0.337055 0.615799 -0.7756 -0.123147 0.596603 -0.118572 0.0883535 -0.310368 -1.20324 -0.0314152 -0.116292 -0.0641696 -1.1545 -0.672697 -1.00344 -1.00809 0.129944 -0.269866 0.119744 1.312 -0.0890666 -0.409607 0.0979817 0.907486 2.21515 -0.337249 -0.0699916 0.039318 1.15547 -0.703387 -0.437066 -1.40433 -0.701171 0.000465539 0.0917033 -0.29699 0.015532 0.258576 -0.0482367 -1.28087 0.0677566 0.273285 -0.30592 -0.657089 0.0851843 -0.174787 0.0391899 0.447373 0.465 0.845279 -1.00762 -1.34796 -0.111395 -1.04451 -0.615222 0.0730913 -1.36513 -1.47197 -0.543749 0.197602 0.123509 0.0558115 0.251512 -1.71841 -1.17465 0.708161 -1.0242 -0.084565 1.1874 -0.495323 0.811218 -0.790398 -0.439003 -4.38873 -0.0829077 -0.540161 -0.548166 -0.587955 -0.000429209 4.30049 -0.0245156 -0.121435 0.210189 -0.982655 0.189892 -0.12498 -0.0449441 -1.47799 -0.727223 -0.0373344 -0.46106 0.0975031 0.324961 0.244612 0.408441 -0.755512 -0.0831891 -0.629151 -0.411468 0.445441 0.196467 0.0391056 -0.196127 0.797022 -0.810753 0.124004 -0.767146 0.117458 0.633692 -0.253428 -0.114755 -1.90896 -0.398389 0.421759 0.278862 
