bias
-0.162432 -0.474271 -1.65677 -0.150807 3.44113 -13.3939 -0.144606 -0.191917 -10.9123 -11.9342 -0.165545 -0.814302 -7.20099 -19.2839 -4.56792 -18.3484 -20.0575 -0.704235 -1.64457 -0.154328 -11.8787 -0.201343 -0.150477 3.27068 -0.157754 -1.59111 -14.2001 -6.30259 -17.7672 -0.127091 -0.201504 -0.176354 -0.747044 -10.9936 -3.66481 -12.1951 -7.89538 -0.182511 -0.173424 4.8078 -0.9172 -25.8316 -0.151432 -12.6571 -9.2174 -0.147591 -0.156837 -9.63728 -0.176455 -19.5657 -1.6465 -0.165965 -1.0435 -0.166215 -10.9949 -11.0536 -2.26879 -7.0756 -0.19619 -8.02995 -0.181707 -5.97048 -0.141261 -0.749869 -0.6719 -0.150995 -9.09634 -8.80464 -7.73637 -2.98006 -15.0593 -12.372 -1.35399 -0.149394 -7.12223 -6.53629 -0.182081 -0.188867 -1.86998 -9.90547 -2.84062 -9.65383 -0.170409 -9.70098 -0.977991 -2.96051 -0.139444 -8.20955 -14.1516 -2.4837 -15.4239 -4.95476 0.816551 -7.75974 -13.5683 -0.261485 -7.82895 -15.131 -0.155088 -12.2102 -18.265 4.29833 2.09916 -6.95545 -10.4104 -0.209852 -9.74329 -18.0797 -1.17231 -13.3659 -18.6834 -0.160894 -0.725647 -0.156806 -1.48051 2.3354 -3.65111 -14.751 -6.18807 -11.5654 -10.2706 -10.4131 -5.79866 -4.63291 -3.95582 -1.10406 -4.17858 -13.7529 
bias
-0.253439 -0.236333 3.4837 2.8026 -2.34085 -2.84006 1.38139 -1.21365 -6.85472 2.35213 -5.26605 5.85329 -2.38229 -1.04088 5.25832 0.405671 -10.3042 -0.605204 -1.43012 -0.259934 0.400696 8.37088 1.63391 4.03181 4.37692 7.14447 3.57904 -10.0485 0.135587 -1.5986 1.38713 -6.75882 -2.95989 -0.320633 4.0058 -1.33452 -7.71307 -6.20729 -0.0196194 1.39274 3.24779 -0.744886 -2.16966 0.395734 2.02361 2.72014 -7.99037 -0.478603 -1.83416 -6.98828 -1.32862 1.00837 -0.0419417 -4.45 -0.884674 6.96366 3.71378 -6.13698 -2.82293 -1.32634 6.29485 -0.246026 0.501396 -8.19556 16.8373 4.59389 -1.64337 -1.28249 16.63 -8.90265 -0.705994 7.85706 0.705583 0.459802 10.4311 -2.95093 -8.50272 6.1595 -2.6418 1.82299 -1.2841 -0.183028 -0.963766 9.57749 -0.435334 -0.639772 -1.60322 -0.423078 -2.26261 -2.73433 -3.26959 7.14389 -9.14678 -0.476825 -11.6786 -5.16326 2.63439 -2.66529 1.81406 -1.25804 -0.507305 -0.982714 -7.22541 3.20842 -0.678865 -0.0469771 -0.152958 -2.203 -3.76565 -5.68574 -1.90131 -6.59472 -1.3212 -5.40869 0.135043 0.0413139 -0.429393 0.708245 -1.01229 2.01985 -0.104426 -1.59121 7.51021 -0.0103542 -9.90911 7.99511 -17.6772 16.8767 
bias
17.816 20.8408 19.6833 18.2456 
